tree
version=v4
num_class=1
num_tree_per_iteration=1
label_index=0
max_feature_idx=13
objective=binary sigmoid:1
feature_names=registration retention_d1_to_d7 retention_d3_to_d7 retention_d7_to_d14 retention_d1 retention_d3 retentiond7 release_msrp avg_act_days first_request_ts last_ins weekend_ratio weeks_since_first_seen wifi_ratio
feature_infos=[0:1] [0:1] [0:1] [0:1] [0:1] [0:1] [0:1] [0:5160] [0:7] [0:1759190400] [0:1759276792] [0:1] [0:6] [0:1]
tree_sizes=3446 3433 3448 3451 3459 3447 3469 3471 3490 3492 3489 3497 3484 3484 3495 3501 3477 3465 3477 3500 3479 3473 3482 3482 3481 3504 3510 3495 3486 3466 3478 3501 3467 3497 3489 3497 3484 3499 3475 3510 3497 3499 3502 3505 3488 3498 3500 3499 3489 3491 3488 3501 3493 3475 3505 3501 3498 3488 3501 3510 3506 3464 3524 3499 3502 3496 3492 3501 3490 3521 3506 3497 3533 3538 3541 3498 3501 3479 3493 3526 3511 3495 3505 3519 3495 3505 3511 3513 3540 3492 3498 3490 3501 3501 3512 3492 3543 3517 3480 3498 3539 3487 3491 3249 3552 3512 3475 3349 3499 3455 3500 3485 3452 3465 3518 3131 3523 3492 3513 3470 3523 3500 3490 3478 3491 3535 3064 3492 3518 3482 3468 3472 3521 3082 3428 3514 3507 3506 3468 3504 2387 3510 1892 3500 3512 3516 3501 2391 3528 3520 3475 3514 3510 2687 3491 2366 3530 3474 3511 3467 3515 3514 2091 2457 3465 3499 3448 3511 1891 3515 3486 3491 3539 3496 3444 2221 3458 3450 3478 3484 3485 3524 3453 3485 3467 2556 3471 3485 2208 3428 3486 3460 3470 3466 3510 2197 3492 3461 3504

Tree=0
num_leaves=31
num_cat=0
split_feature=1 0 13 6 0 5 10 13 4 4 13 13 10 13 13 13 13 13 5 3 13 4 13 10 11 13 0 5 11 13
split_gain=161362 25553.5 20692.8 18793.4 7606.15 4519.3 3011.19 2975.36 2119.37 2057.15 1666.86 1430.19 1238.73 963.454 866.706 1516.41 857.982 812.082 688.107 676.895 604.337 455.615 391.987 386.485 378.236 275.757 208.263 194.866 184.508 177.438
threshold=1.0000000180025095e-35 1.0000000180025095e-35 1.0000000180025095e-35 1.0000000180025095e-35 1.0000000180025095e-35 1.0000000180025095e-35 1756891203.0000002 0.06090073242948419 1.0000000180025095e-35 1.0000000180025095e-35 0.99998932741360547 0.99998932741360547 1756838438.0000002 0.99936844755362586 0.99967470067524011 0.20836063783311493 1.0000000180025095e-35 0.33341832398436178 1.0000000180025095e-35 1.0000000180025095e-35 0.11765970541864447 1.0000000180025095e-35 0.23597972347956933 1758410685.5000002 0.034509825150219241 0.99998932741360547 1.0000000180025095e-35 1.0000000180025095e-35 0.086969091862461309 0.085626597341270608
decision_type=2 2 2 2 2 2 2 2 2 2 2 2 2 2 2 2 2 2 2 2 2 2 2 2 2 2 2 2 2 2
left_child=1 2 12 4 5 7 14 19 18 17 23 -9 -1 29 15 -4 -11 -7 22 -2 26 -6 -5 -8 -16 -22 27 -10 -12 -3
right_child=3 13 6 8 21 9 10 11 20 16 28 -13 -14 -15 24 -17 -18 -19 -20 -21 25 -23 -24 -25 -26 -27 -28 -29 -30 -31
leaf_value=-2.2568048104913268 -2.1208971408347734 -1.9891759392195665 -2.1974661892531815 -2.0072523058271727 -1.9328304588033249 -2.0840667383838505 -2.0733533846893772 -1.9785703698113171 -1.9200717435517509 -1.9695771095140144 -2.1031954621371312 -2.0776517108501809 -2.155498555611393 -2.0757226413145258 -2.1390854948545357 -2.1147527885083992 -1.889735107311256 -1.9731059104391342 -1.881191827281663 -2.0424236825621098 -1.8168418621377733 -1.8647005611025207 -1.9210573265494415 -2.0163378689502149 -2.2003449208696928 -1.863816804975378 -1.832648612416524 -1.8669281841287322 -2.1808922340550478 -1.9492302788662887
leaf_weight=6544.3935412466526 1063.899902947247 741.4984767884016 723.72962567955256 290.25219035148621 386.36930150538683 330.0048401877284 581.41348610073328 1418.6158437505364 290.50012711435556 590.58717253804207 111.15865521878004 508.18927171081305 315.87240217626095 265.21050135046244 358.43500982969999 2453.672353990376 934.22857297956944 358.02177885174751 546.95016758143902 384.63374012708664 1879.8622677773237 1122.08256598562 307.19458677619696 720.01055896282196 905.55047496408224 548.93366745114326 520.0902689024806 1522.5843054130673 290.66542106121778 689.67953426390886
leaf_count=67315 8337 4049 6669 1676 1714 2364 4056 7481 1220 3015 832 3584 2670 1859 2924 18961 3429 1848 1920 2467 4440 3614 1296 4284 8392 1755 1370 4968 2590 3269
internal_value=-2.05508 -2.16858 -2.19241 -1.92677 -1.98173 -2.00876 -2.12577 -2.04539 -1.86081 -1.95305 -2.06915 -2.00456 -2.25212 -1.9861 -2.14754 -2.13355 -1.9204 -2.0259 -1.92319 -2.09988 -1.84591 -1.88188 -1.96233 -2.04159 -2.18284 -1.82726 -1.86552 -1.87521 -2.15889 -1.96968
internal_weight=27704.3 14701.3 13004.9 13003 7096.63 5588.18 6144.64 3375.34 5906.37 2212.84 1703.25 1926.81 6860.27 1696.39 4441.39 3177.4 1524.82 688.027 1144.4 1448.53 4761.97 1508.45 597.447 1301.42 1263.99 2428.8 2333.17 1813.08 401.824 1431.18
internal_count=184368 127870 118693 56498 37853 32525 48708 21869 18645 10656 11762 11065 69985 9177 36946 25630 6444 4212 4892 10804 13753 5328 2972 8340 11316 6195 7558 6188 3422 7318
is_linear=0
shrinkage=1


Tree=1
num_leaves=31
num_cat=0
split_feature=2 0 13 4 4 4 10 3 10 8 3 13 0 10 10 10 13 10 0 5 8 10 0 0 8 8 3 13 3 5
split_gain=72440 17407.1 16924.1 4377.3 2734.59 2197.6 1778.06 1603.27 1138.2 983.754 771.448 567.955 564.478 609.751 513.157 484.858 430.009 425.611 378.767 276.475 275.189 259.052 272.374 258.393 250.901 247.788 221.826 203.075 199.9 197.168
threshold=1.0000000180025095e-35 1.0000000180025095e-35 1.0000000180025095e-35 1.0000000180025095e-35 1.0000000180025095e-35 1.0000000180025095e-35 1756822070.0000002 1.0000000180025095e-35 1758643313.0000002 6.7500000000000009 1.0000000180025095e-35 0.99967470067524011 1.0000000180025095e-35 1757489159.5000002 1757012061.0000002 1756961988.5000002 0.99936844755362586 1757085642.0000002 1.0000000180025095e-35 1.0000000180025095e-35 4.7500000000000009 1757293815.0000002 1.0000000180025095e-35 1.0000000180025095e-35 5.2500000000000009 2.2500000000000004 1.0000000180025095e-35 0.36546970728386663 1.0000000180025095e-35 1.0000000180025095e-35
decision_type=2 2 2 2 2 2 2 2 2 2 2 2 2 2 2 2 2 2 2 2 2 2 2 2 2 2 2 2 2 2
left_child=1 2 5 7 6 8 11 12 26 -8 21 -4 13 27 28 18 24 23 19 -9 -15 22 -5 29 -3 -7 -1 -2 -6 -12
right_child=3 16 4 10 14 25 9 15 -10 -11 17 -13 -14 20 -16 -17 -18 -19 -20 -21 -22 -23 -24 -25 -26 -27 -28 -29 -30 -31
leaf_value=0.042827266415667309 0.12486037267660842 0.23885677346474751 0.13965685178273962 0.24105989554047699 0.19136794027075088 0.15193600089007622 0.16291777489634329 0.2070683559168246 0.15677764610476275 0.23974718310722101 0.26343600677080853 0.10239469183154207 0.25203948978147733 0.1796723349954934 0.27301080763782204 0.29393067392448519 0.19356894220860876 0.32032573793700292 0.28953456019607465 0.25269758604865411 0.28695708474234055 0.29904876048090873 0.29202010536956963 0.31131428217790708 0.27591383939412423 0.06501213325158274 0.095791139690617422 0.1753369458523748 0.26016523387422591 0.29162340831342287
leaf_weight=6886.1692633405328 449.34514754265547 1717.1870989277959 3759.0120855569839 1194.9275053367019 716.73545008897781 612.15766608715057 1593.3762740790844 762.59580675512552 231.97710508853197 576.42205504328012 906.26086400449276 1435.3872394412756 265.85591565072536 124.0143029987812 399.39052787423134 605.74532677233219 420.81475435197353 1984.9801272153854 340.7332760617137 689.56053461134434 137.29171701520681 456.41258291900158 385.06458878517151 1609.0256699025631 727.04579497873783 98.359556220471859 204.11855316907167 395.44970089197159 137.93856510519981 4064.66040237993
leaf_count=67852 3128 6623 26309 4646 3706 4062 9770 3577 1593 2626 2916 11637 922 683 1443 1700 2203 3453 929 2418 458 1153 885 2890 2241 803 1745 2100 526 9371
internal_value=0.190697 0.12795 0.108348 0.275885 0.157013 0.0561197 0.145339 0.229413 0.0479544 0.183441 0.292388 0.129387 0.18591 0.169779 0.225374 0.254197 0.241789 0.299104 0.240602 0.228912 0.237015 0.263996 0.253672 0.292651 0.249998 0.140046 0.0443688 0.148697 0.202792 0.286544
internal_weight=33888 19516.1 16651 14371.9 8618.26 8032.78 7364.2 3770.59 7322.26 2169.8 10601.3 5194.4 1371.96 1106.1 1254.06 2398.63 2865.05 8564.93 1792.89 1452.16 261.306 2036.4 1579.99 6579.95 2444.23 710.517 7090.29 844.795 854.674 4970.92
internal_count=184368 143139 132072 41229 56017 76055 50342 15915 71190 12396 25314 37946 7291 6369 5675 8624 11067 18630 6924 5995 1141 6684 5531 15177 8864 4865 69597 5228 4232 12287
is_linear=0
shrinkage=0.05


Tree=2
num_leaves=31
num_cat=0
split_feature=1 13 0 3 0 0 10 8 4 4 2 10 10 13 10 8 13 13 8 13 2 6 13 8 13 10 5 5 13 13
split_gain=45629.8 10087.7 6764.2 3969.83 2085.86 1360.85 1197.21 1066.72 747.769 732.966 804.797 717.093 543.534 407.256 380.202 356.166 338.684 316.064 285.971 282.036 271.129 218.251 189.137 179.285 177.052 158.928 155.639 130.373 129.559 125.523
threshold=1.0000000180025095e-35 1.0000000180025095e-35 1.0000000180025095e-35 1.0000000180025095e-35 1.0000000180025095e-35 1.0000000180025095e-35 1757012061.0000002 6.7500000000000009 1.0000000180025095e-35 1.0000000180025095e-35 1.0000000180025095e-35 1.0000000180025095e-35 1758390702.0000002 0.20005104645227159 1756891203.0000002 6.2500000000000009 0.99998932741360547 0.94744939049158783 5.7500000000000009 0.25929215183211635 1.0000000180025095e-35 1.0000000180025095e-35 0.99902444622655906 1.0000000180025095e-35 0.066690916352847213 1759262345.0000002 1.0000000180025095e-35 1.0000000180025095e-35 0.99447539824561926 0.35813625458092763
decision_type=2 2 2 2 2 2 2 2 2 2 2 2 2 2 2 2 2 2 2 2 2 2 2 2 2 2 2 2 2 2
left_child=1 2 11 5 7 6 9 12 15 27 -11 -1 13 -3 24 21 -14 -6 25 20 -10 29 -16 -4 -9 -8 -23 -2 -21 -5
right_child=3 4 23 8 17 -7 18 14 19 10 -12 -13 16 -15 22 -17 -18 -19 -20 28 -22 26 -24 -25 -26 -27 -28 -29 -30 -31
leaf_value=0.038194558745679813 0.10424671277128586 0.075097312298308336 0.1932171396627369 0.15490016922550021 0.20127245435375812 0.21671305485047052 0.17788446899517504 0.067659731135453441 0.15823865876382193 0.13780477275939329 0.19121277949965759 0.10765993751093267 0.16641668749647626 0.11336200531090133 0.19814884012436984 0.23782237009164209 0.099174131733512361 0.15304284078157976 0.23232897068853045 0.24210255555090709 0.22208513963488652 0.18656998996434679 0.098922682380375007 0.14060337701334116 0.14579560709230299 0.2737014782000407 0.22058012399884896 0.13973659659990689 0.22338484887629237 0.192980770689542
leaf_weight=7035.0345895588398 770.04817817360163 834.9748221039772 757.36191400885582 536.28336658328772 1074.2717479616404 1596.9188925176859 743.03149531036615 83.896412208676338 186.15819089114666 1468.1017437130213 1402.0530550777912 392.11597130447626 710.42296829819679 4578.1976941004395 593.90025399625301 532.43900807201862 265.27615041285753 536.65132167190313 571.93674080818892 3849.3023885190487 5362.1630236953497 756.9014508202672 56.744891479611397 229.92941807210445 801.18496636301279 50.282121047377586 765.48376253247261 424.69448553770781 1574.8043995946646 441.94338487833738
leaf_count=67282 4760 6215 2568 2364 3173 3622 2776 646 808 7759 4585 2703 3199 29718 2142 1167 1773 2448 1368 5513 10663 2576 340 988 4675 106 1655 2191 3109 1476
internal_value=0.156728 0.09816 0.0582422 0.206703 0.133372 0.175946 0.163914 0.122786 0.22212 0.150193 0.16396 0.0418793 0.113737 0.107479 0.160318 0.19978 0.14828 0.185326 0.204609 0.228274 0.219976 0.191578 0.189698 0.181144 0.138502 0.184326 0.203821 0.11699 0.236715 0.172309
internal_weight=38982.5 17950 8414.44 21032.5 9535.52 7027.07 5430.15 7924.6 14005.5 4064.9 2870.15 7427.15 6388.87 5413.17 1535.73 3033.05 975.699 1610.92 1365.25 10972.4 5548.32 2500.61 650.645 987.291 885.081 793.314 1522.39 1194.74 5424.11 978.227
internal_count=184368 127870 73541 56498 54329 27167 23545 48708 29331 19295 12344 69985 40905 35933 7803 9238 4972 5621 4250 20093 11471 8071 2482 3556 5321 2882 4231 6951 8622 3840
is_linear=0
shrinkage=0.05


Tree=3
num_leaves=31
num_cat=0
split_feature=1 7 7 12 0 3 7 0 13 0 10 0 7 7 7 7 7 9 7 7 7 7 7 7 7 0 13 10 7 11
split_gain=30765.9 12888.8 9836.86 7216.72 3348.6 3241.35 2060.94 2001.45 1948.76 1704.73 1070.28 1048.57 793.58 660.435 654.488 534.919 523.582 517.579 485.263 473.053 637.487 540.338 458.05 446.101 361.413 330.29 329.177 306.245 198.366 196.571
threshold=1.0000000180025095e-35 435.50000000000006 295.50000000000006 1.0000000180025095e-35 1.0000000180025095e-35 1.0000000180025095e-35 609.50000000000011 1.0000000180025095e-35 0.032265004719338193 1.0000000180025095e-35 1757293815.0000002 1.0000000180025095e-35 295.50000000000006 300.50000000000006 1622.0000000000002 295.50000000000006 849.50000000000011 1758801600.0000002 1.0000000180025095e-35 198.50000000000003 209.50000000000003 1.0000000180025095e-35 1.0000000180025095e-35 1499.5000000000002 390.50000000000006 1.0000000180025095e-35 0.94167615793470016 1.0000000180025095e-35 197.50000000000003 0.58522417153996109
decision_type=2 2 2 2 2 2 2 2 2 2 2 2 2 2 2 2 2 2 2 2 2 2 2 2 2 2 2 2 2 2
left_child=2 5 4 9 8 7 13 10 18 14 12 15 -2 -5 17 22 -3 -4 -1 21 -21 -10 -7 25 -15 -8 29 -20 -12 -6
right_child=1 16 3 6 26 11 23 -9 19 -11 28 -13 -14 24 -16 -17 -18 -19 27 20 -22 -23 -24 -25 -26 -27 -28 -29 -30 -31
leaf_value=0.051033666891037936 0.054493308861613 0.19129480309552591 0.044974425604061133 0.18307976428909165 0.14063924314268375 0.16639379430626575 0.15780200872988817 0.16047257778822999 0.089612007421246143 0.16516264523180399 0.10625964863062039 0.18413099405518596 0.12371811531639568 0.079845055970197976 0.1722041814295778 0.17191169075162996 0.21688123676255527 0.15984949004119828 0.0035692465842599771 0.14231687810539501 0.06738821842072476 0.037005567068774808 0.12751131675329183 0.20469547239583072 0.124696093804694 0.20298707687277187 0.076582558787527302 0.058455803083138039 0.15712717699583098 0.052484214987014034
leaf_weight=799.09232399612665 2088.6827362552285 2767.4044130221009 2905.0009160041809 325.87950828671455 1036.8833776563406 989.32942971587181 2148.3170887231827 1143.7423212379217 663.71434010565281 382.44235327839851 367.65846873819828 2355.1662062257528 517.91804122924805 798.07685323059559 110.98319362848997 1383.4466716498137 8416.1583205685019 100.8702333047986 3245.2770308405161 380.8200708553195 1138.0068916007876 1862.8689582869411 3545.8229406028986 1146.108917683363 1068.2782653197646 524.29522123932838 315.44109784066677 274.90666521340609 441.94522420316935 69.998456954956055
leaf_count=7012 11914 5475 26413 1227 3358 2203 10200 2632 3933 1107 1459 3719 2231 4985 739 2876 12124 619 31719 1823 7301 13039 10545 3929 5557 1125 1605 1840 1320 339
internal_value=0.133545 0.171319 0.086524 0.122739 0.0513214 0.1371 0.155974 0.10319 0.0392474 0.0656141 0.0839635 0.155771 0.0682997 0.117193 0.0533423 0.144452 0.21057 0.0488896 0.0158779 0.0641828 0.086273 0.0508648 0.136034 0.178194 0.105584 0.166748 0.122233 0.00787806 0.134218 0.135139
internal_weight=43314.5 24017.3 19297.3 9510.25 9787.01 12833.7 6010.96 4559.95 8364.69 3499.3 3416.2 8273.77 2606.6 2192.23 3116.85 5918.6 11183.6 3005.87 4319.28 4045.41 1518.83 2526.58 4535.15 3818.72 1866.36 2672.61 1422.32 3520.18 809.604 1106.88
internal_count=184368 56498 127870 55901 71969 38899 27023 19556 66667 28878 16924 19343 14145 11769 27771 15624 17599 27032 40571 26096 9124 16972 12748 15254 10542 11325 5302 33559 2779 3697
is_linear=0
shrinkage=0.05


Tree=4
num_leaves=31
num_cat=0
split_feature=1 7 7 12 6 0 0 7 0 12 7 5 7 7 7 7 9 4 7 7 7 0 7 7 0 12 7 7 7 7
split_gain=22504.4 8486.44 7303.06 5103.43 2709.34 2635.46 1986.99 1349.54 1286.73 956.301 704.567 499.818 474.013 471.803 420.786 398.136 382.205 377.763 361.629 630.054 504.041 294.231 269.097 266.022 236.725 219.123 194.931 184.933 141.109 267.173
threshold=1.0000000180025095e-35 426.50000000000006 295.50000000000006 1.0000000180025095e-35 1.0000000180025095e-35 1.0000000180025095e-35 1.0000000180025095e-35 609.50000000000011 1.0000000180025095e-35 1.0000000180025095e-35 295.50000000000006 1.0000000180025095e-35 299.50000000000006 1622.0000000000002 1.0000000180025095e-35 1029.5000000000002 1758801600.0000002 1.0000000180025095e-35 198.50000000000003 209.50000000000003 1.0000000180025095e-35 1.0000000180025095e-35 1499.5000000000002 299.50000000000006 1.0000000180025095e-35 1.0000000180025095e-35 188.50000000000003 390.50000000000006 65.500000000000014 198.50000000000003
decision_type=2 2 2 2 2 2 2 2 2 2 2 2 2 2 2 2 2 2 2 2 2 2 2 2 2 2 2 2 2 2
left_child=2 4 5 8 6 9 10 12 13 14 17 21 -5 16 -1 -3 -4 -2 20 -20 -11 -6 24 -12 -9 -7 -16 -14 -27 -30
right_child=1 15 3 7 11 25 -8 22 -10 18 23 -13 27 -15 26 -17 -18 -19 19 -21 -22 -23 -24 -25 -26 28 -28 -29 29 -31
leaf_value=0.049144557740189859 0.053778613492070304 0.16488204422070996 0.041193653868496022 0.1690301360584141 0.10365241550094105 0.13535529476774052 0.14211703879859611 0.13362498752169444 0.1411008573822666 0.071392754192981661 0.17993229508234398 0.15145009901807546 0.078309739740240344 0.14283111221881672 -0.0093585941320011336 0.18323338169073478 0.13434160890787242 0.084918408243376639 0.11211105643758051 0.048947396856977347 0.027378290775530952 0.15353124054184941 0.16852316440201917 0.10886228967086407 0.16963833922195032 0.12956458926810707 0.01895619212780697 0.10824456995266521 0.057570000320100616 0.11506489587714093
leaf_weight=664.74488012492657 1500.513351842761 5073.604344509542 3010.2724683657289 240.69854294508696 1066.187669351697 485.3149761557579 1951.7329699546099 2402.9017390757799 424.22950559854507 874.8271394148469 158.06260945647955 4800.1794779598713 973.76637598872185 126.8509356752038 1261.1078479588032 7794.0492189079523 113.83086200803518 2849.1884139105678 531.52485171705484 1554.063974276185 2553.6091228947043 423.34577664732933 1317.5675032585859 921.63426445424557 594.11276292800903 226.55274973809719 1170.6649065688252 1166.4535674750805 444.01504363119602 380.72523576021194
leaf_count=5661 7838 8510 26413 691 3166 1362 3831 10200 1107 5284 320 7783 5521 739 12574 9590 619 11573 2639 10560 18844 663 3929 3224 1125 701 11105 5557 1976 1263
internal_value=0.116452 0.146857 0.0771184 0.106627 0.119402 0.0469498 0.0988143 0.132617 0.0592485 0.0361728 0.0832201 0.143538 0.102274 0.0485194 0.0139197 0.176013 0.0446375 0.0741967 0.0486601 0.065103 0.0386342 0.117939 0.149327 0.119447 0.140827 0.107261 0.00426417 0.0946793 0.094152 0.0842489
internal_weight=47056.3 26538.5 20517.8 10370.7 13670.8 10147.2 7381.13 6695.5 3675.18 8610.54 5429.4 6289.71 2380.92 3250.95 3096.52 12867.7 3124.1 4349.7 5514.03 2085.59 3428.44 1489.53 4314.58 1079.7 2997.01 1536.61 2431.77 2140.22 1051.29 824.74
internal_count=184368 56498 127870 55901 38398 71969 26786 27023 28878 66667 22955 11612 11769 27771 29340 18100 27032 19411 37327 13199 24128 3829 15254 3544 11325 5302 23679 11078 3940 3239
is_linear=0
shrinkage=0.05


Tree=5
num_leaves=31
num_cat=0
split_feature=1 7 7 12 6 13 7 10 13 10 7 7 3 5 7 7 13 8 7 7 7 8 7 7 7 12 11 10 7 7
split_gain=17441.6 6135.13 5618.08 3795.87 2105.07 1090.93 955.865 946.804 723.027 506.813 428.771 458.299 419.066 386.953 354.271 351.453 332.807 288.091 259.95 236.235 218.999 211.962 203.107 197.974 181.725 182.324 153.099 128.409 126.707 106.739
threshold=1.0000000180025095e-35 435.50000000000006 295.50000000000006 1.0000000180025095e-35 1.0000000180025095e-35 0.20836063783311493 609.50000000000011 1756807441.0000002 0.998658168248867 1757050335.5000002 295.50000000000006 65.500000000000014 1.0000000180025095e-35 1.0000000180025095e-35 300.50000000000006 1.0000000180025095e-35 0.99998932741360547 6.2500000000000009 557.50000000000011 1599.5000000000002 188.50000000000003 5.7500000000000009 390.50000000000006 299.50000000000006 1499.5000000000002 4.5000000000000009 0.052647788241777842 1758399043.5000002 1.0000000180025095e-35 770.50000000000011
decision_type=2 2 2 2 2 2 2 2 2 2 2 2 2 2 2 2 2 2 2 2 2 2 2 2 2 2 2 2 2 2
left_child=2 4 5 12 7 9 14 10 17 15 11 -2 16 -6 -5 -1 19 28 -3 -4 -17 -9 -16 -12 25 -8 -10 -19 -7 -14
right_child=1 18 3 6 13 8 24 21 26 -11 23 -13 29 -15 22 20 -18 27 -20 -21 -22 -23 -24 -25 -26 -27 -28 -29 -30 -31
leaf_value=0.05032576981491458 0.10372310484055665 0.13180336111155144 0.04686898739071485 0.13376644437233515 0.10508286205084127 0.09313160137472018 0.14775900266363134 0.10560384058013622 0.060554965213864678 0.072056879620147091 0.15921338024964549 0.064081126884292253 0.084881084043951824 0.13340458170339653 0.063892705792900004 0.0063824612838275611 0.23894355876146378 0.090189382651206684 0.15522737904028949 0.10087854477269542 0.02915023739329985 0.13921338465546448 0.095406975076972433 0.097609673415794684 0.14359681609607594 0.1162451679805489 0.026300296893526677 0.13793929201907693 0.060419019860016576 0.20226694395108488
leaf_weight=1004.6138108894229 911.00902809947729 1377.4347967654467 3506.9074993282557 402.70793925225735 1608.9374508261681 367.14961333572865 582.89376882463694 1359.0231986269355 443.94197439402342 605.50251964479685 155.1046305000782 3776.6831801235676 34.041514620184898 5283.2339311689138 892.99382965266705 2185.6827726587653 22.608140237629414 656.93876736611128 12442.013795182109 215.79523282498121 2050.4417997822165 756.62688265740871 1254.8758159130812 985.6329969316721 1464.8359747305512 2698.5290974080563 1257.9737321212888 189.09080395102501 1717.7288619428873 56.495937310159206
leaf_count=7378 2913 2449 27213 1227 3879 1605 1795 3857 2610 3094 252 15488 197 7914 4985 19321 53 2960 15150 1215 16826 1454 5557 3142 3929 9530 8493 529 9153 200
internal_value=0.103342 0.128921 0.0694198 0.0941549 0.106571 0.0431331 0.115327 0.0889927 0.0612605 0.0287559 0.0785512 0.071811 0.0538533 0.126813 0.0905289 0.0237354 0.0512432 0.0763207 0.152904 0.0500327 0.0174131 0.117696 0.0823521 0.10614 0.128626 0.121894 0.0352806 0.101041 0.0662336 0.159813
internal_weight=50267.4 28655.7 21611.7 11132.7 14836.3 10479.1 7296.84 7944.08 4632.82 5846.24 5828.43 4687.69 3835.85 6892.17 2550.58 5240.74 3745.31 2930.91 13819.4 3722.7 4236.12 2115.65 2147.87 1140.74 4746.26 3281.42 1701.92 846.03 2084.88 90.5375
internal_count=184368 56498 127870 55901 38899 71969 27023 27106 25350 46619 21795 18401 28878 11793 11769 43525 28481 14247 17599 28428 36147 5311 10542 3394 15254 11325 11103 3489 10758 397
is_linear=0
shrinkage=0.05


Tree=6
num_leaves=31
num_cat=0
split_feature=1 7 7 12 0 6 0 10 0 10 7 7 12 4 7 9 7 7 7 0 7 12 0 10 10 5 0 10 9 4
split_gain=14115.7 4744.4 4436.51 2941.59 2062.21 1708.32 1519.67 1008.06 979.456 748.357 713.849 462.892 411.785 344.663 319.137 315.881 272.581 262.791 255.932 243.849 198.861 189.156 145.404 144.914 137.705 130.48 130.222 127.272 123.454 118.749
threshold=1.0000000180025095e-35 426.50000000000006 295.50000000000006 1.0000000180025095e-35 1.0000000180025095e-35 1.0000000180025095e-35 1.0000000180025095e-35 1757071126.0000002 1.0000000180025095e-35 1756822070.0000002 609.50000000000011 295.50000000000006 1.5000000000000002 1.0000000180025095e-35 1.0000000180025095e-35 1758801600.0000002 299.50000000000006 1622.0000000000002 849.50000000000011 1.0000000180025095e-35 198.50000000000003 1.0000000180025095e-35 1.0000000180025095e-35 1756891203.0000002 1757071126.0000002 1.0000000180025095e-35 1.0000000180025095e-35 1757325772.5000002 1758801600.0000002 1.0000000180025095e-35
decision_type=2 2 2 2 2 2 2 2 2 2 2 2 2 2 2 2 2 2 2 2 2 2 2 2 2 2 2 2 2 2
left_child=2 5 4 8 9 6 7 11 15 12 16 -2 14 22 -1 17 -5 -4 25 23 -14 -6 -7 -12 -23 -3 27 -15 -18 -8
right_child=1 18 3 10 21 13 29 -9 -10 -11 19 -13 20 26 -16 -17 28 -19 -20 -21 -22 24 -24 -25 -26 -27 -28 -29 -30 -31
leaf_value=0.039216047951678018 0.046644149932767477 0.11191757428179541 0.033922104477116077 0.12714634047275614 0.11543248533405599 0.080858829601933302 0.094177585449653572 0.10149968930026687 0.11644102845860223 0.060363620199843482 0.10082952264761971 0.086951939448591517 0.025247688683204834 0.10895126156341257 0.0017939388224020544 0.11207350133838888 0.082379880121117161 0.10453841234834396 0.13893028241558433 0.13488599550400646 0.047800702267976863 0.066580559388501021 0.11925901302804379 0.12164016633771291 0.10393851126543588 0.13129309445714404 0.13029220580247949 0.13183116932350905 0.056561540465494275 0.12227382828495562
leaf_weight=734.29666559398174 3562.1435678005219 1520.4863258749247 3233.0234152376652 288.80387631058693 533.45549727976322 1023.6210698485374 525.81868542730808 1561.8188220262527 475.50611755251884 1690.6036659702659 2826.3168187439442 894.74006162583828 2551.3160988464952 3209.5694318115711 2537.6767444238067 145.20092015713453 1761.3742942661047 137.03892223536968 11186.864380404353 1033.1307058185339 1597.7936205491424 771.61355744302273 338.73007680475712 1267.1921606659889 377.31756983697414 2366.1197530180216 1784.6738488674164 803.46513521671295 653.38374879211187 1666.0331015884876
leaf_count=5794 16076 3132 26413 691 1362 2721 1230 4057 1107 8530 10445 2822 18027 5480 24269 676 7964 682 12124 1594 10047 2847 540 3215 1093 2844 1930 941 3114 2601
internal_value=0.0928548 0.115084 0.0629255 0.0840896 0.03974 0.0955176 0.0799192 0.0669073 0.0491212 0.0303384 0.1019 0.0547594 0.0234878 0.113387 0.0102093 0.0399772 0.0810093 0.0368312 0.135026 0.112894 0.0339481 0.090595 0.0905053 0.107306 0.0789506 0.12375 0.118743 0.11357 0.0754306 0.115591
internal_weight=53059.1 30444.1 22615 11821 10794.1 15370.6 8210.55 6018.7 3990.77 9111.69 7830.2 4456.88 7421.08 7160.06 3271.97 3515.26 2703.56 3370.06 15073.5 5126.64 4149.11 1682.39 1362.35 4093.51 1148.93 3886.61 5797.71 4013.03 2414.76 2191.85
internal_count=184368 56498 127870 55901 71969 38398 26786 22955 28878 66667 27023 18898 58137 11612 30063 27771 11769 27095 18100 15254 28074 5302 3261 13660 3940 5976 8351 6421 11078 3831
is_linear=0
shrinkage=0.05


Tree=7
num_leaves=31
num_cat=0
split_feature=1 7 7 12 0 0 3 13 0 7 7 4 13 5 13 7 9 8 8 7 0 7 13 7 13 7 7 5 13 8
split_gain=11782.4 3894.46 3582.95 2340.57 1706.97 1442.8 1338.09 1129.09 800.679 571.272 560.272 533.049 318.563 308.47 279.669 272.42 259.978 254.649 244.751 223.425 210.354 202.724 191.822 191.819 161.796 159.405 152.863 139.125 123.734 110.01
threshold=1.0000000180025095e-35 295.50000000000006 295.50000000000006 1.0000000180025095e-35 1.0000000180025095e-35 1.0000000180025095e-35 1.0000000180025095e-35 0.032265004719338193 1.0000000180025095e-35 557.50000000000011 609.50000000000011 1.0000000180025095e-35 0.998658168248867 1.0000000180025095e-35 0.99998932741360547 1.0000000180025095e-35 1758801600.0000002 6.7500000000000009 6.7500000000000009 300.50000000000006 1.0000000180025095e-35 299.50000000000006 0.94167615793470016 195.50000000000003 0.92857723419901705 129.50000000000003 390.50000000000006 1.0000000180025095e-35 0.99782016284036945 6.2500000000000009
decision_type=2 2 2 2 2 2 2 2 2 2 2 2 2 2 2 2 2 2 2 2 2 2 2 2 2 2 2 2 2 2
left_child=2 5 4 8 7 6 18 15 14 13 19 29 17 21 16 -1 -4 -9 23 -5 24 -3 -6 -2 -12 -17 -21 -13 -20 -8
right_child=1 9 3 10 22 -7 11 12 -10 -11 20 27 -14 -15 -16 25 -18 -19 28 26 -22 -23 -24 -25 -26 -27 -28 -29 -30 -31
leaf_value=0.03482016820968941 0.031262408539425572 0.13127615916867005 0.032761072311773554 0.10506144412250236 0.090465171014806431 0.10860671077837231 0.054243054984075556 0.047384350963076638 0.10405642965130198 0.1236380957078127 0.10253838252392122 0.079078279662251949 0.026629581821943773 0.11384579305565579 0.20520225998727329 -0.017278088265427021 0.098580048364887068 0.082999176463103008 0.095529771040196387 0.051510842518391033 0.12040159902199848 0.082033986790217894 0.050002151901741891 0.057872808599892994 0.08182570914270465 0.0094798553755078042 0.077505445047078667 0.10040669024928753 0.0049480175341772526 0.093545035696939172
leaf_weight=928.97810503095388 1802.3960677832365 243.43711926043034 3441.7602208778262 462.89753448963165 1387.0863031297922 3812.9712171405554 1241.1201382577419 2534.4692563265562 504.79147008061409 14055.618450656533 2887.6222544759512 1050.6241158545017 1523.6568882018328 3071.2103345096111 23.601726219058037 681.55780182778835 156.63553294539452 631.7744205147028 322.16436521708965 980.91798264533281 1097.8366815894842 1720.0576307922602 380.87215527892113 1097.1985692679882 1471.3466204106808 3006.4561856463552 1398.8392229899764 3256.5938626825809 43.470934882760048 212.69672423601151
leaf_count=7012 8498 346 27046 1227 3697 5448 4165 13693 1107 15150 8650 2721 9848 4188 49 6581 676 2555 900 4985 1594 4441 1605 4565 5010 26978 5557 5381 214 481
internal_value=0.0843263 0.104105 0.05745 0.075883 0.0367605 0.0827914 0.0718726 0.028195 0.0450804 0.118433 0.0911889 0.0863734 0.0454736 0.103875 0.0368277 0.0106321 0.0356597 0.0545226 0.0462617 0.0730969 0.100594 0.0882156 0.0817955 0.0413568 0.095573 0.00452477 0.0668273 0.0952296 0.0848714 0.0600706
internal_weight=55430.7 31929.6 23501.1 12426.2 11074.9 12839.2 9026.26 9306.89 4126.79 19090.3 8299.46 5761.03 4689.9 5034.71 3622 4616.99 3598.4 3166.24 3265.23 2842.65 5456.81 1963.49 1767.96 2899.59 4358.97 3688.01 2379.76 4307.22 365.635 1453.82
internal_count=184368 56498 127870 55901 71969 32373 26925 66667 28878 24125 27023 12748 26096 8975 27771 40571 27722 16248 14177 11769 15254 4787 5302 13063 13660 33559 10542 8102 1114 4646
is_linear=0
shrinkage=0.05


Tree=8
num_leaves=31
num_cat=0
split_feature=2 7 7 0 8 4 10 0 7 7 7 3 7 0 0 7 10 4 9 7 8 10 6 7 0 10 8 10 6 7
split_gain=10224.3 3991.41 2220.93 2124.73 1663.05 1013.72 977.176 776.223 642.312 348.132 486.977 327.768 314.949 302.524 300.623 293.162 266.961 258.034 251.406 228.509 215.879 204.937 216.944 190.123 164.842 135.858 117.05 104.371 102.98 97.5581
threshold=1.0000000180025095e-35 295.50000000000006 295.50000000000006 1.0000000180025095e-35 1.0000000180025095e-35 1.0000000180025095e-35 1756807441.0000002 1.0000000180025095e-35 609.50000000000011 1.0000000180025095e-35 195.50000000000003 1.0000000180025095e-35 549.50000000000011 1.0000000180025095e-35 1.0000000180025095e-35 299.50000000000006 1757085642.0000002 1.0000000180025095e-35 1758801600.0000002 1.0000000180025095e-35 6.7500000000000009 1757293815.0000002 1.0000000180025095e-35 1499.5000000000002 1.0000000180025095e-35 1758643313.0000002 1.0000000180025095e-35 1758597764.5000002 1.0000000180025095e-35 198.50000000000003
decision_type=2 2 2 2 2 2 2 2 2 2 2 2 2 2 2 2 2 2 2 2 2 2 2 2 2 2 2 2 2 2
left_child=1 3 5 6 7 14 9 11 15 -1 -11 18 17 21 16 -6 19 28 -3 -2 -8 22 -7 25 -17 -10 -5 -22 -4 -28
right_child=2 4 12 26 8 13 20 -9 23 10 -12 -13 -14 -15 -16 24 -18 -19 -20 -21 27 -23 -24 -25 -26 -27 29 -29 -30 -31
leaf_value=0.041433798548292704 0.074920071897854795 0.038066369376194009 0.064034884571963754 0.093922961781412906 0.10740806466683424 0.063138204893461461 0.049039773826739769 0.098904610083489122 0.08472189971475981 0.0038227253823060713 0.02962973305701784 0.10905545195026739 0.11473450075268339 0.10502646679829651 0.085179752633270989 0.057375454255507802 0.076839839951856545 0.10600105604088193 0.089450684236719258 0.028430067418969904 0.063722572634903052 0.10340334094944025 0.087283194895848279 0.10611029382459335 0.088510765224318 0.10836621317872236 0.061173065820048278 0.11136956663332494 0.095693724722723847 0.086761415890460297
leaf_weight=1621.2112260609865 329.43182978034019 4244.3415094316006 626.10923355817795 863.61930407583714 415.56921906769276 1458.9343413412571 1826.1957016140223 737.75215744972229 4187.4635512530804 3935.5346061065793 3417.1920047178864 184.00550907850266 12349.798317164183 2592.4759614467621 706.5902494341135 2625.9614718854427 585.72606332600117 3269.6056208610535 252.76766085624695 1358.8760113716125 248.28878603130579 1095.2115243524313 2700.4164165407419 2240.2572053968906 516.54666201770306 739.6692235916853 1028.9667735695839 230.99209393560886 463.15177120268345 615.22229486703873
leaf_count=10286 1034 29083 1749 1871 791 4544 8544 1372 11264 30885 23486 588 11374 2980 1308 11058 1515 4089 946 5792 871 1587 4478 4371 1242 1320 3109 570 779 1482
internal_value=0.0771871 0.0569533 0.0991772 0.0371874 0.0738284 0.0815105 0.0279241 0.0512229 0.0852413 0.0204562 0.0158224 0.0436833 0.110619 0.0909497 0.0566298 0.0678053 0.0477141 0.0989276 0.0409793 0.0375552 0.0569602 0.0839811 0.0788373 0.0938828 0.0625278 0.0882978 0.0788136 0.0869224 0.0775945 0.0708098
internal_weight=57467.9 29931.6 27536.3 13787.2 16144.3 10827.7 11279.4 5418.87 10725.5 8973.94 7352.73 4681.11 16708.7 7847.04 2980.62 3558.08 2274.03 4358.87 4497.11 1688.31 2305.48 5254.56 4159.35 7167.39 3142.51 4927.13 2507.81 479.281 1089.26 1644.19
internal_count=184368 143139 41229 81104 62035 23238 74642 31989 30046 64657 54371 30617 17991 13589 9649 13091 8341 6617 30029 6826 9985 10609 9022 16955 12300 12584 6462 1441 2528 4591
is_linear=0
shrinkage=0.05


Tree=9
num_leaves=31
num_cat=0
split_feature=3 7 0 12 7 13 5 7 0 5 0 13 10 10 7 10 7 7 5 7 13 13 6 8 11 0 7 10 7 11
split_gain=7569.85 4055.95 1937.23 1743.98 1446.39 1063.92 790.077 663.392 630.929 585.561 554.528 372.651 356.583 283.078 243.558 235.082 234.217 214.478 206.9 194.065 192.955 162.605 161.416 138.72 132.839 119.172 94.631 90.9874 90.9686 73.5885
threshold=1.0000000180025095e-35 295.50000000000006 1.0000000180025095e-35 1.0000000180025095e-35 435.50000000000006 0.0071118679120162759 1.0000000180025095e-35 672.50000000000011 1.0000000180025095e-35 1.0000000180025095e-35 1.0000000180025095e-35 0.99902444622655906 1757595253.0000002 1.0000000180025095e-35 1599.5000000000002 1756995602.5000002 1.0000000180025095e-35 299.50000000000006 1.0000000180025095e-35 1499.5000000000002 0.94167615793470016 0.20005104645227159 1.0000000180025095e-35 5.7500000000000009 0.038483001373626383 1.0000000180025095e-35 198.50000000000003 1759102161.0000002 284.50000000000006 0.89222126188418338
decision_type=2 2 2 2 2 2 2 2 2 2 2 2 2 2 2 2 2 2 2 2 2 2 2 2 2 2 2 2 2 2
left_child=1 2 5 9 6 13 8 17 15 10 14 12 -7 16 -3 22 -1 -5 19 -9 -4 -19 -2 25 -13 28 -15 -22 -8 -17
right_child=4 3 20 7 -6 11 23 18 -10 -11 -12 24 -14 26 -16 29 -18 21 -20 -21 27 -23 -24 -25 -26 -27 -28 -29 -30 -31
leaf_value=0.030393424504923799 0.029909523790779647 0.034149689572762022 0.079315339667983001 0.09747034644559617 0.10523657079997728 0.041596815100567369 0.077141457107681138 0.080613133064496467 0.095628899019716815 0.096541915996697147 0.085595947148550539 0.046765413965399939 0.072432670333598501 0.030994388795248351 0.082601199081183782 0.077983905651803465 0.0043969763607520527 0.046085598800609001 0.10780056551179087 0.097739360430659783 0.043616508607606824 0.068383972889070652 0.057081102545348053 0.10286091941552232 0.017508434794691236 0.096865358616249106 0.075195467710187106 0.11277271439291557 0.093799425077210508 0.0069452503920237208
leaf_weight=1090.3037812337279 1197.3299626335502 4279.8655315339565 2459.7357925325632 484.5734741538763 11871.416834190488 3476.3663159459829 3195.5810099393129 5283.2269430011511 1069.5764519572258 576.9060974419117 678.76566052436829 515.42623740434647 1292.4798302948475 312.87547843158245 276.66475586593151 742.76540143787861 4223.9580766409636 1160.3573306947947 1316.534034371376 2492.4401506483555 632.12767335772514 2927.283422216773 1022.0906284451485 1656.755987688899 1594.2310001477599 1922.9235179871321 202.70400987565517 51.612028032541275 1172.336585059762 39.366998270153999
leaf_count=7347 5482 28322 5171 870 10932 17253 5798 12782 1487 855 1262 2630 4031 1616 1206 1739 35193 4814 1269 4547 2061 9215 2602 1839 9324 2109 825 101 1531 155
internal_value=0.0710988 0.0563935 0.0376073 0.0716793 0.0928405 0.0289067 0.0805865 0.0814421 0.062621 0.0487129 0.0434202 0.0422259 0.0499728 0.0131827 0.0371145 0.0508227 0.00973997 0.0658505 0.0892718 0.0861179 0.0727537 0.0620731 0.0424539 0.0897771 0.024687 0.0863116 0.0485327 0.0490303 0.0816386 0.0744537
internal_weight=59218.6 35328.4 15851.8 19476.6 23890.1 12708.3 12018.7 13664.4 4071.13 5812.2 5235.3 6878.5 4768.85 5829.84 4556.53 3001.55 5314.26 4572.21 9092.2 7775.67 3143.48 4087.64 2219.42 7947.6 2109.66 6290.84 515.579 683.74 4367.92 782.132
internal_count=184368 150694 85552 65142 33674 78219 22742 33497 11465 31645 30790 33238 21284 44981 29528 9978 42540 14899 18598 17329 7333 14029 8084 11277 11954 9438 2441 2162 7329 1894
is_linear=0
shrinkage=0.05


Tree=10
num_leaves=31
num_cat=0
split_feature=1 7 7 12 5 0 13 0 0 10 0 4 13 7 7 13 7 10 7 8 6 13 13 7 7 10 10 7 7 10
split_gain=8240.83 2526.15 2031.57 1378.93 1089.4 1021.89 808.16 783.593 498.712 447.379 353.567 335.008 293.518 242.383 222.17 200.974 192.998 187.214 185.148 165.419 147.297 127.606 124.64 121.671 212.337 114.864 102.265 89.0826 87.4566 86.2534
threshold=1.0000000180025095e-35 548.50000000000011 295.50000000000006 1.0000000180025095e-35 1.0000000180025095e-35 1.0000000180025095e-35 0.20836063783311493 1.0000000180025095e-35 1.0000000180025095e-35 1756807441.0000002 1.0000000180025095e-35 1.0000000180025095e-35 0.99782016284036945 609.50000000000011 295.50000000000006 0.99998932741360547 1.0000000180025095e-35 1.0000000180025095e-35 1599.5000000000002 5.7500000000000009 1.0000000180025095e-35 0.94167615793470016 0.23597972347956933 197.50000000000003 65.500000000000014 1756891203.0000002 1759257560.5000002 74.500000000000014 1029.5000000000002 1756858160.5000002
decision_type=2 2 2 2 2 2 2 2 2 2 2 2 2 2 2 2 2 2 2 2 2 2 2 2 2 2 2 2 2 2
left_child=2 4 5 8 7 6 16 9 15 14 13 20 19 22 -2 18 -1 -18 -4 -8 29 -7 -5 24 -13 -15 -11 -23 -3 -6
right_child=1 28 3 10 11 21 12 -9 -10 26 -12 23 -14 25 -16 -17 17 -19 -20 -21 -22 27 -24 -25 -26 -27 -28 -29 -30 -31
leaf_value=0.028352321845447323 0.030955954981359148 0.091021990366583649 0.0243833997533946 0.034575293934492109 0.041351474478891349 0.068510102032553255 0.038903385532774754 0.081953673486762371 0.078171300484052825 0.065237851815538248 0.088672507478867846 0.092059157565016078 0.021419278432146954 0.064947267563728067 0.056417897389131139 0.15888010316664536 0.0010583779766128213 0.034167243825948782 0.069269794814897853 0.064266815778997483 0.07741909591391774 0.079385877741320832 0.05836225479572045 0.088792918554295872 0.067874664840936683 0.081570697649388291 0.11740127712697149 0.024373329111423921 0.099280757780843526 0.071192315915801205
leaf_weight=1085.2259139865637 3168.4116299599409 5039.38524132967 3671.4753141999245 794.14318263530731 865.34320370852947 1561.0345258414745 1797.697781458497 2084.1169430613518 572.3853627294302 1539.5863643735647 1731.1566925495863 1476.7411231845617 1637.3684256076813 3485.2565944343805 1182.7677063494921 28.328876912593842 3830.6703062579036 479.80622055381536 245.25301116704941 1017.2550415992737 841.16089531779289 95.918080255389214 1891.4958439320326 5245.3175949156284 2466.9282465577126 1541.9856606423855 102.45447587966919 324.00588712096214 10572.132480740547 345.98753228783607
leaf_count=7398 12943 5811 26587 3822 3003 3697 8730 3069 1107 3659 2768 1855 9970 10445 3202 49 34274 2386 1135 3909 1340 284 6773 6665 4439 3215 143 1321 9590 779
internal_value=0.0658267 0.0816556 0.044385 0.0573043 0.0695552 0.029131 0.0225315 0.0555227 0.0345611 0.0463151 0.0681758 0.0796299 0.0382991 0.0635611 0.0378943 0.0282092 0.0095114 0.00475665 0.0272174 0.0480976 0.0612502 0.0618986 0.0513532 0.0837254 0.0769581 0.0700663 0.0685773 0.0371573 0.0966224 0.0499471
internal_weight=60720.8 34930.3 25790.5 13961.5 19318.8 11829 9848.02 8077.34 4517.44 5993.22 9444.04 11241.5 4452.32 7712.88 4351.18 3945.06 5395.7 4310.48 3916.73 2814.95 2052.49 1980.96 2685.64 9188.99 3943.67 5027.24 1642.04 419.924 15611.5 1211.33
internal_count=184368 56498 127870 55901 41097 71969 66667 23016 28878 19947 27023 18081 22609 24255 16145 27771 44058 36660 27722 12639 5122 5302 10595 12959 6294 13660 3802 1605 15401 3782
is_linear=0
shrinkage=0.05


Tree=11
num_leaves=31
num_cat=0
split_feature=1 7 7 12 6 0 0 13 10 0 4 0 7 7 7 7 4 7 13 9 7 7 13 13 7 4 11 13 7 5
split_gain=7350.85 2272.5 1731.12 1175.41 1028.82 883.397 758.892 707.341 534.371 432.646 325.693 314.667 207.614 271.142 231.007 206.838 195.197 163.84 162.367 166.462 134.152 119.784 111.716 111.475 123.25 89.7125 84.5845 83.5873 82.3149 93.5433
threshold=1.0000000180025095e-35 548.50000000000011 295.50000000000006 1.0000000180025095e-35 1.0000000180025095e-35 1.0000000180025095e-35 1.0000000180025095e-35 0.032265004719338193 1757071126.0000002 1.0000000180025095e-35 1.0000000180025095e-35 1.0000000180025095e-35 198.50000000000003 209.50000000000003 1.0000000180025095e-35 609.50000000000011 1.0000000180025095e-35 1.0000000180025095e-35 0.99998932741360547 1758801600.0000002 129.50000000000003 300.50000000000006 0.92857723419901705 0.99998932741360547 74.500000000000014 1.0000000180025095e-35 0.58522417153996109 0.9899018224873527 1499.5000000000002 1.0000000180025095e-35
decision_type=2 2 2 2 2 2 2 2 2 2 2 2 2 2 2 2 2 2 2 2 2 2 2 2 2 2 2 2 2 2
left_child=2 4 5 9 6 7 8 17 10 18 -2 15 14 -14 -9 21 -6 -1 19 -4 -19 -5 -17 26 -25 -8 -7 -10 29 -3
right_child=1 28 3 11 16 23 25 12 27 -11 -12 -13 13 -15 -16 22 -18 20 -20 -21 -22 -23 -24 24 -26 -27 -28 -29 -30 -31
leaf_value=0.025013112785150435 0.020647447212154682 0.081976420518840021 0.023075862865748878 0.071666944881867298 0.061707396434998799 0.065100638013766254 0.060068913372028743 0.04748767982386784 0.073749980711810478 0.07217220832128983 0.046279629997151406 0.081876237566501836 0.076802460318773191 0.035303644295344855 0.017394055874325652 0.06969460417540424 0.080452248238283952 -0.017527136011156279 0.13899309792599587 0.071703320620875255 0.0069128482287995107 0.042839741699178778 0.053959771246601063 0.083621325741365951 0.010321393444715438 0.081519612225222776 0.019673046608501249 0.050047227895842206 0.095958497568041867 0.091511411124814965
leaf_weight=1026.8394055664539 1839.8241290152073 4462.4996843338013 3809.3269620388746 433.05750018358231 1747.3426422178745 1617.1662019342184 668.33740225434303 890.48512463271618 1531.9955873191357 588.60397225618362 3839.6555651575327 1779.8545920103788 541.09818176925182 1471.3153203427792 2266.0921889767051 3447.42585067451 7464.778802588582 683.84846833348274 30.83426670730114 184.40190017223358 3109.8950848579407 2329.5498695373535 1742.073953717947 76.321510300040245 227.52157744765282 2113.5411356091499 112.25481531023979 515.19582930207253 4563.5305095911026 6866.3786178231239
leaf_count=7012 7936 5959 27046 1065 3511 3688 1302 3933 3060 1107 12202 2768 1823 7301 13039 8650 9054 6581 49 676 26978 9530 5010 214 1015 2740 385 1292 3750 5692
internal_value=0.0612297 0.0760473 0.0412137 0.0529445 0.0646967 0.0272116 0.0539845 0.0210891 0.0459026 0.0321344 0.0379858 0.062802 0.0339374 0.0465069 0.0259039 0.0585199 0.0769065 0.00730282 0.026256 0.0253448 0.00249733 0.0473919 0.0644288 0.0572547 0.0290293 0.0763986 0.0621795 0.0678245 0.0901255 0.0877653
internal_weight=61981 35613.1 26368 14345.1 19720.7 12022.8 10508.5 9989.57 7726.67 4613.17 5679.48 9731.96 5168.99 2012.41 3156.58 7952.11 9212.12 4820.58 4024.56 3993.73 3793.74 2762.61 5189.5 2033.26 303.843 2781.88 1729.42 2047.19 15892.4 11328.9
internal_count=184368 56498 127870 55901 41097 71969 28532 66667 24490 28878 20138 27023 26096 9124 16972 24255 12565 40571 27771 27722 33559 10595 13660 5302 1229 4042 4073 4352 15401 11651
is_linear=0
shrinkage=0.05


Tree=12
num_leaves=31
num_cat=0
split_feature=2 0 12 4 10 9 1 6 8 8 9 8 10 0 10 11 6 10 5 8 9 12 10 11 12 5 0 8 12 8
split_gain=6777.71 1828.98 1353.58 792.033 547.585 217.164 191.515 189.919 189.649 173.195 254.514 156.914 150.106 118.557 113.37 109.823 66.8933 64.2864 58.8544 57.2652 67.0614 55.9499 52.1494 50.237 42.7491 41.6406 41.304 40.3615 39.1201 36.1932
threshold=1.0000000180025095e-35 1.0000000180025095e-35 1.0000000180025095e-35 1.0000000180025095e-35 1.0000000180025095e-35 1758801600.0000002 1.0000000180025095e-35 1.0000000180025095e-35 6.2500000000000009 6.7500000000000009 1758283200.0000002 5.7500000000000009 1.0000000180025095e-35 1.0000000180025095e-35 1759262345.0000002 0.7070797379616568 1.0000000180025095e-35 1759173980.5000002 1.0000000180025095e-35 5.2500000000000009 1758196800.0000002 2.5000000000000004 1756980577.5000002 0.1865253798719316 3.5000000000000004 1.0000000180025095e-35 1.0000000180025095e-35 6.2500000000000009 5.5000000000000009 5.7500000000000009
decision_type=2 2 2 2 2 2 2 2 2 2 2 2 2 2 2 2 2 2 2 2 2 2 2 2 2 2 2 2 2 2
left_child=1 2 5 7 9 6 15 11 14 10 -4 23 13 16 -6 -1 21 -10 27 20 -3 -5 26 -2 -24 -25 -13 -9 -14 -18
right_child=3 19 4 12 8 -7 -8 18 17 -11 -12 22 28 -15 -16 -17 29 -19 -20 -21 -22 -23 24 25 -26 -27 -28 -29 -30 -31
leaf_value=0.014493952770393149 0.053965179500025807 0.069441167182046723 0.045447953060483631 0.061719495811162921 0.048027364823829917 0.051076670745154963 0.037755082538056282 0.059114294681200663 0.065165268951199368 0.051744841296679028 0.029588020328580884 0.051652905165696344 0.080609329199645474 0.084335782397838566 0.093536610318338986 0.15719267042968676 0.075329528515799674 0.090879852606145839 0.076871056768987922 0.074829880530180928 0.056608595918509891 0.073764539415415151 0.033689471476911918 0.033173150247506181 0.087472690244509196 0.050297151636367846 0.083898481123203403 0.079841887468984615 0.08986082117742851 0.084058240897782452
leaf_weight=7077.4508239254355 1972.9217314124107 2316.0701682418585 4044.8085315600038 1649.8362129926682 3541.7619735300541 519.57240632921457 1041.2795420438051 1344.4452020525932 1705.0274140909314 1945.8477947488427 6835.3745933175087 418.07307298481464 2026.8364689648151 4084.784074947238 143.94635047018528 12.556062646210192 6642.7724478691816 299.4787340015173 1598.3834394067526 1653.3050842881203 1959.3924187272787 2674.6122280210257 43.746681690216064 757.09695638716221 454.69421370327473 714.03411687910557 140.23398399353027 308.22383773326874 3473.5905649363995 1640.2371464669704
leaf_count=55121 5111 4216 16718 3267 11672 2393 3614 2576 3933 6561 31288 1071 2194 3701 278 17 7568 477 1920 2624 4227 4320 100 2263 538 1771 169 396 2805 1459
internal_value=0.0571654 0.0415669 0.0360714 0.0744026 0.0437012 0.0197346 0.0177228 0.0606093 0.0566247 0.0379619 0.03549 0.0539006 0.0792165 0.0768193 0.0498364 0.0147723 0.0743755 0.069063 0.0698698 0.0667339 0.0635806 0.0691903 0.0708476 0.0486743 0.0828793 0.04153 0.0599325 0.0630411 0.0864716 0.077071
internal_weight=63040.4 33095.9 27167.1 29944.5 18516.2 8650.86 8131.29 7751.85 5690.21 12826 10880.2 4500.8 22192.7 16692.2 3685.71 7090.01 12607.5 2004.51 3251.05 5928.77 4275.46 4324.45 1056.75 3444.05 498.441 1471.13 558.307 1652.67 5500.43 8283.01
internal_count=184368 143139 132072 41229 70927 61145 58752 15915 16360 54567 48006 11023 25314 20315 11950 55138 16614 4410 4892 11067 8443 7587 1878 9145 638 4034 1240 2972 4999 9027
is_linear=0
shrinkage=0.05


Tree=13
num_leaves=31
num_cat=0
split_feature=2 7 7 0 12 4 10 7 0 7 0 7 7 7 7 7 7 4 1 10 1 0 7 10 6 7 3 12 7 7
split_gain=6182.74 2081.48 1545.11 1056.83 1014.09 638.278 507.465 406.577 343.794 223.3 221.839 220.327 367.839 202.417 236.127 275.475 199.582 188 178.93 173.872 167.733 179.641 152.938 139.025 136.025 106.73 94.2068 87.9481 88.8384 135.059
threshold=1.0000000180025095e-35 295.50000000000006 295.50000000000006 1.0000000180025095e-35 1.0000000180025095e-35 1.0000000180025095e-35 1756807441.0000002 609.50000000000011 1.0000000180025095e-35 849.50000000000011 1.0000000180025095e-35 1.0000000180025095e-35 195.50000000000003 1.0000000180025095e-35 192.50000000000003 209.50000000000003 299.50000000000006 1.0000000180025095e-35 1.0000000180025095e-35 1757912602.5000002 1.0000000180025095e-35 1.0000000180025095e-35 1622.0000000000002 1757293815.0000002 1.0000000180025095e-35 378.50000000000006 1.0000000180025095e-35 1.5000000000000002 198.50000000000003 65.500000000000014
decision_type=2 2 2 2 2 2 2 2 2 2 2 2 2 2 2 2 2 2 2 2 2 2 2 2 2 2 2 2 2 2
left_child=1 3 5 6 8 13 11 16 18 17 23 -1 -13 -2 19 -16 -6 26 22 -15 21 -9 -3 24 -7 -18 -4 -5 29 -29
right_child=2 4 9 27 7 10 -8 20 -10 -11 -12 12 -14 14 15 -17 25 -19 -20 -21 -22 -23 -24 -25 -26 -27 -28 28 -30 -31
leaf_value=0.029075038137502725 0.061302448009470357 0.0212178892398786 0.041548966551604241 0.06383758815516008 0.074931658903884674 0.041915437223999374 0.038110064994364229 0.056188067708957769 0.064013962780253397 0.083479733338292728 0.074638775786459347 -0.00045653254227946748 0.021180191133600791 0.0074214936009165539 0.078059588457410539 0.02917568120290346 0.03069870199863807 0.076798260612997327 0.050263764841623461 0.051657739828986859 0.077131552201323339 0.077063891293331063 0.066479376370305182 0.072610795252241025 0.059909705798087722 0.048008073623893588 0.06614061076894856 0.061518431985539995 0.059636522803333758 0.02436293032887514
leaf_weight=1814.7103129252791 697.87276236712933 3949.8864436894655 604.78139269351959 1064.956822425127 495.58332747220993 1658.8344544172287 2637.5659995526075 5432.1438435167074 740.69034141302109 11206.610240131617 2834.8196453601122 4164.7132459133863 3713.1313938945532 1089.2864097058773 447.35343784093857 820.67381274700165 1510.5130417346954 5255.0759525001049 730.40780307352543 278.85193099081516 1915.3632362186909 1294.0093624591827 195.81289003789425 1223.0069459825754 2989.0929286181927 2242.216655343771 1174.3529322892427 367.11896257102489 694.9906260818243 748.57542443275452
leaf_count=10286 1561 27032 1497 2035 823 4544 9985 13660 1249 9105 2980 30885 23486 4019 892 2578 5740 5577 1821 599 2371 1594 739 1587 4478 7006 1812 756 1453 2218
internal_value=0.0534801 0.0387471 0.0698801 0.0250349 0.0500103 0.0559605 0.0186631 0.0577401 0.03226 0.0790628 0.0630914 0.0133652 0.00973991 0.0373195 0.0309401 0.0464893 0.0450317 0.0720114 0.0274193 0.0164871 0.0639789 0.0602188 0.0233773 0.0574997 0.0535034 0.0410576 0.0578232 0.052331 0.0455181 0.0366555
internal_weight=63993 33712.4 30280.6 15205.8 18506.6 12039.8 12330.1 12889.8 5616.8 18240.8 8705.75 9692.55 7877.84 3334.04 2636.17 1268.03 4248.31 7034.21 4876.11 1368.14 8641.52 6726.15 4145.7 5870.93 4647.93 3752.73 1779.13 2875.64 1810.69 1115.69
internal_count=184368 143139 41229 81104 62035 23238 74642 31194 30841 17991 13589 64657 54371 9649 8088 3470 13569 8886 29592 4618 17625 15254 27771 10609 9022 12746 3309 6462 4427 2974
is_linear=0
shrinkage=0.05


Tree=14
num_leaves=31
num_cat=0
split_feature=2 7 7 0 13 4 13 0 13 4 0 0 0 7 8 3 8 7 7 7 3 7 13 7 9 13 7 4 7 7
split_gain=5677.1 1815.91 1444.01 932.104 883.943 700.35 604.794 369.564 275.085 245.328 238.463 215.919 203.498 174.487 162.053 156.67 149.304 147.409 145.095 142.296 122.029 121.435 99.5364 94.6391 93.8273 83.6049 81.6736 80.5868 77.9369 108.827
threshold=1.0000000180025095e-35 295.50000000000006 435.50000000000006 1.0000000180025095e-35 1.0000000180025095e-35 1.0000000180025095e-35 0.20836063783311493 1.0000000180025095e-35 0.998658168248867 1.0000000180025095e-35 1.0000000180025095e-35 1.0000000180025095e-35 1.0000000180025095e-35 1.0000000180025095e-35 3.2500000000000004 1.0000000180025095e-35 6.7500000000000009 195.50000000000003 1610.0000000000002 1599.5000000000002 1.0000000180025095e-35 192.50000000000003 0.99936844755362586 161.50000000000003 1758801600.0000002 0.31710140018066851 1029.5000000000002 1.0000000180025095e-35 187.50000000000003 211.50000000000003
decision_type=2 2 2 2 2 2 2 2 2 2 2 2 2 2 2 2 2 2 2 2 2 2 2 2 2 2 2 2 2 2
left_child=1 3 5 6 7 12 13 19 14 10 18 15 16 -1 -8 23 21 -15 -6 20 -3 -2 28 -7 -10 -17 27 -4 -5 -30
right_child=2 4 26 22 9 11 8 -9 24 -11 -12 -13 -14 17 -16 25 -18 -19 -20 -21 -22 -23 -24 -25 -26 -27 -28 -29 29 -31
leaf_value=0.023243012950168562 0.017654937564484365 0.024213379719708068 0.0619517872312908 0.045426869439502644 0.045632817398237872 0.025895710703539812 0.02190251045580233 0.060485721918667572 0.021589737412727864 0.070663033365427994 0.068380116988966441 0.07228821584260274 0.058253087648873769 -0.0047747094036753208 0.04451162557168626 0.055728050520122613 0.062054988121478527 0.011933475209054682 0.06794916306753522 0.056198042468327727 0.060474238736056111 0.038104131771916322 0.027047234312702395 0.051912721322562742 -0.0015856372902482126 0.067551643543007509 0.080028835192253123 0.075782613938682186 0.082862645554958203 0.049108703259770757
leaf_weight=1350.9320868104696 1424.8637979477644 5373.6030962765217 1477.7433479875326 1475.5161595195532 7127.1964859813452 545.66786254942417 1160.7135032117367 1019.400984659791 1491.5907426178455 2081.7715793997049 1759.2058180868626 3423.5102114975452 955.38949476182461 2794.7374211624265 2557.7051955908537 3700.8457167595625 367.37346348166466 2498.1606635153294 821.96780297160149 414.95368926227093 243.11415854096413 1500.0707727521658 449.16313080489635 1014.8889920860529 614.43995670229197 2645.2145731002092 9156.994262188673 4284.0148232281208 430.26862536370754 567.08841991424561
leaf_count=8098 5003 31412 2124 3224 19882 1653 5246 1682 7895 2843 2506 3450 1537 22841 9397 5791 735 17713 1519 1468 723 4226 1472 2297 3452 3365 7204 3844 601 1165
internal_value=0.050216 0.036236 0.0659056 0.0234883 0.0466457 0.0552443 0.0175257 0.0326245 0.0292871 0.0550254 0.0516627 0.0617413 0.0378981 0.00720828 0.0374686 0.0571628 0.0319678 0.00310732 0.0479518 0.0279024 0.0257978 0.0281604 0.0489075 0.042854 0.0148189 0.0606703 0.0770317 0.0722511 0.0528554 0.0637639
internal_weight=64728.1 34231.5 30496.6 15390.3 18841.2 15577.8 12468.3 7051.07 5824.45 11790.1 9708.37 11330.1 4247.7 6643.83 3718.42 7906.62 3292.31 5292.9 7949.16 6031.67 5616.72 2924.93 2922.04 1560.56 2106.03 6346.06 14918.8 5761.76 2472.87 997.357
internal_count=184368 143139 41229 81104 62035 28057 74642 35285 25990 26750 23907 16556 11501 48652 14643 13106 9964 40554 21401 33603 32135 9229 6462 3950 11347 9156 13172 5968 4990 1766
is_linear=0
shrinkage=0.05


Tree=15
num_leaves=31
num_cat=0
split_feature=2 7 7 0 12 13 0 5 7 0 13 3 10 7 1 7 0 1 10 3 10 10 10 13 13 9 7 7 7 7
split_gain=5242.5 1589.21 1360.58 825.623 802.556 530.022 440.039 398.354 358.473 276.259 238.356 228.565 198.66 176.061 156.763 153.871 152.383 159.384 149.554 123.207 117.004 108.396 100.834 98.9487 87.7536 84.9386 82.3601 79.1877 67.8477 93.9557
threshold=1.0000000180025095e-35 295.50000000000006 435.50000000000006 1.0000000180025095e-35 1.0000000180025095e-35 0.20836063783311493 1.0000000180025095e-35 1.0000000180025095e-35 609.50000000000011 1.0000000180025095e-35 0.99902444622655906 1.0000000180025095e-35 1758390702.0000002 299.50000000000006 1.0000000180025095e-35 1.0000000180025095e-35 1.0000000180025095e-35 1.0000000180025095e-35 1756838438.0000002 1.0000000180025095e-35 1.0000000180025095e-35 1757071126.0000002 1757293815.0000002 0.20005104645227159 0.99936844755362586 1758801600.0000002 1.0000000180025095e-35 1029.5000000000002 187.50000000000003 209.50000000000003
decision_type=2 2 2 2 2 2 2 2 2 2 2 2 2 2 2 2 2 2 2 2 2 2 2 2 2 2 2 2 2 2
left_child=1 3 6 5 9 15 7 21 13 14 12 22 -7 -6 19 -1 17 -10 -17 -3 -13 26 -9 -15 28 -12 -2 -4 -5 -30
right_child=2 4 27 24 8 10 -8 11 16 -11 25 20 -14 23 -16 18 -18 -19 -20 -21 -22 -23 -24 -25 -26 -27 -28 -29 29 -31
leaf_value=0.021733228368781426 0.048303168375572865 0.018761657900760082 0.068456400663681444 0.042599933110288847 0.066303610822701406 0.029164115387412971 0.065490607229732198 0.030092163833798924 0.048955406685227104 0.056145459109794099 0.020202642278952767 0.053764088362311814 0.057980191788813931 0.022299814273205439 0.04488795399730932 -0.0001821410345585016 0.069609618007278745 0.067122958456562576 0.025448870911873325 0.074670694863561676 0.070342050693783686 0.047591886090098297 0.058135259347254387 0.040045267181257858 0.025400940007366559 -0.0019650667997318494 0.023427246423001633 0.07610133936906599 0.077513136078736722 0.04630494251211445
leaf_weight=1372.0463783890009 397.15812078118324 4192.1998949050903 5776.7865543067455 1494.3199607282877 511.62433601915836 3060.7260742485523 4398.081325724721 1319.3464701920748 5647.4662977308035 761.24376752972603 1506.3655603826046 4690.9847913831472 747.82251018285751 1109.6772865056992 751.48190024495125 4657.0070551931858 1715.0032975375652 1561.1605941802263 647.06382113695145 100.38355614244938 1413.5716704130173 899.95673993229866 429.4934943318367 2796.1827414780855 454.28876215219498 602.77720813453197 2157.322210252285 9148.2517725229263 428.68001919984818 584.801733314991
leaf_count=8098 987 27408 5968 3224 823 12820 4987 4059 13660 1249 7870 7232 1892 4406 1821 37792 1945 2020 2762 363 1553 1768 766 8340 1472 3408 6705 7204 585 1181
internal_value=0.0472542 0.0339441 0.0623309 0.0220678 0.0435903 0.0164759 0.0520453 0.0468083 0.0503463 0.0280541 0.027371 0.0530401 0.0348426 0.0386605 0.0237993 0.00681204 0.0561233 0.0529022 0.00294418 0.020092 0.0576179 0.0326222 0.0370228 0.0350171 0.045821 0.0138575 0.027322 0.0731488 0.0494985 0.0595933
internal_weight=65333.3 34702.3 30631 15555.9 19146.4 12593.8 15705.9 11307.8 13341.1 5805.31 5917.69 7853.4 3808.55 4417.48 5044.07 6676.12 8923.63 7208.63 5304.07 4292.58 6104.56 3454.44 1748.84 3905.86 2962.09 2109.14 2554.48 14925 2507.8 1013.48
internal_count=184368 143139 41229 81104 62035 74642 28057 23070 31194 30841 25990 13610 14712 13569 29592 48652 17625 15680 40554 27771 8785 9460 4825 12746 6462 11278 7692 13172 4990 1766
is_linear=0
shrinkage=0.05


Tree=16
num_leaves=31
num_cat=0
split_feature=2 7 7 12 4 10 7 13 13 7 4 7 7 7 7 9 1 1 10 7 7 7 7 7 7 13 11 13 13 9
split_gain=4852.66 1398.96 1311.26 713.343 517.754 400.278 322.05 219.241 229.947 196.52 173.953 168.303 187.563 228.029 156.917 155.198 146.323 145.465 143.635 134.483 172.746 209.043 124.82 272.173 126.504 123.237 109.365 143.332 102.349 96.787
threshold=1.0000000180025095e-35 295.50000000000006 295.50000000000006 1.0000000180025095e-35 1.0000000180025095e-35 1758390702.0000002 609.50000000000011 0.31710140018066851 0.96486109856956592 849.50000000000011 1.0000000180025095e-35 1.0000000180025095e-35 192.50000000000003 209.50000000000003 299.50000000000006 1758801600.0000002 1.0000000180025095e-35 1.0000000180025095e-35 1757912602.5000002 65.500000000000014 197.50000000000003 209.50000000000003 209.50000000000003 198.50000000000003 132.50000000000003 0.99998932741360547 0.080887480515218657 0.027789478610877095 0.92857723419901705 1758801600.0000002
decision_type=2 2 2 2 2 2 2 2 2 2 2 2 2 2 2 2 2 2 2 2 2 2 2 2 2 2 2 2 2 2
left_child=1 5 4 16 11 7 14 26 -9 10 -4 -2 18 -14 -5 -10 25 28 -13 -6 -21 -22 23 24 -7 29 27 -1 -8 -3
right_child=2 3 9 6 19 22 17 8 15 -11 -12 12 13 -15 -16 -17 -18 -19 -20 20 21 -23 -24 -25 -26 -27 -28 -29 -30 -31
leaf_value=0.014754184916181632 0.051422923995325456 0.020599340241419947 0.047670384076797821 0.062091973808711454 0.064297846399447842 0.047916301395873467 0.05340607206399918 0.035006121347374131 0.022114780102425274 0.071735404362508151 0.065649839609507418 0.0034091671520243942 0.065756852879370914 0.022332554547137545 0.032761288055786923 -0.0043788803328668495 0.044995002865470118 0.064714446698750899 0.04292115377303949 0.041509674222164061 0.074866189114826606 0.048631840044027555 0.017274847452532466 0.085670132915493358 0.013943788437434754 0.10593100073082769 0.0037352208472437526 0.058675982751646094 0.040415549305399 0.053386507062814871
leaf_weight=5254.1442539691925 728.46442276239395 4712.6912852525711 1838.2168547362089 518.88086780905724 2017.6067060679197 823.54755455255508 4795.6121100187302 2911.257296487689 2016.6020000204444 11189.501644343138 5312.1220451146364 1118.6391074210405 470.82295288145542 854.29284997284412 3964.5752324163914 758.94913578033447 890.22161427140236 1966.7943180054426 289.19655555486679 3433.4137320518494 1154.2260408550501 2292.8944069743156 426.46775265038013 367.52217628061771 415.59843353927135 43.564977437257767 2537.3241785243154 192.15681561082602 2278.5280003994703 237.01652863621712
leaf_count=35672 1561 28087 3309 823 2519 2476 9760 10534 9425 9105 5577 4019 892 2578 12746 3932 1963 2371 599 6119 1235 3716 1522 644 1629 57 14527 743 5494 734
internal_value=0.0445599 0.0318613 0.0590813 0.0408404 0.0464791 0.0207607 0.047166 0.0176765 0.0251833 0.0675698 0.0610385 0.0300398 0.0243143 0.0378183 0.0361745 0.0148624 0.0262898 0.0526095 0.0115681 0.0528671 0.0495028 0.0574425 0.0414668 0.0478579 0.0365628 0.0229416 0.0123237 0.0163189 0.0492318 0.0221849
internal_weight=65810.9 35111.5 30699.4 19407.9 12359.6 15703.6 13524.4 13670.4 5686.81 18339.8 7150.34 3461.42 2732.95 1325.12 4483.46 2775.55 5883.49 9040.93 1407.84 8898.14 6880.53 3447.12 2033.14 1606.67 1239.15 4993.27 7983.63 5446.3 7074.14 4949.71
internal_count=184368 143139 41229 62035 23238 81104 31194 74833 23891 17991 8886 9649 8088 3470 13569 13357 30841 17625 4618 13589 11070 4951 6271 4749 4105 28878 50942 36415 15254 28821
is_linear=0
shrinkage=0.05


Tree=17
num_leaves=31
num_cat=0
split_feature=4 7 7 3 12 8 3 6 7 7 7 7 10 2 10 10 7 2 13 10 7 2 7 7 7 13 7 7 13 7
split_gain=4540.7 1581.2 914.245 713.757 595.266 578.527 380.762 306.4 247.128 545.387 452.782 159.048 163.455 128.395 120.805 120.212 111.861 113.163 89.9848 86.9175 103.6 85.9988 71.1098 140.228 121.099 64.8507 64.2321 64.1169 55.8919 57.2841
threshold=1.0000000180025095e-35 435.50000000000006 426.50000000000006 1.0000000180025095e-35 1.0000000180025095e-35 6.7500000000000009 1.0000000180025095e-35 1.0000000180025095e-35 195.50000000000003 1.0000000180025095e-35 209.50000000000003 1499.5000000000002 1758636015.0000002 1.0000000180025095e-35 1758336764.5000002 1756790809.5000002 499.50000000000006 1.0000000180025095e-35 0.054485684869494892 1758651651.0000002 195.50000000000003 1.0000000180025095e-35 197.50000000000003 65.500000000000014 209.50000000000003 0.96634202361843557 209.50000000000003 557.50000000000011 0.99902444622655906 168.50000000000003
decision_type=2 2 2 2 2 2 2 2 2 2 2 2 2 2 2 2 2 2 2 2 2 2 2 2 2 2 2 2 2 2
left_child=1 5 6 4 16 7 14 8 9 -1 -10 12 -6 18 22 21 -3 -18 -4 20 25 -8 23 -2 -24 -7 -22 -5 -16 -30
right_child=2 3 13 27 11 19 15 -9 10 -11 -12 -13 -14 -15 28 -17 17 -19 -20 -21 26 -23 24 -25 -26 -27 -28 -29 29 -31
leaf_value=0.02920702719481047 0.046688975672243081 0.055265877207482716 0.043040616637875437 0.042036057174744929 0.037425230517669099 0.03414591063670349 0.022790333426342513 0.040272994073969025 0.049415137142645449 0.0025856982286312381 0.018101094822420335 0.055466701717186276 0.059518405634543886 0.068835222552869613 0.061859505545779507 0.064326167568724155 0.018093798646986441 0.052917329004314596 0.063124566990836864 0.063790295713707257 0.070486676962039418 0.052088088474932216 0.066259351895942287 0.017817164986446771 0.03407543541695978 0.00035311821571481063 0.042632429836282779 0.066439241605395064 -0.017397580250608068 0.049125678296536107
leaf_weight=2837.2368609160185 605.37496925890446 241.34354573488235 873.03392313420773 311.93446722626686 5873.8249721378088 556.88588506728411 265.36663088202477 1549.4964375942945 1371.4855410754681 5980.4763685166836 7331.9446440264583 2477.8631191253662 985.58437110483646 11282.270210027695 608.70202834904194 2273.5371887236834 3873.4442384839058 248.56334255635738 1658.5846545249224 497.07709394395351 282.28244180232286 6906.5660727024078 362.11298128962517 1397.740026935935 1593.6695513427258 192.47833903133869 862.86957794427872 2793.0647112578154 48.053471088409424 92.894861713051796
leaf_count=12470 1448 1230 1712 568 14445 1889 800 3050 5375 36417 34824 4195 1629 9004 926 2416 22431 396 1955 890 651 9428 730 4557 4092 876 2535 3103 157 169
internal_value=0.0420564 0.0308618 0.0573711 0.0423493 0.0374342 0.0218641 0.0484257 0.0189528 0.0170638 0.0111567 0.0230435 0.0445619 0.0406115 0.0665308 0.0367777 0.054225 0.0221689 0.0202121 0.0562282 0.0450502 0.040089 0.0510109 0.03326 0.0265741 0.0400779 0.0255114 0.0495759 0.06401 0.0552522 0.026307
internal_weight=66235.8 38267.9 27967.9 16805.6 13700.6 21462.2 14154 19070.6 17521.1 8817.71 8703.43 9337.27 6859.41 13813.9 4708.55 9445.47 4363.35 4122.01 2531.62 2391.59 1894.52 7171.93 3958.9 2003.11 1955.78 749.364 1145.15 3105 749.65 140.948
internal_count=184368 146974 37394 47997 44326 98977 24723 92136 89086 48887 40199 20269 16074 12671 12079 12644 24057 22827 3667 6841 5951 10228 10827 6005 4822 2765 3186 3671 1252 326
is_linear=0
shrinkage=0.05


Tree=18
num_leaves=31
num_cat=0
split_feature=2 0 7 7 13 13 0 3 7 7 13 10 7 7 7 10 7 10 7 10 7 1 11 3 13 10 7 7 13 7
split_gain=4250.04 1212.15 1191.76 1075.07 537.362 415.111 413.655 261.839 235.797 192.78 178.746 157.626 155.171 180.168 154.001 149.307 119.247 116.522 112.88 109.648 101.503 87.214 86.234 80.582 63.3377 62.723 59.469 57.0247 53.1568 48.8419
threshold=1.0000000180025095e-35 1.0000000180025095e-35 295.50000000000006 295.50000000000006 1.0000000180025095e-35 0.20836063783311493 1.0000000180025095e-35 1.0000000180025095e-35 970.50000000000011 849.50000000000011 0.998658168248867 1756995602.5000002 1.0000000180025095e-35 195.50000000000003 1610.0000000000002 1758390702.0000002 1.0000000180025095e-35 1756838438.0000002 1599.5000000000002 1757504909.5000002 299.50000000000006 1.0000000180025095e-35 0.038483001373626383 1.0000000180025095e-35 0.99936844755362586 1759153016.0000002 65.500000000000014 378.50000000000006 0.33326097966862028 192.50000000000003
decision_type=2 2 2 2 2 2 2 2 2 2 2 2 2 2 2 2 2 2 2 2 2 2 2 2 2 2 2 2 2 2
left_child=1 3 6 5 18 16 7 19 24 20 15 14 -9 -14 -6 -7 -1 -18 21 29 -4 -5 -12 27 -3 -13 -8 -22 -25 -2
right_child=2 8 9 4 11 10 26 12 -10 -11 22 25 13 -15 -16 -17 17 -19 -20 -21 23 -23 -24 28 -26 -27 -28 -29 -30 -31
leaf_value=0.017418363552045919 0.0079811607997527789 0.044700847382106834 0.076076070344393038 0.016490305141460916 0.032885108608622669 0.023998795466961962 0.067090443497600669 0.055101563572969858 0.064240089379353771 0.065763360122116227 0.028192784845826518 0.045494006463711524 0.026775050267117434 0.045673169764411922 0.058179784724598664 0.048460300496959929 -0.0015501073075181605 0.020665121724443149 0.045270426686444931 0.040949289225120242 0.028585055719801494 0.033210372017037394 0.0052605281169059871 0.051548129577945724 0.028406717882971968 0.064408063981020391 0.051949459306055927 0.049536992206127624 0.062152762847281912 0.02515326975757853
leaf_weight=1434.3761755228043 1046.3529655635357 3928.2890530526638 545.90744930505753 5039.2820899039507 6411.0311964899302 3181.8412822932005 889.51865562796593 1462.897288531065 1654.8104245513678 11035.841019451618 547.3039922863245 2542.7184676676989 2460.0244497954845 2623.3802316486835 668.78451739251614 780.76381048560143 4750.1268402636051 672.8464749455452 444.11141587793827 526.00054134428501 462.43709477782249 928.30908906459808 1643.7942993193865 2582.496423766017 722.56733845174313 548.4223253428936 2773.7539697289467 1195.9395514577627 2366.4986764341593 692.80580522119999
leaf_count=8098 3945 7254 458 29898 16906 12763 841 2050 1823 9105 2512 4999 5245 4373 1115 1880 37792 2762 1468 1078 1028 2237 8835 3246 1990 807 3447 1795 2359 2259
internal_value=0.0397551 0.0280756 0.0534265 0.0238315 0.0322738 0.013068 0.0415109 0.0356242 0.0479835 0.0615946 0.0224957 0.0394235 0.0406993 0.0365397 0.0352859 0.0288358 0.00460202 0.0012049 0.0209239 0.0209345 0.0551513 0.0191006 0.0110103 0.0534074 0.0421814 0.0488775 0.0556501 0.0437304 0.0566356 0.0148467
internal_weight=66563.2 35899.4 30663.9 29593.7 16582.7 13011.1 12474.7 8811.46 6305.67 18189.1 6153.7 10171 6546.3 5083.4 7079.82 3962.61 6857.35 5422.97 6411.7 2265.16 7153.28 5967.59 2191.1 6607.37 4650.86 3091.14 3663.27 1658.38 4949 1739.16
internal_count=184368 143139 41229 132072 57430 74642 23238 18950 11067 17991 25990 23827 11668 9618 18021 14643 48652 40554 33603 7282 8886 32135 11347 8428 9244 5806 4288 2823 5605 6204
is_linear=0
shrinkage=0.05


Tree=19
num_leaves=31
num_cat=0
split_feature=4 0 13 2 6 13 10 10 5 8 13 0 13 13 6 13 8 8 8 8 13 5 13 9 0 13 5 8 10 0
split_gain=4073.91 978.766 825.008 414.522 298.458 290.412 227.938 189.357 188.069 181.49 167.158 167.132 192.461 139.716 94.4015 79.5445 69.2543 68.6423 65.6914 60.1457 57.2679 55.2409 55.0725 52.0594 51.6051 49.5786 45.6276 44.4471 38.1551 35.6737
threshold=1.0000000180025095e-35 1.0000000180025095e-35 0.20836063783311493 1.0000000180025095e-35 1.0000000180025095e-35 0.99998932741360547 1756995602.5000002 1758681252.0000002 1.0000000180025095e-35 3.2500000000000004 0.051292471971410535 1.0000000180025095e-35 0.10527580971659921 0.99902444622655906 1.0000000180025095e-35 0.99902444622655906 5.2500000000000009 1.2500000000000002 1.2500000000000002 1.0000000180025095e-35 0.99936844755362586 1.0000000180025095e-35 0.66670497203707968 1758456000.0000002 1.0000000180025095e-35 0.39439288157467028 1.0000000180025095e-35 5.7500000000000009 1756995602.5000002 1.0000000180025095e-35
decision_type=2 2 2 2 2 2 2 2 2 2 2 2 2 2 2 2 2 2 2 2 2 2 2 2 2 2 2 2 2 2
left_child=1 2 4 11 6 7 18 8 -4 19 14 12 -2 -12 24 22 23 -17 -1 -7 -18 28 -14 -3 -5 -9 -11 -8 -6 -16
right_child=3 16 5 10 21 9 27 25 -10 26 13 -13 15 -15 29 17 20 -19 -20 -21 -22 -23 -24 -25 -26 -27 -28 -29 -30 -31
leaf_value=0.013223899543776233 0.02235161832276596 0.045782775794579518 0.030656975803172521 0.039998282908373442 0.023101898872476559 0.04563287700705957 0.025531366555832914 0.023364810228505874 0.053500137178783415 0.0027781829755018249 0.06217508802081545 0.055961243464180188 0.037933251815124677 0.049581440395835147 0.051904751721725831 0.050431870661193715 0.055503345075877043 0.015954994675526874 0.0049338725936136111 0.024844525117384129 0.022372989352114209 0.048626177500172299 0.056141709148959974 0.035086638175947059 0.05470032227477134 0.053346660785532456 0.031727470931091038 0.043702862265717637 0.055714215805335199 0.061024412747985646
leaf_weight=9791.8371671065688 1750.0776734501123 2855.8227196782827 8833.4314263612032 2565.4699418991804 598.57810033857822 402.42535085976124 1179.6024512350559 156.42159155011177 1008.8898052871227 1259.8791764602065 9424.9215548038483 1253.1503857374191 685.44065713882446 2942.5358808487654 5169.5974422842264 228.95234590768814 1706.1619767695665 400.83321410417557 3177.482317596674 2814.330983877182 146.05863632261753 646.43907384574413 1150.4644439518452 1982.4498277753592 809.0371019244194 1630.6316868215799 152.07839132845402 484.57658351957798 107.33124420046806 1460.9599704742432
leaf_count=63458 5624 4943 25834 4655 1318 1236 3961 373 1477 5619 8828 1540 1401 3710 5944 518 2329 1198 16467 10264 397 872 1799 3970 875 2831 323 1146 156 1302
internal_value=0.0376473 0.0272013 0.0235871 0.052253 0.0155168 0.0315194 0.0134354 0.0357393 0.0330063 0.0209062 0.0552745 0.03988 0.0350818 0.059185 0.0504327 0.0440944 0.0446095 0.0285884 0.0111953 0.0274663 0.0529178 0.0379943 0.0493815 0.0414134 0.0435457 0.0507509 0.00593418 0.0308606 0.0281677 0.0539268
internal_weight=66775.9 38934.4 32243.9 27841.4 15985.8 16258.1 14633.5 11629.4 9842.32 4628.71 22372.5 5468.92 4215.77 12367.5 10005.1 2465.69 6690.49 629.786 12969.3 3216.76 1852.22 1352.35 1835.91 4838.27 3374.51 1787.05 1411.96 1664.18 705.909 6630.56
internal_count=184368 146974 135335 37394 87378 47957 85032 30515 27311 17442 25314 12080 10540 12538 12776 4916 11639 1716 79925 11500 2726 2346 3200 8913 5530 3204 5942 5107 1474 7246
is_linear=0
shrinkage=0.05


Tree=20
num_leaves=31
num_cat=0
split_feature=4 7 7 3 8 13 6 6 7 7 7 8 2 9 7 10 1 7 10 13 10 7 10 7 7 5 7 13 5 13
split_gain=3795.57 1287.91 891.315 629.211 463.774 341.04 332.835 228.543 203.745 451.71 382.621 165.961 123.723 116.579 117.987 113.557 111.432 97.4735 89.4838 77.8664 74.2551 71.321 66.5809 87.2776 60.6028 55.4748 55.3028 52.4764 43.2744 42.1738
threshold=1.0000000180025095e-35 435.50000000000006 426.50000000000006 1.0000000180025095e-35 6.7500000000000009 1.0000000180025095e-35 1.0000000180025095e-35 1.0000000180025095e-35 195.50000000000003 1.0000000180025095e-35 209.50000000000003 6.7500000000000009 1.0000000180025095e-35 1758110400.0000002 749.50000000000011 1759111219.5000002 1.0000000180025095e-35 1499.5000000000002 1758336764.5000002 0.054485684869494892 1757325772.5000002 65.500000000000014 1758651651.0000002 195.50000000000003 557.50000000000011 1.0000000180025095e-35 209.50000000000003 0.96634202361843557 1.0000000180025095e-35 0.21443059997494029
decision_type=2 2 2 2 2 2 2 2 2 2 2 2 2 2 2 2 2 2 2 2 2 2 2 2 2 2 2 2 2 2
left_child=1 4 6 5 7 13 11 8 9 -1 -10 18 19 16 -15 17 -3 -7 21 -4 28 -2 23 27 -5 29 -25 -6 -8 -9
right_child=2 3 12 24 22 15 20 25 10 -11 -12 -13 -14 14 -16 -17 -18 -19 -20 -21 -22 -23 -24 26 -26 -27 -28 -29 -30 -31
leaf_value=0.024260199490590974 0.041322872271187375 0.01617981204937935 0.036869344291822023 0.035191362724847679 0.028203716552019354 0.032719729089339671 0.036223578503030145 0.013194776124450145 0.042547044363164414 0.00040740234986852224 0.014312518146040835 0.05350545861642917 0.06134380696690496 0.0085418010166072294 0.052120341076549385 0.059135785287128012 0.044560253999885724 0.045254377636911688 0.04506035707812972 0.055430872211590293 0.059407130150391223 0.025697368173817559 0.054220771757992697 0.061324641515690108 0.058741120567572226 0.042997408301067415 0.035998299342333888 -0.0016095565502179611 0.048296125120674736 0.036232410645078657
leaf_weight=2941.9488092064857 881.21042136847973 4244.2222587615252 888.16651560366154 315.3491542339325 576.1097671687603 5978.3858263194561 926.44413512945175 429.46232083439827 1427.9651901498437 6103.3932986557484 7548.1749947667122 919.21283277869225 10958.012742891908 219.8761225938797 544.1435305327177 574.5946201980114 377.41232872009277 2129.2695170193911 935.74056357145309 1659.5540519356728 1382.8359824717045 4563.8197598010302 512.77454160153866 293.66697914898396 2775.48632119596 768.84549276530743 893.24305436015129 196.09306032955647 4636.312724724412 379.64418785274029
leaf_count=12470 1835 23683 1712 568 1889 13580 1479 1123 5375 36417 34824 1433 9004 815 1226 771 661 3590 1515 1955 1303 11589 890 651 3103 1174 2535 876 5569 753
internal_value=0.0356559 0.0256427 0.0498083 0.0359191 0.0176513 0.0314228 0.0410713 0.0150738 0.0134723 0.00816998 0.0188112 0.0335956 0.0590185 0.0215206 0.0396392 0.0375592 0.018512 0.0360199 0.0307155 0.0489869 0.0489188 0.0282379 0.0380641 0.033797 0.0563587 0.0333277 0.042332 0.0206083 0.0462969 0.0240666
internal_weight=66981.4 39230.1 27751.3 17158.7 22071.3 14067.9 14245.6 19599.4 18021.5 9045.34 8976.14 7299.98 13505.7 5385.65 764.02 8682.25 4621.63 8107.66 6380.77 2547.72 6945.59 5445.03 2471.89 1959.11 3090.84 1577.95 1186.91 772.203 5562.76 809.107
internal_count=184368 146974 37394 47997 98977 44326 24723 92136 89086 48887 40199 16372 12671 26385 2041 17941 24344 17170 14939 3667 8351 13424 6841 5951 3671 3050 3186 2765 7048 1876
is_linear=0
shrinkage=0.05


Tree=21
num_leaves=31
num_cat=0
split_feature=2 7 0 7 12 0 6 13 7 7 10 10 8 9 7 10 7 3 9 7 10 7 13 7 12 7 11 10 7 7
split_gain=3540.78 1154.07 996.167 863.74 399.346 397.351 337.042 322.748 214.607 192.038 164.151 147.667 132.826 138.726 117.109 108.868 101.769 99.8192 93.3403 88.5353 79.0109 73.7372 55.4388 53.5486 48.5405 46.6546 44.071 43.7723 43.7155 67.0852
threshold=1.0000000180025095e-35 548.50000000000011 1.0000000180025095e-35 295.50000000000006 1.0000000180025095e-35 1.0000000180025095e-35 1.0000000180025095e-35 0.03001501501501502 970.50000000000011 1499.5000000000002 1757071126.0000002 1758643313.0000002 6.2500000000000009 1758801600.0000002 192.50000000000003 1759187328.0000002 284.50000000000006 1.0000000180025095e-35 1758801600.0000002 1.0000000180025095e-35 1758597764.5000002 1.0000000180025095e-35 0.99936844755362586 759.50000000000011 2.5000000000000004 1405.5000000000002 0.80007930214115797 1757085642.0000002 187.50000000000003 209.50000000000003
decision_type=2 2 2 2 2 2 2 2 2 2 2 2 2 2 2 2 2 2 2 2 2 2 2 2 2 2 2 2 2 2
left_child=2 5 3 7 17 6 10 15 22 11 14 -6 13 -9 -2 21 19 18 -5 -8 -14 -1 28 -19 -11 27 -17 -3 -4 -30
right_child=1 25 8 4 9 -7 16 12 -10 24 -12 -13 20 -15 -16 26 -18 23 -20 -21 -22 -23 -24 -25 -26 -27 -28 -29 29 -31
leaf_value=0.011048005162713242 0.010005171100524611 0.053243446348272286 0.03159095584081751 0.012969869456612663 0.026490668312330115 0.050683279834556907 0.0492945008530149 0.018266842582209189 0.056923095325257661 0.017251946091533681 0.03874257503738137 0.044608990537217882 0.024085406753689569 0.00028515687096448809 0.026713287030288399 0.03443814841238476 0.049680596130544818 0.014181645771836809 0.044250551958940801 0.032869345733084913 0.051242043357470152 -0.0022795945689253693 0.023205085673623997 0.067164939982185631 0.047046065213971193 0.061697631160660127 0.12475079667317011 0.062165005288690858 0.060129903151242725 0.038472469966005562
leaf_weight=1331.4757747203112 1837.3151019513607 6153.3310481011868 1555.2349030524492 4962.3373377025127 7939.9103580713272 4578.8164922297001 1081.5645296573639 4057.9190222918987 1649.0121102631092 150.31767764687538 1520.0010349452496 1318.6245916336775 1356.0975781604648 1461.7486683055758 2467.4431075155735 127.48901030421257 2266.8412169963121 74.607747822999954 250.57321201264858 3597.47711160779 337.65601043403149 4688.4058383703232 740.81939533352852 141.6417967826128 2189.8984709382057 4915.2787778675556 14.742633432149885 1892.6994530856609 447.36668772995472 1989.4252363294363
leaf_count=7539 5975 6104 3224 28326 21452 5214 1362 17784 1823 336 2654 2400 4913 6781 5928 466 2623 262 724 5984 665 36471 1990 280 3650 3909 23 1476 585 3445
internal_value=0.0338173 0.0464717 0.0233885 0.0196161 0.027086 0.0380302 0.033488 0.0101032 0.041351 0.0323271 0.0245994 0.0290784 0.0172814 0.0135103 0.0195919 0.00169477 0.0409337 0.0158805 0.0144865 0.0366811 0.029541 0.000665393 0.0359092 0.0491498 0.0451512 0.0577654 0.0447794 0.0553527 0.0382541 0.0424818
internal_weight=67096.1 30310.8 36785.3 30403.4 17027.9 17349.5 12770.6 13375.5 6381.86 11598.8 5824.76 9258.53 7213.42 5519.67 4304.76 6162.11 6945.88 5429.16 5212.91 4679.04 1693.75 6019.88 4732.85 216.25 2340.22 12961.3 142.232 8046.03 3992.03 2436.79
internal_count=184368 41229 143139 132072 57430 29740 24526 74642 11067 27838 14557 23852 30143 24565 11903 44499 9969 29592 29050 7346 5578 44010 9244 542 3986 11489 489 7580 7254 4030
is_linear=0
shrinkage=0.05


Tree=22
num_leaves=31
num_cat=0
split_feature=4 7 7 1 12 6 10 7 7 7 7 13 7 8 13 13 7 13 8 6 11 7 7 7 7 12 8 10 9 10
split_gain=3428.59 1061.16 833.072 438.134 342.761 313.8 280.898 220.508 332.901 310.183 164.622 145.961 124.855 119.904 93.3887 89.8562 89.0357 85.979 94.996 82.1378 79.3418 78.9045 178.846 130.418 76.9539 73.5704 73.2688 71.8869 67.1254 60.1906
threshold=1.0000000180025095e-35 295.50000000000006 548.50000000000011 1.0000000180025095e-35 1.0000000180025095e-35 1.0000000180025095e-35 1756822070.0000002 1.0000000180025095e-35 195.50000000000003 209.50000000000003 851.00000000000011 0.99998932741360547 609.50000000000011 6.7500000000000009 0.99998932741360547 0.92857723419901705 300.50000000000006 0.0099199140097496006 1.0000000180025095e-35 1.0000000180025095e-35 0.17461502013740823 197.50000000000003 209.50000000000003 65.500000000000014 129.50000000000003 3.5000000000000004 6.2500000000000009 1757325772.5000002 1758801600.0000002 1759086753.5000002
decision_type=2 2 2 2 2 2 2 2 2 2 2 2 2 2 2 2 2 2 2 2 2 2 2 2 2 2 2 2 2 2
left_child=1 6 5 4 14 13 7 17 24 -10 19 26 16 21 28 -14 -6 18 -1 -5 -19 23 -23 -2 -9 -4 -8 -7 -3 -13
right_child=2 3 25 10 12 27 11 8 9 -11 -12 29 15 -15 -16 -17 -18 20 -20 -21 -22 22 -24 -25 -26 -27 -28 -29 -30 -31
leaf_value=0.020056029849116447 0.037945052778021765 0.013701042897649441 0.050580157852913116 0.024859730559075623 0.041162101411272488 0.043000052962952798 0.02497489310551957 -0.0093399452376362307 0.036829708456645863 0.0089549858489402136 0.050253258365399324 -4.2462753328076326e-06 0.038639712011593816 0.047429685097910866 0.085194473083107056 0.026830901871364346 0.020441849889570943 0.05034731604979379 -0.015030333789262287 0.044962554259290882 0.023217599216228034 0.057842549280998468 0.02889421414903064 0.016520089743543433 0.0028699017299270895 0.058869620569866325 0.041454675532891644 0.055377734573544904 0.039922853745357485 0.034092268670745295
leaf_weight=1382.259633526206 1040.3973925858736 5028.9014225453138 4424.2864343822002 1404.3698686212301 620.13742999732494 6103.6290802806616 2192.8171270638704 1981.5877202004194 1340.0345763266087 3921.6848031356931 3037.794616818428 670.76297360658646 5033.5610458999872 1009.1574365049601 47.007917180657387 2413.9951808005571 3290.687954261899 424.56726656854153 222.60219903290272 811.09111835062504 762.13422837853432 648.40205217897892 3099.590608894825 2270.1714267134666 3691.9201544672251 7350.7285959124565 991.49258358776569 1494.6813116520643 257.07394003868103 158.95035497844219
leaf_count=6557 2084 28087 4747 2982 1227 7638 6658 12097 5163 20603 3400 2793 9760 1566 57 5494 10542 1252 1175 1072 2579 1050 6529 6217 22164 6147 2059 1416 734 519
internal_value=0.0321152 0.0227165 0.0457055 0.0300688 0.0260984 0.0381423 0.0136195 0.0102128 0.0070064 0.0160644 0.0426721 0.0252574 0.0310106 0.0312564 0.0156277 0.0348196 0.0237435 0.0227573 0.0151675 0.0322477 0.0329791 0.0289342 0.033923 0.0232702 -0.00139112 0.0557617 0.0301254 0.0454452 0.0149883 0.00653079
internal_weight=67126.5 39685.4 27441 21944.6 16691.4 15666 17740.8 13726.8 10935.2 5261.72 5253.26 4014.02 11358.4 8067.72 5332.98 7447.56 3910.83 2791.56 1604.86 2215.46 1186.7 7058.56 3747.99 3310.57 5673.51 11775 3184.31 7598.31 5285.98 829.713
internal_count=184368 146974 37394 63355 55901 26500 83619 71590 60027 25766 7454 12029 27023 17446 28878 15254 11769 11563 7732 4054 3831 15880 7579 8301 34261 10894 8717 9054 28821 3312
is_linear=0
shrinkage=0.05


Tree=23
num_leaves=31
num_cat=0
split_feature=2 7 0 7 0 12 13 6 13 7 10 8 10 7 10 7 7 7 7 7 11 1 10 13 10 7 10 8 11 11
split_gain=3162.65 1065.52 909.625 712.344 378.142 371.068 348.105 291.605 204.479 190.361 144.14 123.268 122.151 115.421 108.686 96.5814 93.2658 80.2265 78.317 107.647 67.4512 58.6105 57.9891 50.1516 48.2623 46.5611 42.2405 41.9544 38.1302 69.062
threshold=1.0000000180025095e-35 548.50000000000011 1.0000000180025095e-35 390.50000000000006 1.0000000180025095e-35 1.0000000180025095e-35 0.31710140018066851 1.0000000180025095e-35 0.96775402621270024 970.50000000000011 1757071126.0000002 5.7500000000000009 1756807441.0000002 1499.5000000000002 1758643313.0000002 192.50000000000003 284.50000000000006 1.0000000180025095e-35 1599.5000000000002 1149.5000000000002 0.080887480515218657 1.0000000180025095e-35 1758606166.5000002 0.99936844755362586 1757050335.5000002 1405.5000000000002 1756891203.0000002 5.7500000000000009 0.24000674195179508 0.3312524402396243
decision_type=2 2 2 2 2 2 2 2 2 2 2 2 2 2 2 2 2 2 2 2 2 2 2 2 2 2 2 2 2 2
left_child=2 4 3 6 7 18 12 10 11 23 15 -8 20 14 -7 -2 17 -9 19 -5 -1 -15 -10 -4 25 -3 -14 -12 -25 -30
right_child=1 24 9 5 -6 13 8 16 22 -11 27 -13 26 21 -16 -17 -18 -19 -20 -21 -22 -23 -24 28 -26 -27 -28 -29 29 -31
leaf_value=0.0041297420780664236 0.0085768333557584755 0.049098560568000757 0.035076762191605791 0.018025739376004744 0.046970078226201202 0.025332170708810883 0.018918485942140753 0.045086181981626811 0.006477269648511929 0.052683770374246167 0.028906817174708849 0.037234234954221034 0.07947517382620671 0.036353241079149091 0.042986016898536678 0.023683506028525411 0.0455346597110916 0.029409898928746764 0.036392212039525432 0.0018620174157065275 -0.0060640807839335191 0.055759497763811276 0.024138982598724504 0.032455968723513452 0.059218497865904079 0.056480977445445217 0.016688676768825808 0.046488154966567719 -0.040705742655998266 0.018593997261450657
leaf_weight=5371.9726030156016 1851.6587441116571 6002.9704174697399 4012.1956270039082 2781.8703141063452 4524.3817919939756 6322.7140106409788 2436.9575568586588 1074.0814382880926 2967.7386415824294 1635.6891568750143 987.92427718639374 1488.1867564171553 26.738973721861839 1851.892115175724 1019.602279946208 2493.5536598265171 2238.649186745286 3588.7492064684629 357.353281468153 1641.5828739255667 2322.9429684206843 507.20949952304363 552.48535311222076 363.52611413598061 3072.9157839715481 3553.5680599659681 1178.3855637311935 538.33431832492352 56.552770286798477 328.1645994335413
leaf_count=38608 5975 6091 7254 14872 5214 15649 8845 1362 13660 1823 1928 4001 83 3460 1728 5928 2623 5984 1226 9410 13990 526 1829 893 2381 3017 4185 726 226 871
internal_value=0.0305015 0.0426042 0.0207698 0.017207 0.0345345 0.0252826 0.0100493 0.0301243 0.0180271 0.037932 0.0219165 0.0258768 0.00337133 0.0309032 0.0277926 0.0172552 0.0370993 0.0330352 0.0138678 0.0120347 0.00104879 0.0405581 0.00926237 0.032848 0.0536508 0.0518519 0.0181672 0.0351508 0.0208328 0.00972929
internal_weight=67150.5 29926.8 37223.8 30827.6 17297.3 14482.2 16345.4 12773 7445.37 6396.13 5871.47 3925.14 8900.04 9701.42 7342.32 4345.21 6901.48 4662.83 4780.81 4423.45 7694.92 2359.1 3520.22 4760.44 12629.5 9556.54 1205.12 1526.26 748.243 384.717
internal_count=184368 41229 143139 132072 29740 46871 85201 24526 28335 11067 14557 12846 56866 21363 17377 11903 9969 7346 25508 24282 52598 3986 15489 9244 11489 9108 4268 2654 1990 1097
is_linear=0
shrinkage=0.05


Tree=24
num_leaves=31
num_cat=0
split_feature=2 7 7 13 6 7 7 7 5 8 7 7 7 1 8 10 7 7 10 7 7 13 13 11 7 7 13 7 7 13
split_gain=2958.94 1025.47 711.644 411.822 318.167 270.594 185.748 247.211 169.85 150.543 142.497 165.244 152.671 122.595 105.033 101.818 112.04 93.8955 89.8144 82.1028 69.967 69.3648 99.6837 70.7087 68.0992 71.9382 61.5855 58.9094 105.504 51.1421
threshold=1.0000000180025095e-35 548.50000000000011 198.50000000000003 1.0000000180025095e-35 1.0000000180025095e-35 65.500000000000014 1029.5000000000002 200.50000000000003 1.0000000180025095e-35 6.7500000000000009 209.50000000000003 208.50000000000003 326.50000000000006 1.0000000180025095e-35 6.2500000000000009 1757050335.5000002 107.50000000000001 203.50000000000003 1758220605.0000002 108.50000000000001 350.50000000000006 0.30142022562449639 0.95156235900212482 0.097603579675292831 132.50000000000003 129.50000000000003 0.99902444622655906 195.50000000000003 65.500000000000014 0.025655093688169681
decision_type=2 2 2 2 2 2 2 2 2 2 2 2 2 2 2 2 2 2 2 2 2 2 2 2 2 2 2 2 2 2
left_child=2 4 5 10 9 29 7 26 -6 21 11 17 -12 18 -9 16 -7 -4 -8 -18 -14 23 -23 -2 25 -17 -5 28 -10 -1
right_child=1 -3 3 6 8 15 13 14 27 -11 12 -13 20 -15 -16 24 19 -19 -20 -21 -22 22 -24 -25 -26 -27 -28 -29 -30 -31
leaf_value=0.013991824510657228 0.023439775261573582 0.051728600983866502 0.034987331774479678 0.060485090969937629 0.027304807588886378 -0.017458219531409813 0.028701899881332385 0.019363297629295784 0.049412521258326729 0.044087904598186532 0.0042351947214909471 0.082630891115870825 0.040134862845796287 0.049443830533689316 0.03094880700366523 0.015619066730974808 0.058367633563922008 -0.024769889356975019 0.045955583905434291 0.0019488252806426007 0.017303742621281471 0.037905714598204542 0.019764612836013086 0.0092465426707212719 0.0046239276906951945 0.051651936008120083 0.020634766028493484 0.046906343032066644 0.030087037413753383 0.026219619648155758
leaf_weight=1761.1479311585426 2449.4892546385527 12448.711112886667 332.58789674937725 571.98060965538025 2322.7793202847242 802.51953550428152 3927.2799201756716 6912.6663924604654 1163.3780147135258 953.2436401695013 2571.8191178068519 164.28990270197392 354.36677077412605 1296.8588010370731 2751.2123814225197 471.60145865380764 64.432993568480015 80.599085316061974 946.07646685838699 4669.7330808639526 6909.0044149011374 1466.2175785303116 1593.1800676584244 1381.1800787448883 784.91188149154186 198.06071527302265 120.79446533322334 4076.2806306779385 1851.8704179376364 1695.9696936830878
leaf_count=8510 5805 11489 1566 1065 4112 5177 8064 20589 1228 1431 15523 497 1452 1439 6450 1661 343 528 1348 28417 31274 2641 3603 3695 2939 457 420 4479 2746 5420
internal_value=0.0290049 0.0407855 0.0196432 0.0239397 0.0328877 0.00856181 0.028849 0.0247444 0.0390914 0.0254343 0.0161433 0.0402924 0.0147189 0.0357294 0.022667 0.00289836 -0.000190767 0.0232387 0.0320653 0.00273414 0.0184264 0.0228439 0.0284765 0.0183326 0.014666 0.0263746 0.0536125 0.0429441 0.0375656 0.0200035
internal_weight=67094.2 29706.3 37387.9 26939.5 17257.6 10448.4 16526.9 10356.7 9414.31 7843.31 10412.7 577.477 9835.19 6170.22 9663.88 6991.26 5536.69 413.187 4873.36 4734.17 7263.37 6890.07 3059.4 3830.67 1454.57 669.662 692.775 7091.53 3015.25 3457.12
internal_count=184368 41229 143139 90215 29740 52924 39375 28524 12565 17175 50840 2591 48249 10851 27039 38994 33937 2094 9412 28760 32726 15744 6244 9500 5057 2118 1485 8453 3974 13930
is_linear=0
shrinkage=0.05


Tree=25
num_leaves=31
num_cat=0
split_feature=4 0 13 3 3 13 3 0 13 11 10 8 10 10 13 13 3 8 13 0 11 2 8 8 2 8 10 2 13 9
split_gain=2985.6 748.832 507.225 342.709 198.373 196.006 171.667 164.382 162.136 152.737 188.971 149.471 127.375 127.067 116.525 157.362 91.2866 72.8609 67.925 64.6089 63.0763 52.3703 52.2459 48.867 44.8069 43.9752 42.5635 38.6372 37.8557 42.6511
threshold=1.0000000180025095e-35 1.0000000180025095e-35 0.20836063783311493 1.0000000180025095e-35 1.0000000180025095e-35 0.99998932741360547 1.0000000180025095e-35 1.0000000180025095e-35 0.10527580971659921 0.023844191141803261 1756922657.5000002 3.2500000000000004 1759178956.5000002 1758597764.5000002 0.054485684869494892 0.99902444622655906 1.0000000180025095e-35 1.7500000000000002 0.99902444622655906 1.0000000180025095e-35 0.097603579675292831 1.0000000180025095e-35 6.7500000000000009 1.0000000180025095e-35 1.0000000180025095e-35 4.7500000000000009 1757650546.0000002 1.0000000180025095e-35 0.99998932741360547 1758456000.0000002
decision_type=2 2 2 2 2 2 2 2 2 2 2 2 2 2 2 2 2 2 2 2 2 2 2 2 2 2 2 2 2 2
left_child=1 2 4 7 12 6 13 14 19 -6 -11 23 22 -4 21 24 28 -17 25 20 -5 -2 -1 -7 -16 -10 -22 -8 -3 -30
right_child=3 16 5 8 9 11 27 -9 18 10 -12 -13 -14 -15 15 17 -18 -19 -20 -21 26 -23 -24 -25 -26 -27 -28 -29 29 -31
leaf_value=0.0059041033697856161 0.014701931200817015 0.033054223598744201 0.020182961978053707 0.039594232965108278 0.03149527428178444 0.035231751399640972 0.026231562902952421 0.04507752033346088 0.046760687806386175 -0.0077607497478620821 0.040547540417333369 0.00010820064274529273 0.038202336351081369 0.035564002526034609 0.034182344116514239 0.033615900808516473 0.046113447041426163 0.0058849327938922114 0.041643767336321691 0.047676656251085012 0.022524854108191963 0.028112675463655812 0.021014105862601731 0.016958704855395097 0.046413088875271458 0.054983970830021704 0.04401279105454773 0.042403435050075267 0.034941840778552939 0.011581688520666836
leaf_weight=13063.052778214216 1499.9288871735334 4617.5115488171577 8347.5507136434317 5152.1395582705736 1659.8949829861522 422.1806568056345 503.98158693313599 2043.2573413699865 2919.2770033329725 684.2700098529458 286.06981882452965 1463.1752352118492 325.27197271585464 1609.031729221344 1646.6849286258221 395.47353585064411 1301.9754843860865 596.59609162807465 2373.7861606925726 1885.2899605035782 1053.751969859004 1444.7786305397749 599.06846407055855 2935.2043998092413 1454.5220936834812 4085.7202153354883 301.42379148304462 1573.6967945247889 335.16462752223015 481.71792882680893
leaf_count=77967 4772 7984 23974 6534 3695 1236 1311 2420 3065 2358 492 5942 852 3055 3027 815 1638 1580 2882 1885 1820 2824 2014 10264 1863 3562 345 2175 704 1313
internal_value=0.0275718 0.0189483 0.015885 0.0404823 0.00968268 0.0219977 0.025413 0.0325617 0.0445263 0.0222831 0.00648256 0.0134629 0.00731004 0.0226744 0.0289186 0.0343886 0.0341614 0.0169874 0.0490633 0.0394479 0.0370531 0.0212975 0.00656998 0.0192737 0.03994 0.0515677 0.0273517 0.0385072 0.0312854 0.0212279
internal_weight=67061.4 40208.8 33472.4 26852.6 16617.6 16854.8 12034.3 9081.24 17771.4 2630.23 970.34 4820.56 13987.4 9956.58 7037.98 4093.28 6736.37 992.07 9378.78 8392.61 6507.32 2944.71 13662.1 3357.39 3101.21 7005 1355.18 2077.68 5434.39 816.883
internal_count=184368 146974 135335 37394 87378 47957 30515 17301 20093 6545 2850 17442 80833 27029 14881 7285 11639 2395 9509 10584 8699 7596 79981 11500 4890 6627 2165 3486 10001 2017
is_linear=0
shrinkage=0.05


Tree=26
num_leaves=31
num_cat=0
split_feature=4 0 13 3 3 13 3 13 0 8 8 13 13 3 8 6 5 13 8 8 9 2 9 2 8 0 9 1 8 8
split_gain=2782.49 680.851 454.747 332.397 179.308 176.378 158.887 154.971 154.162 135.08 112.665 107.023 143.96 85.2877 71.2867 67.1508 66.1537 65.9001 65.3989 63.6314 54.553 46.8683 46.3165 43.0857 42.2382 41.1807 40.007 37.7893 37.4061 56.8465
threshold=1.0000000180025095e-35 1.0000000180025095e-35 0.20836063783311493 1.0000000180025095e-35 1.0000000180025095e-35 0.99998932741360547 1.0000000180025095e-35 0.10527580971659921 1.0000000180025095e-35 2.2500000000000004 1.0000000180025095e-35 0.057721923866687737 0.99902444622655906 1.0000000180025095e-35 6.7500000000000009 1.0000000180025095e-35 1.0000000180025095e-35 0.99902444622655906 1.7500000000000002 6.7500000000000009 1758196800.0000002 1.0000000180025095e-35 1758283200.0000002 1.0000000180025095e-35 4.7500000000000009 1.0000000180025095e-35 1758801600.0000002 1.0000000180025095e-35 5.2500000000000009 1.0000000180025095e-35
decision_type=2 2 2 2 2 2 2 2 2 2 2 2 2 2 2 2 2 2 2 2 2 2 2 2 2 2 2 2 2 2
left_child=1 2 4 8 14 6 19 15 11 -7 -6 21 23 28 26 -5 -12 24 -14 -4 -16 -2 -11 -13 -9 -17 -1 -8 29 -3
right_child=3 13 5 7 10 9 27 17 -10 22 16 12 18 -15 20 25 -18 -19 -20 -21 -22 -23 -24 -25 -26 -27 -28 -29 -30 -31
leaf_value=0.0050862206607561041 0.013993907770054782 0.034173590941786257 0.019027751372787963 0.029319166394342053 0.030041750023737868 0.020013539764592275 0.023127995825092302 0.045004275401076432 0.043146710391841106 0.015858757924258862 0.00022110886624004714 0.032423164796488678 0.031832535965883424 0.044038997153330185 -0.012487907326090741 0.03806059290789858 0.025795383346355335 0.03991850278368872 0.0055864869002077286 0.028136841109657102 0.028998691852834348 0.026638208028000522 -0.0011883609913532441 0.044449004774886711 0.053118370139772657 0.047872634128046737 0.013320758805497627 0.040109498662560868 0.036486511076399185 0.021930175917313176
leaf_weight=11701.833174578846 1515.1486822217703 1657.6496830880642 7391.4432423710823 1852.4956980794668 1513.3775235265493 2749.5674241930246 425.06656119227409 2882.5327564477921 2028.383531242609 532.93384836614132 734.0507163181901 1641.32870914042 396.76890195906162 1295.3546405285597 90.880156576633453 5053.8013126701117 386.3745179027319 2353.1361233592033 597.08509273827076 2621.1901438832283 556.42277836054564 1451.1746147572994 1561.4084009081125 1441.520307764411 4019.4872173070908 1416.4488527476788 1693.3881285861135 1648.7973568290472 1495.0617179423571 2289.3639520853758
leaf_count=71378 4787 2889 21189 3080 3318 9116 1162 3065 2420 1905 2510 3012 815 1638 373 6141 717 2882 1580 5840 1701 2834 6421 1853 3562 1363 7381 2324 2370 4742
internal_value=0.0262238 0.0179402 0.0150297 0.0387623 0.00916576 0.0208032 0.0240367 0.0427797 0.0309711 0.0127266 0.0211399 0.0274554 0.0327258 0.0324499 0.00691677 0.0378001 0.00907773 0.0472504 0.0161111 0.0214175 0.0231252 0.020195 0.00314308 0.0380671 0.0497403 0.0402195 0.00612999 0.0366538 0.0296792 0.0270858
internal_weight=66993.5 40344.2 33606.7 26649.3 16676.3 16930.4 12086.5 17577.9 9071.41 4843.91 2633.8 7043.03 4076.7 6737.43 14042.5 8322.75 1120.43 9255.16 993.854 10012.6 647.303 2966.32 2094.34 3082.85 6902.02 6470.25 13395.2 2073.86 5442.08 3947.01
internal_count=184368 146974 135335 37394 87378 47957 30515 20093 17301 17442 6545 14881 7260 11639 80833 10584 3227 9509 2395 27029 2074 7621 8326 4865 6627 7504 78759 3486 10001 7631
is_linear=0
shrinkage=0.05


Tree=27
num_leaves=31
num_cat=0
split_feature=4 7 7 3 0 0 0 8 3 7 12 13 13 2 8 3 12 7 7 7 5 7 8 13 7 7 7 7 7 13
split_gain=2593.75 811.89 810.143 454.491 369.508 341.318 318.937 260.167 236.767 185.032 175.688 160.741 129.059 120.875 92.4906 88.8006 94.9983 78.0769 86.1633 76.5139 71.9453 71.5243 71.2444 56.1592 54.1233 50.7951 49.5845 48.168 43.5437 39.719
threshold=1.0000000180025095e-35 426.50000000000006 435.50000000000006 1.0000000180025095e-35 1.0000000180025095e-35 1.0000000180025095e-35 1.0000000180025095e-35 6.7500000000000009 1.0000000180025095e-35 1599.5000000000002 1.0000000180025095e-35 0.47910034970149062 0.96775402621270024 1.0000000180025095e-35 6.7500000000000009 1.0000000180025095e-35 1.0000000180025095e-35 161.50000000000003 131.50000000000003 1.0000000180025095e-35 1.0000000180025095e-35 970.50000000000011 5.2500000000000009 0.054485684869494892 557.50000000000011 979.50000000000011 195.50000000000003 209.50000000000003 373.50000000000006 0.96634202361843557
decision_type=2 2 2 2 2 2 2 2 2 2 2 2 2 2 2 2 2 2 2 2 2 2 2 2 2 2 2 2 2 2
left_child=2 5 4 6 7 8 9 11 17 10 -4 19 -13 23 20 16 28 18 -2 -1 -10 -8 -18 -3 -5 -15 29 -19 -6 -9
right_child=1 13 3 24 15 -7 21 26 14 -11 -12 12 -14 25 -16 -17 22 27 -20 -21 -22 -23 -24 -25 -26 -27 -28 -29 -30 -31
leaf_value=0.011424965763694398 0.011491060902779907 0.026455229877633848 0.0074370171992369219 0.023087936863597881 0.035280708663093359 0.041414553587367592 0.027087439666993812 0.021156131858031082 0.017865716546860044 0.034438404859965507 0.020759038723841907 0.019744346361452753 0.0054757753657268364 0.044411289929476856 0.046005620617036475 0.039120713815144467 0.0082009284272209753 0.029704760357509519 -0.017750040227949272 -1.1647601306934575e-05 0.030822528399682348 0.04577403529204023 0.026883537937699428 0.042219670881809557 0.045319880126805413 0.051886808772292882 0.030235010318046276 0.01423405860996612 -0.031432258791584337 -0.0036189184973933228
leaf_weight=1759.5365672409534 1008.1937837302685 900.7590373903513 3877.8784269094467 314.46978709101677 967.9804429858923 3924.9741345643997 829.98942416906357 597.05913907289505 1454.0796930193901 1553.84845893085 6881.3243968933821 2926.3123069256544 3471.9103531315923 3883.2116172462702 776.4361709356308 832.16185192763805 1421.682020097971 761.23376713693142 334.33933553099632 8612.2992279604077 4251.0798098146915 1402.5375005155802 801.46815821528435 1606.407692104578 2642.8606180846691 6006.9786682575941 1330.5187992751598 1528.8166158795357 23.962475091218948 219.18834586441517
leaf_count=8542 3071 1712 22045 568 1691 4531 1410 1869 2991 3222 16015 9435 14668 3966 865 1182 3642 1982 1280 52065 6014 1634 1555 1955 3103 5038 3348 3989 69 911
internal_value=0.0249503 0.0371313 0.0169912 0.0250957 0.0108122 0.0288887 0.0214565 0.00787579 0.0240217 0.0182973 0.0159609 0.00577504 0.0120077 0.0464604 0.0297523 0.0245256 0.0207292 0.0137844 0.00418257 0.00192703 0.0275283 0.0388533 0.0149565 0.0365787 0.0429729 0.048959 0.0242644 0.0193983 0.0336139 0.0144764
internal_weight=66903.5 26436.5 40467 17502.9 22964.1 14039.2 14545.6 18916.8 10114.2 12313.1 10759.2 16770.1 6398.22 12397.4 6481.6 4047.25 3215.09 3632.58 1342.53 10371.8 5705.16 2232.53 2223.15 2507.17 2957.33 9890.19 2146.77 2290.05 991.943 816.247
internal_count=184368 37394 146974 47997 98977 24723 44326 90838 20192 41282 38060 84710 24103 12671 9870 8139 6957 10322 4351 60607 9005 3044 5197 3667 3671 9004 6128 5971 1760 2780
is_linear=0
shrinkage=0.05


Tree=28
num_leaves=31
num_cat=0
split_feature=4 7 7 3 0 0 0 5 7 8 12 7 7 7 7 2 7 7 12 7 8 7 7 7 7 1 12 7 12 11
split_gain=2420.54 781.048 745.912 414.615 318.351 306.54 296.757 247.639 179.422 159.816 155.07 130.263 221.943 125.709 109.789 98.8227 97.1964 75.9312 89.678 103.169 71.2225 70.6538 59.9221 164.949 96.7361 53.0776 49.9053 37.0074 35.7923 34.8827
threshold=1.0000000180025095e-35 548.50000000000011 295.50000000000006 1.0000000180025095e-35 1.0000000180025095e-35 1.0000000180025095e-35 1.0000000180025095e-35 1.0000000180025095e-35 1599.5000000000002 6.7500000000000009 1.0000000180025095e-35 1.0000000180025095e-35 129.50000000000003 557.50000000000011 284.50000000000006 1.0000000180025095e-35 970.50000000000011 65.500000000000014 1.0000000180025095e-35 199.50000000000003 6.7500000000000009 300.50000000000006 197.50000000000003 209.50000000000003 65.500000000000014 1.0000000180025095e-35 3.5000000000000004 1599.5000000000002 1.0000000180025095e-35 0.23297879526172516
decision_type=2 2 2 2 2 2 2 2 2 2 2 2 2 2 2 2 2 2 2 2 2 2 2 2 2 2 2 2 2 2
