tree
version=v4
num_class=1
num_tree_per_iteration=1
label_index=0
max_feature_idx=63
objective=regression
feature_names=release_msrp weekday avg_act_days avg_days_ins first_request_ts last_buy last_ins weekend_ratio weeks_since_first_seen wifi_ratio days_active_ratio is_weekend_user is_wifi_user user_age_days is_new_user is_veteran_user has_previous_purchase days_since_last_buy recent_buyer iap_revenue_usd_bundle_count iap_revenue_usd_bundle_sum iap_revenue_usd_bundle_max iap_revenue_usd_bundle_min iap_revenue_usd_bundle_mean iap_revenue_usd_bundle_std num_buys_bundle_count num_buys_bundle_sum num_buys_bundle_max num_buys_bundle_min num_buys_bundle_mean num_buys_bundle_std whale_users_bundle_total_revenue_count whale_users_bundle_total_revenue_sum whale_users_bundle_total_revenue_max whale_users_bundle_total_revenue_min whale_users_bundle_total_revenue_mean whale_users_bundle_total_revenue_std user_bundles_count user_bundles_sum user_bundles_max user_bundles_min user_bundles_mean user_bundles_std country_hist_count country_hist_sum country_hist_max country_hist_min country_hist_mean country_hist_std advertiser_actions_action_count_count advertiser_actions_action_count_sum advertiser_actions_action_count_max advertiser_actions_action_count_min advertiser_actions_action_count_mean advertiser_actions_action_count_std user_actions_bundles_action_count_count user_actions_bundles_action_count_sum user_actions_bundles_action_count_max user_actions_bundles_action_count_min user_actions_bundles_action_count_mean user_actions_bundles_action_count_std user_age_bin avg_revenue_per_purchase whale_revenue_per_bundle
feature_infos=[35:5160] none [1:7] [0:28] [1758499200:1759622400] [1757209964:1759708779] [1757203407:1759708749] [0:1] [0:6] [0:1] [0.023809523809467117:70000000000] [0:1] [0:1] [0:42] [0:1] none [0:1] [1757209964:1759708779] none [0:20] none none none none none [0:20] none none none none none [0:20] none none none none none [0:1] none none none none none [0:20] none none none none none [0:12] none none none none none [0:20] none none none none none [-1:1] none none
tree_sizes=2722 2770 2819 2778 2794 2773 2775 2775 2766 2740 2799 2790 2763 2767 2760 2785 2754 2799 2775 2767 2787 2742 2778 2776 2772 2791 2779 2768 2784 2789 2733 2744 2750 2785 2755 2770 2779 2770 2807 2729 2734 2770 2759 2776 2759 2785 2780 2740 2773 2789 2754 2715 2769 2770 2708 2842 2834 2795 2752 2790 2769 2763 2767 2771 2764 2784 2784 2793 2796 2771 2739 2759 2760 2765 2754 2785 2786 2780 2787 2749 2729 2739 2717 2741 2771 2786 2785 2769 2782 2742 2777 2784 2780 2752 2778 2740 2766 2737 2727 2718 2756 2747 2748 2781 2795 2734 2746 2772 2783 2760 2738 2742 2787 2798 2752 2772 2746 2755 2747 2780 2749 2753 2756 2776 2761 2762 2750 2774 2754 2797 2802 2779 2759 2755 2771 2788 2727 2753 2729 2765 2760 2768 2751 2811 2782 2753 2688 2747 2728 2727 2742 2740 2763 2753 2725 2727 2755 2775 2755 2720 2740 2741 2769 2730 2766 2762 2776 2772 2745 2771 2762 2795 2779 2775 2789 2715 2767 2741 2748 2783 2694 2765 2756 2718 2771 2738 2717 2749 2755 2761 2785 2733 2754 2730 2725 2728 2723 2709 2731 2727 2748 2709 2781 2731 2725 2772 2716 2744 2755 2770 2747 2732 2751 2752 2742 2747 2754 2758 2747 2721 2775 2771 2709 2749 2759 2725 2732 2745 2749 2746 2771 2772 2734 2741 2735 2748 2761 2751 2746 2743 2712 2732 2754 2748 2719 2762 2748 2740 2750 2751

Tree=0
num_leaves=31
num_cat=0
split_feature=49 5 9 9 10 2 7 8 55 9 4 4 4 10 5 37 4 9 9 49 8 55 4 10 31 4 7 4 19 19
split_gain=1.47671e+07 9.16274e+06 6.87904e+06 1.80193e+07 2.05913e+06 4.20761e+06 1.41647e+06 6.13928e+06 1.11542e+07 2.0957e+07 3.27036e+07 743981 1.20556e+06 615035 546867 1.57505e+06 329546 302480 1.34948e+06 405683 261365 1.38559e+06 2.2959e+06 236100 196987 364547 188096 149921 125681 119003
threshold=2.5000000000000004 1758679168.5000002 0.45303378697539287 0.091134407760913791 0.1107142857139949 2.2500000000000004 0.0098159656983186402 1.0000000180025095e-35 1.0000000180025095e-35 0.37391049701488782 1759406400.0000002 1759320000.0000002 1759233600.0000002 0.032142857142752564 1759048025.0000002 1.0000000180025095e-35 1759406400.0000002 0.23952113335674982 0.19827506087473748 1.5000000000000002 2.5000000000000004 2.5000000000000004 1758801600.0000002 0.16904761904717577 2.5000000000000004 1759406400.0000002 0.31737481973851345 1758801600.0000002 2.5000000000000004 6.5000000000000009
decision_type=2 10 8 10 8 10 10 8 2 10 10 10 10 8 10 2 8 10 10 2 10 2 8 8 2 10 10 10 2 2
left_child=6 13 3 16 5 -4 7 8 9 10 -1 12 -11 -2 27 -16 -3 18 19 24 21 -9 -23 26 -17 -26 -6 -8 -22 -19
right_child=1 2 4 -5 23 -7 14 20 -10 11 -12 -13 -14 -15 15 17 -18 29 -20 -21 28 22 -24 -25 25 -27 -28 -29 -30 -31
leaf_value=76.176958709168574 37.116051369337512 37.972714436449529 34.731447649386297 63.804594180875327 32.713429051147052 49.350795512158619 32.040614365289336 32.302278215755699 32.065978136943862 32.000918992892323 31.656918834118795 31.913022307599839 41.325039012704174 32.331046814411536 38.48339471890074 31.856213584333599 32.758548129216251 32.094770387543619 40.392319513856428 36.76826000548941 31.958074676487904 44.573681777145794 31.814371163562356 37.684781859413206 37.13272297455412 32.105600302345863 36.01500465633017 31.875881812135699 34.289173326201087 33.344148440942583
leaf_weight=33 28 24 37 38 41 34 8584 9648 270 24 27 61 26 177 39 188 20 1142 22 20 2372 22 30 20 20 37 25 11817 21 73
leaf_count=33 28 24 37 38 41 34 8584 9648 270 24 27 61 26 177 39 188 20 1142 22 20 2372 22 30 20 20 37 25 11817 21 73
internal_value=32.2017 37.6379 41.6293 48.6718 37.951 41.7323 32.1317 32.3861 35.8629 41.8582 56.1429 34.1366 36.8495 32.9846 31.9864 32.5313 35.6026 32.3767 33.2527 32.66 32.2593 32.3286 37.2125 34.8293 32.3246 33.8695 33.964 31.9452 31.9785 32.1698
internal_weight=34920 444 239 82 157 71 34476 12534 441 171 60 111 50 205 21942 1541 44 1502 287 265 12093 9700 52 86 245 57 66 20401 2393 1215
internal_count=34920 444 239 82 157 71 34476 12534 441 171 60 111 50 205 21942 1541 44 1502 287 265 12093 9700 52 86 245 57 66 20401 2393 1215
is_linear=0
shrinkage=1


Tree=1
num_leaves=31
num_cat=0
split_feature=49 0 5 0 8 0 0 5 3 0 0 8 0 4 4 10 4 5 37 10 9 0 8 6 4 0 0 9 0 0
split_gain=1.38944e+07 9.39883e+06 8.32059e+06 5.22064e+06 5.2523e+06 4.47946e+06 1.22501e+07 3.15598e+06 3.29095e+06 7.20955e+06 2.46495e+06 2.58712e+06 1.10421e+07 4.66545e+07 854958 450176 437755 418837 1.37271e+06 2.89244e+06 766320 385316 354550 3.96181e+06 350472 284984 236381 511673 359001 931272
threshold=2.5000000000000004 60.500000000000007 1759692674.0000002 1909.5000000000002 1.0000000180025095e-35 2213.5000000000005 1999.5000000000002 1759246738.5000002 1.0930735930735933 639.50000000000011 411.00000000000006 1.0000000180025095e-35 1574.0000000000002 1759406400.0000002 1759320000.0000002 0.032142857142752564 1758801600.0000002 1758921707.0000002 1.0000000180025095e-35 0.045238095237920641 0.11026492594289206 305.50000000000006 1.5000000000000002 1758482211.0000002 1759320000.0000002 212.50000000000003 510.50000000000006 inf 477.00000000000006 493.50000000000006
decision_type=2 10 10 10 10 10 10 10 8 10 10 8 10 10 10 8 10 10 2 10 10 10 8 8 8 8 10 8 10 10
left_child=3 -2 7 10 5 6 14 15 24 21 25 12 -12 -14 -5 -3 17 22 19 -19 -20 -10 23 -13 -9 -1 27 -24 -29 -30
right_child=1 2 -4 4 -6 -7 -8 8 9 -11 11 16 13 -15 -16 -17 -18 18 20 -21 -22 -23 26 -25 -26 -27 -28 28 29 -31
leaf_value=-0.55494420587151372 23.51230682082474 4.5114924948790973 22.615166816370827 6.0334243332255966 -0.093705652578580143 0.8218860611238995 24.658746324777603 4.9003245417594901 0.77707411319017405 20.718600133856139 -0.07280983195641702 14.039307330429555 37.365329649196219 -0.18316987747237795 -0.38944078582983754 0.51927731769756202 -0.16308853206446933 -0.060497015118598937 4.4923386222124098 14.268188845770698 -0.17039563118909182 6.0825536466186696 -0.093121144975454997 0.13965889782835747 0.59121554938760001 -0.29646373571289431 0.045026439312541876 0.77213484691707324 7.3004025382995605 1.1797386187450452
leaf_weight=6389 24 29 21 66 206 74 37 25 28 36 599 20 39 126 26 206 6304 32 36 21 267 22 497 239 53 9618 9473 289 30 88
leaf_count=6389 24 29 21 66 206 74 37 25 28 36 599 20 39 126 26 206 6304 32 36 21 267 22 497 239 53 9618 9473 289 30 88
internal_value=-0.0202144 5.25294 4.20955 -0.0881248 3.2811 6.70578 10.081 3.24083 6.43467 10.4819 -0.128575 0.11167 1.8201 8.69193 4.21827 1.01193 0.0362054 0.150502 1.16271 5.61691 0.383593 3.11149 0.116622 1.21299 1.97234 -0.399633 0.089258 0.55276 1.34146 2.73584
internal_weight=34920 444 420 34476 409 203 129 399 164 86 34067 18060 764 165 92 235 17296 10992 356 53 303 50 10636 259 78 16007 10377 904 407 118
internal_count=34920 444 420 34476 409 203 129 399 164 86 34067 18060 764 165 92 235 17296 10992 356 53 303 50 10636 259 78 16007 10377 904 407 118
is_linear=0
shrinkage=0.03


Tree=2
num_leaves=31
num_cat=0
split_feature=0 8 0 0 5 5 0 0 8 0 7 10 5 0 0 6 37 2 7 12 5 7 6 6 4 25 4 8 6 0
split_gain=4.81331e+06 4.84463e+06 4.21472e+06 1.15261e+07 3.90471e+06 4.03977e+06 9.22271e+06 2.26602e+06 2.69916e+06 1.13906e+07 5.02667e+07 2.13375e+06 3.92062e+06 1.25037e+06 1.26636e+06 3.43813e+06 2.28332e+06 1.0702e+06 811080 372585 460598 881166 1.23832e+06 1.73222e+06 520092 831416 366590 355581 3.70166e+06 265191
threshold=1909.5000000000002 1.0000000180025095e-35 2213.5000000000005 1999.5000000000002 1758648455.5000002 1758720899.0000002 295.50000000000006 411.00000000000006 1.0000000180025095e-35 1574.0000000000002 0.0098159656983186402 0.11904761904719389 1759697635.5000002 1124.5000000000002 1159.0000000000002 1757309377.0000002 1.0000000180025095e-35 4.2500000000000009 0.0098159656983186402 1.0000000180025095e-35 1759365243.0000002 0.1956073234058778 1759038616.5000002 1758651006.5000002 1758801600.0000002 1.5000000000000002 1758801600.0000002 1.5000000000000002 1758482211.0000002 195.50000000000003
decision_type=10 10 10 10 10 10 10 10 8 10 10 8 10 8 10 10 2 10 10 2 10 8 10 8 10 2 10 8 8 8
left_child=4 2 3 18 7 6 -6 29 9 -9 -11 12 13 -7 15 -15 -16 -18 -2 20 -13 22 23 -22 25 -23 27 28 -10 -1
right_child=1 -3 -4 -5 5 11 -8 8 26 10 -12 19 -14 14 16 -17 17 -19 -20 -21 21 24 -24 -25 -26 -27 -28 -29 -30 -31
leaf_value=-0.59013927319432369 5.859684320959178 0.0052758779927555999 0.79722945889911134 23.918984911337091 25.445073721826073 0.64367467319909766 -0.092683880261012486 -0.066410315842301421 13.618127017021179 40.732883532796585 -0.24562325881077696 -0.19085778536895909 12.045601916114489 14.612476774248584 11.404414047327908 -0.1256351078408105 0.2837515468411631 7.5031898694378985 -0.39619376586033744 -0.0348488680041956 0.6757481421394782 0.62571114208963174 0.56546051866867963 11.682724952044024 -0.090975762032112981 7.1553915854600758 -0.17945993044437822 0.094722921442626715 0.18258575730243987 -0.320905553567229
leaf_weight=4758 66 210 74 37 20 335 35 562 20 35 117 216 36 29 22 28 154 21 26 905 22 54 51 31 212 26 5504 10384 239 10691
leaf_count=4758 66 210 74 37 20 335 35 562 20 35 117 216 36 29 22 28 154 21 26 905 22 54 51 31 212 26 5504 10384 239 10691
internal_value=-0.019608 3.19986 6.50461 9.77861 -0.0581405 1.16567 9.19377 -0.141357 0.0991309 1.90419 9.19022 0.959536 2.43469 1.84726 3.43467 7.3727 2.29524 1.15008 4.09172 0.351778 0.923506 1.53134 3.90259 7.11379 0.686787 2.74786 0.0193136 0.122109 1.22008 -0.403824
internal_weight=34920 413 203 129 34507 2197 55 32310 16861 714 152 2142 625 589 254 57 197 175 92 1517 612 396 104 53 292 80 16147 10643 259 15449
internal_count=34920 413 203 129 34507 2197 55 32310 16861 714 152 2142 625 589 254 57 197 175 92 1517 612 396 104 53 292 80 16147 10643 259 15449
is_linear=0
shrinkage=0.03


Tree=3
num_leaves=31
num_cat=0
split_feature=49 5 3 7 7 5 7 8 9 4 4 9 10 6 10 5 37 4 4 6 4 9 9 49 7 25 4 6 25 25
split_gain=1.28989e+07 8.19085e+06 8.22212e+06 1.16284e+07 2.10485e+07 1.7398e+06 1.24136e+06 5.28352e+06 7.36449e+06 1.23182e+07 5.79004e+07 742192 546839 545226 3.55521e+06 455722 1.37176e+06 342930 477597 696765 277327 271130 1.26848e+06 369361 203239 185560 129381 182598 110711 173493
threshold=2.5000000000000004 1758679168.5000002 0.9110671936758894 0.2521645427286357 0.1666736565453224 1759514190.0000002 0.0098159656983186402 1.0000000180025095e-35 0.37391049701488782 1759320000.0000002 1759406400.0000002 0.31655506621127694 0.032142857142752564 1757876662.0000002 0.09226190476151859 1759048025.0000002 1.0000000180025095e-35 1759320000.0000002 1759233600.0000002 1757551853.0000002 1759147200.0000002 0.23952113335674982 0.19827506087473748 1.5000000000000002 0.0055103109606612381 4.5000000000000009 1758801600.0000002 1759697272.0000002 6.5000000000000009 8.5000000000000018
decision_type=2 10 8 10 10 10 10 8 10 10 10 10 8 8 10 10 2 10 10 10 8 10 10 2 8 2 10 10 2 2
left_child=6 12 20 4 5 -4 7 8 9 -1 -11 -5 -2 14 -9 26 -17 18 -10 -20 -3 22 23 25 -15 -18 27 -8 -23 -30
right_child=1 2 3 11 -6 -7 15 13 17 10 -12 -13 -14 24 -16 16 21 -19 19 -21 -22 28 -24 -25 -26 -27 -28 -29 29 -31
leaf_value=-1.1175545074308619 4.5577611366340092 4.6251568497930249 13.849485024855687 8.8882933875105579 40.309184809038719 2.3866199313510545 -0.17612878323509132 -0.38803033588351782 -0.20367451601906825 51.655217400618966 -0.19296125253041585 2.2554578864726484 0.04583087418196817 -0.22049448561239485 13.581440993070601 5.8316670892788807 -0.19836967586262805 -0.39367068053356236 6.1184847284007713 -0.83153194713592526 0.68105304860236016 -0.13557992998918358 7.8840830423615182 4.3074334001541139 0.081072299536619957 2.6324088353696076 -0.32247499958450615 2.6937342746257782 2.5521758218606312 -0.37313332470687655
leaf_weight=68 28 21 26 22 31 22 8564 91 57 28 63 49 177 2557 20 39 222 168 37 20 68 1142 22 20 9425 23 11817 20 36 37
leaf_count=68 28 21 26 22 31 22 8564 91 57 28 63 49 177 2557 20 39 222 168 37 20 68 1142 22 20 9425 23 11817 20 36 37
internal_value=-0.0190197 5.06173 8.83547 13.1216 21.0402 8.59567 -0.0844522 0.153728 3.37915 8.54211 15.7603 4.3107 0.662095 0.0361052 2.12899 -0.220509 0.276951 0.468111 1.7381 3.67988 1.61168 0.13272 0.962041 0.387381 0.0167169 0.0673769 -0.258084 -0.169442 -0.0631769 1.06948
internal_weight=34920 444 239 150 79 48 34476 12534 441 159 91 71 205 12093 111 21942 1541 282 114 57 89 1502 287 265 11982 245 20401 8584 1215 73
internal_count=34920 444 239 150 79 48 34476 12534 441 159 91 71 205 12093 111 21942 1541 282 114 57 89 1502 287 265 11982 245 20401 8584 1215 73
is_linear=0
shrinkage=0.03


Tree=4
num_leaves=31
num_cat=0
split_feature=49 0 17 0 13 0 0 17 6 0 9 0 10 7 0 7 10 9 13 49 6 6 2 0 13 0 0 0 17 17
split_gain=1.21366e+07 8.65665e+06 7.578e+06 4.61382e+06 4.63084e+06 3.98632e+06 1.0846e+07 2.71814e+06 2.3742e+06 4.34614e+06 5.722e+06 2.18638e+06 2.2356e+06 1.00934e+07 4.59272e+07 759789 406962 386237 330630 1.03659e+06 499857 1.76794e+06 4.33706e+06 308453 370860 349462 862854 250647 237294 922426
threshold=2.5000000000000004 60.500000000000007 1759692674.0000002 1909.5000000000002 1.0000000180025095e-35 2213.5000000000005 1999.5000000000002 1759246738.5000002 1759664235.5000002 639.50000000000011 0.87501135331516811 411.00000000000006 5000000000.500001 1.0000000180025095e-35 1574.0000000000002 0.0098159656983186402 0.032142857142752564 0.40810636726541333 38.500000000000007 1.5000000000000002 1758067357.0000002 1757864173.0000002 2.2500000000000004 510.50000000000006 1.0000000180025095e-35 477.00000000000006 493.50000000000006 212.50000000000003 1758921707.0000002 1759084413.5000002
decision_type=2 10 10 10 10 10 10 10 10 10 8 10 10 10 10 10 8 10 10 2 8 10 8 10 10 10 10 8 10 10
left_child=3 -2 7 11 5 6 15 16 9 17 -11 27 18 14 -14 -5 -3 -9 19 20 21 -13 -23 24 25 -22 -27 -1 -25 -30
right_child=1 2 -4 4 -6 -7 -8 8 -10 10 -12 12 13 -15 -16 -17 -18 -19 -20 -21 23 22 -24 28 -26 26 -28 -29 29 -31
leaf_value=-0.52088202879506851 22.433487419486045 4.2428816196836276 21.473625602722166 5.6797797020998866 -0.083417693292631684 0.75056480120968172 23.202071460582115 5.9495233769416807 1.5496368650685657 24.493154642184574 3.6134571129935127 -0.11639227077613273 -0.064756829401621446 -0.12230887499591178 38.225401061375933 -0.37506500354179967 0.44711533225584521 0.56735018873214715 -0.087049041258655299 6.5356028434504632 0.74118465466608463 14.951435448593562 -0.25744428173700967 0.029081363159887613 -0.1632304197336098 7.0761167106628413 1.1671854148008103 -0.2784730019098054 7.184221620440483 0.40391764987860956
leaf_weight=6389 24 29 21 66 206 74 37 20 66 27 21 180 130 598 36 26 206 30 9188 23 284 27 45 6976 251 30 86 9618 20 186
leaf_count=6389 24 29 21 66 206 74 37 20 66 27 21 180 130 598 36 26 206 30 9188 23 284 27 45 6976 251 30 86 9618 20 186
internal_value=-0.0184491 4.90987 3.90852 -0.0819187 3.08545 6.30114 9.4852 2.98405 5.94808 8.91029 15.3583 -0.119945 0.106317 1.69444 8.23913 3.96863 0.915529 2.72022 0.0361666 0.175795 0.157703 1.47283 5.44589 0.115393 0.740687 1.30789 2.69536 -0.375228 0.0587141 1.0622
internal_weight=34920 444 420 34476 409 203 129 399 164 98 48 34067 18060 764 166 92 235 50 17296 8108 8085 252 72 7833 651 400 116 16007 7182 206
internal_count=34920 444 420 34476 409 203 129 399 164 98 48 34067 18060 764 166 92 235 50 17296 8108 8085 252 72 7833 651 400 116 16007 7182 206
is_linear=0
shrinkage=0.03


Tree=5
num_leaves=31
num_cat=0
split_feature=5 4 7 8 55 9 4 5 37 2 5 7 9 10 5 5 7 9 7 7 4 5 5 4 4 4 8 55 5 4
split_gain=3.84678e+06 9.17234e+06 1.20344e+06 3.80773e+06 9.67135e+06 2.02866e+07 3.19075e+07 1.38555e+06 1.45635e+06 2.60577e+06 703966 1.29294e+06 631340 1.12839e+06 654049 841860 399071 988136 906909 1.64232e+06 841512 390398 779142 388915 601588 369497 351474 3.18638e+06 213051 682075
threshold=1759697635.5000002 1.0000000180025095e-35 0.013728772805353893 1.0000000180025095e-35 1.0000000180025095e-35 0.37391049701488782 1759406400.0000002 1758767153.5000002 1.0000000180025095e-35 2.2500000000000004 1759704227.5000002 0.28198101915184687 0.67844180942888233 0.050595238095085752 1759257037.5000002 1759510427.5000002 0.23943616525036279 0.36403089799104876 0.14647338436265775 0.1820248687173999 1759233600.0000002 1759415570.0000002 1759500794.0000002 1759320000.0000002 1759233600.0000002 1.0000000180025095e-35 1.5000000000000002 2.5000000000000004 1759606431.5000002 1759320000.0000002
decision_type=10 10 10 8 2 10 10 10 2 8 10 10 10 10 10 10 10 10 10 10 10 10 10 10 10 10 10 2 10 8
left_child=2 -2 3 4 5 6 -1 25 9 -9 -3 -12 13 14 -10 -16 17 -15 -19 -20 -21 26 -23 24 -7 -4 27 -5 -18 -30
right_child=1 10 7 21 -6 23 -8 8 12 -11 11 -13 -14 16 15 -17 28 18 19 20 -22 22 -24 -25 -26 -27 -28 -29 29 -31
leaf_value=43.061814353317018 22.739415933218869 -0.58456192896014347 0.018124716164969829 0.16980495692623548 -0.49656717024198394 -0.44772429078817366 -0.79015173196792599 11.533924830794334 0.3002707071751356 -0.68243312705646864 9.3961634969711287 0.45552623760861316 0.02637531895561945 -0.043183329066504607 11.458426157578824 3.3996746609892163 -0.27936840182211664 0.011684967599264004 12.712264092309134 7.5143104294072023 0.24387239794982107 6.8639487523617957 0.43928564838491951 -0.45530044396407898 6.0250132359777169 -0.2817555780367777 -0.19511938313185398 11.11463288157247 5.7604517507553101 0.061749703850639
leaf_weight=32 22 61 4871 9561 287 24 28 30 20 33 24 37 1053 138 20 28 270 41 21 23 38 23 65 64 28 15355 2616 24 24 89
leaf_count=32 22 61 4871 9561 287 24 28 30 20 33 24 37 1053 138 20 28 270 41 21 23 38 23 65 64 28 15355 2616 24 24 89
internal_value=0.0163327 4.90952 -0.00391145 0.228074 2.89882 8.43562 22.5976 -0.13805 0.652914 5.13488 1.6943 3.97315 0.492934 1.18294 4.85831 6.75749 0.794861 1.69952 3.65474 5.47627 2.98519 0.127451 2.11846 1.11048 3.0376 -0.209536 0.113091 0.19721 0.178374 1.27209
internal_weight=34950 144 34806 12752 463 176 60 22054 1828 63 122 61 1765 712 68 48 644 261 123 82 61 12289 88 116 52 20226 12201 9585 383 113
internal_count=34950 144 34806 12752 463 176 60 22054 1828 63 122 61 1765 712 68 48 644 261 123 82 61 12289 88 116 52 20226 12201 9585 383 113
is_linear=0
shrinkage=0.03


Tree=6
num_leaves=31
num_cat=0
split_feature=0 8 7 12 5 8 0 0 0 5 5 0 0 5 37 5 10 0 8 6 6 7 55 7 0 0 5 10 19 5
split_gain=7.78989e+06 7.7545e+06 3.69824e+07 5.90656e+07 5.20088e+06 3.59132e+06 4.29639e+06 9.76827e+06 1.86178e+06 1.37175e+06 1.8121e+06 2.04437e+06 1.00461e+06 870214 3.68683e+06 859546 5.27664e+06 710262 2.17181e+06 461984 361586 626628 310195 689972 1.31902e+06 287558 544295 276505 218861 423615
threshold=1574.0000000000002 1.0000000180025095e-35 0.0098159656983186402 1.0000000180025095e-35 1759699660.5000002 1.0000000180025095e-35 1999.5000000000002 2213.5000000000005 1599.5000000000002 1759405437.5000002 1759419068.5000002 847.00000000000011 263.50000000000006 1758767153.5000002 1.0000000180025095e-35 1759697635.5000002 0.084523809523587887 268.50000000000006 inf 1757906969.0000002 1759659159.0000002 0.23943616525036279 1.5000000000000002 0.18119142097253635 979.50000000000011 425.50000000000006 1759257037.5000002 0.16904761904717577 6.5000000000000009 1759631490.0000002
decision_type=10 8 10 2 10 10 10 10 10 10 10 10 8 10 2 10 8 8 8 8 10 10 2 10 8 10 10 10 2 10
left_child=9 2 3 -2 5 6 8 -8 -3 12 11 -11 -1 -7 -15 22 -17 18 -14 -16 27 -22 23 24 -12 26 -19 -21 -24 -30
right_child=1 4 -4 -5 -6 13 7 -9 -10 10 15 -13 17 14 19 16 -18 25 -20 20 21 -23 28 -25 -26 -27 -28 -29 29 -31
leaf_value=-0.4729176260913559 69.215956066131582 2.8806459037035275 -0.13879083384420063 3.4955246445536612 15.780808011463712 0.16588928187098709 21.300352141436406 0.84512796488675201 0.18198517244119122 13.926323688268662 -0.11187779091871702 0.36191848182678221 -0.54283970948812121 12.599982504569567 5.198774876594543 17.098656513690948 0.17508894750137918 -0.26806411994770474 8.6170257113961597 -0.21887567065083063 6.4575350540876384 -0.14853791585990359 0.0037488460683718669 0.04780619548348819 9.750803254583607 -0.015784252320957308 3.59357880635695 2.509559471974006 -0.72693164646625519 4.9096589326858515
leaf_weight=8508 20 557 170 32 21 2973 34 55 392 20 26 20 74 26 21 20 97 7218 34 234 24 28 774 85 23 13344 33 39 24 24
leaf_count=8508 20 557 170 32 21 2973 34 55 392 20 26 20 74 26 21 20 97 7218 34 234 24 28 774 85 23 13344 33 39 24 24
internal_value=0.0158428 1.16255 6.63325 28.7726 0.886782 0.815421 2.35699 8.65948 1.76592 -0.159091 0.874602 7.14412 -0.198477 0.337052 1.70498 0.640883 3.06801 -0.0856936 2.34082 0.886277 0.607624 2.90042 0.343839 1.68226 4.51754 -0.0984182 -0.250489 0.170901 0.125653 2.09136
internal_weight=34950 4626 222 52 4404 4383 1038 89 949 30324 1113 40 29211 3345 372 1073 117 20703 108 346 325 52 956 134 49 20595 7251 273 822 48
internal_count=34950 4626 222 52 4404 4383 1038 89 949 30324 1113 40 29211 3345 372 1073 117 20703 108 346 325 52 956 134 49 20595 7251 273 822 48
is_linear=0
shrinkage=0.03


Tree=7
num_leaves=31
num_cat=0
split_feature=0 8 7 9 5 8 0 0 0 5 5 0 0 9 9 5 6 55 0 8 7 7 2 9 9 10 5 4 0 8
split_gain=7.32951e+06 7.29621e+06 3.47967e+07 5.55749e+07 4.89351e+06 3.37907e+06 4.04247e+06 9.19096e+06 1.75175e+06 1.29068e+06 1.705e+06 1.92355e+06 945235 823405 6.11067e+06 818784 3.06007e+06 699902 668286 2.04346e+06 643964 1.27685e+06 513405 348200 811424 339099 560005 272596 267793 365047
threshold=1574.0000000000002 1.0000000180025095e-35 0.0098159656983186402 0.74857068182560693 1759699660.5000002 1.0000000180025095e-35 1999.5000000000002 2213.5000000000005 1599.5000000000002 1759405437.5000002 1759419068.5000002 847.00000000000011 263.50000000000006 0.11613616863313449 0.066952418926103152 1758767153.5000002 1758067357.0000002 1.5000000000000002 268.50000000000006 inf 0.25770348066216198 0.16645078433327123 1.2500000000000002 0.61630618192974385 0.51567413522012584 0.11666666666621997 1759601867.5000002 1759233600.0000002 333.50000000000006 1.5000000000000002
decision_type=10 8 10 10 10 10 10 10 10 10 10 10 8 8 10 10 8 2 8 8 10 10 8 10 10 8 10 10 10 8
left_child=9 2 3 -2 5 6 8 -8 -3 12 11 -11 -1 14 25 -7 -17 20 19 -14 21 -15 -18 24 -24 26 -12 28 -20 -30
right_child=1 4 -4 -5 -6 15 7 -9 -10 10 13 -13 18 17 -16 16 22 -19 27 -21 -22 -23 23 -25 -26 -27 -28 -29 29 -31
leaf_value=-0.4587300973412895 67.139479087829599 2.794226651399311 -0.13462711823249562 3.3906588537991045 15.307383098602294 0.16091260766887736 20.661340851503258 0.81977412544597272 0.17652562690509138 13.508533664703368 -0.25573424875736234 0.35106099414825437 -0.52655452038790729 1.5182992283018624 17.68458766392299 11.190917718836239 4.5602273068889492 -0.071018558627710879 -0.23967225803353678 8.3585148045595954 0.094343037945883612 10.764187514305114 0.55385936719399909 -0.18794917137282233 7.0508150979605588 -0.6299012512820108 5.7669761967658992 -0.25126314090873503 1.0415226132517512 0.02714269139190225
leaf_weight=8508 20 557 170 32 21 2973 34 55 392 20 33 20 74 41 21 28 31 780 3644 34 56 20 81 210 22 98 24 6780 330 9841
leaf_count=8508 20 557 170 32 21 2973 34 55 392 20 33 20 74 41 21 28 31 780 3644 34 56 20 81 210 22 98 24 6780 330 9841
internal_value=0.0153675 1.12768 6.43425 27.9094 0.860179 0.790959 2.28628 8.3997 1.71294 -0.154318 0.848364 6.9298 -0.192522 0.621656 2.49781 0.326941 1.65383 0.253537 -0.0831228 2.2706 2.41724 4.54974 0.877553 0.512815 1.94156 0.440244 2.28014 -0.0954657 -0.0190049 0.0600544
internal_weight=34950 4626 222 52 4404 4383 1038 89 949 30324 1113 40 29211 1073 176 3345 372 897 20703 108 117 61 344 313 103 155 57 20595 13815 10171
internal_count=34950 4626 222 52 4404 4383 1038 89 949 30324 1113 40 29211 1073 176 3345 372 897 20703 108 117 61 344 313 103 155 57 20595 13815 10171
is_linear=0
shrinkage=0.03


Tree=8
num_leaves=31
num_cat=0
split_feature=49 17 0 8 4 55 0 0 0 17 3 0 0 0 0 8 2 9 4 17 10 17 19 17 17 9 9 55 4 8
split_gain=9.37377e+06 1.68072e+07 5.77433e+06 7.53972e+06 3.62509e+07 8.88875e+07 3.14549e+06 6.80163e+06 2.53136e+06 1.81379e+06 2.2176e+06 3.52183e+06 1.70259e+06 961034 604181 1.95102e+06 554856 488859 477974 818729 459702 297796 259638 250564 442730 247920 968293 1.7895e+06 219930 249861
threshold=2.5000000000000004 1759696910.0000002 1574.0000000000002 1.0000000180025095e-35 1759406400.0000002 1.0000000180025095e-35 1999.5000000000002 2213.5000000000005 1610.0000000000002 1759291409.0000002 1.1180555555555558 700.50000000000011 1599.5000000000002 263.50000000000006 268.50000000000006 inf 1.0000000180025095e-35 0.40810636726541333 1.0000000180025095e-35 1759472079.5000002 0.032142857142752564 1759695610.0000002 1.5000000000000002 1758897415.5000002 1758600076.0000002 0.80837834654692908 0.74003389710815315 1.5000000000000002 1758801600.0000002 1.5000000000000002
decision_type=2 10 10 10 8 2 10 10 10 10 8 8 10 8 8 8 10 10 10 10 8 10 2 8 10 8 10 2 10 8
left_child=2 8 13 4 5 -4 12 -8 9 20 -11 17 16 -1 15 -15 -6 -12 19 22 -2 -20 25 24 -22 26 -5 -28 29 -16
right_child=1 -3 3 18 6 -7 7 -9 -10 10 11 -13 -14 14 28 -17 -18 -19 21 -21 23 -23 -24 -25 -26 -27 27 -29 -30 -31
leaf_value=-0.46081837896600197 4.6934628953383521 31.15265919113159 75.225415532248348 0.43952767411411503 2.7103996751766948 -3.7281711450490085 16.357752159397776 0.7996795602278276 13.20511657987322 1.1440715981455665 6.4571386341426686 14.9067180618873 0.039683929744714533 -0.52060817785077285 0.81059457932520063 8.1077594501831953 -0.37283907294273377 0.72316479384899135 -0.058364708037974736 5.6559918157458302 0.38574784881256996 3.6179121494293209 3.6932780039310455 -0.17415090668805039 5.6252089445931563 -0.07494239896117301 1.1185657485875677 11.832798625588417 -0.21582220831421764 -0.03966152566115988
leaf_weight=8602 26 20 21 430 557 33 41 66 21 77 23 39 483 77 319 34 58 32 2347 30 47 20 24 158 21 356 47 20 8426 12495
leaf_count=8602 26 20 21 430 557 33 41 66 21 77 23 39 483 77 319 34 58 32 2347 30 47 20 24 158 21 356 47 20 8426 12495
internal_value=0.0149064 4.25053 -0.0420827 0.955797 2.92882 26.976 1.85119 6.76118 3.03872 2.53401 4.91878 8.01082 1.37271 -0.193099 -0.0852387 2.12232 2.41962 3.12101 0.19708 0.782651 0.915769 -0.027302 0.615946 0.481167 2.00382 0.529362 0.962224 4.31684 -0.0967754 -0.0184947
internal_weight=34950 464 34486 4533 1259 54 1205 107 444 423 171 94 1098 29953 21351 111 615 55 3274 907 252 2367 877 226 68 853 497 67 21240 12814
internal_count=34950 464 34486 4533 1259 54 1205 107 444 423 171 94 1098 29953 21351 111 615 55 3274 907 252 2367 877 226 68 853 497 67 21240 12814
is_linear=0
shrinkage=0.03


Tree=9
num_leaves=31
num_cat=0
split_feature=49 5 0 8 9 9 0 0 0 5 6 0 9 0 0 9 0 9 0 8 9 11 55 3 8 9 8 5 5 0
split_gain=8.81978e+06 1.58139e+07 5.43307e+06 7.09412e+06 1.8225e+07 8.90087e+07 2.80853e+06 7.16088e+06 2.38175e+06 1.70659e+06 2.09145e+06 3.04401e+06 1.32519e+06 1.16022e+06 904237 860095 590801 953588 568474 1.83571e+06 516049 483211 259457 236831 255310 243095 219411 734588 863736 214435
threshold=2.5000000000000004 1759696910.0000002 1574.0000000000002 1.0000000180025095e-35 0.33345037453183529 0.07274861288945797 1999.5000000000002 2213.5000000000005 1610.0000000000002 1759291409.0000002 1759634788.5000002 700.50000000000011 0.80464328588578293 1599.5000000000002 263.50000000000006 0.56452824276567848 1909.5000000000002 0.49983322214809878 268.50000000000006 inf 0.40810636726541333 1.0000000180025095e-35 1.5000000000000002 25.500000000000004 5.5000000000000009 1.0000000180025095e-35 5.5000000000000009 1759472079.5000002 1759616454.0000002 579.50000000000011
decision_type=2 10 10 10 8 10 10 10 10 10 10 8 8 10 8 10 10 10 8 8 10 2 2 8 10 8 10 10 10 10
left_child=2 8 14 4 5 21 13 -8 9 23 11 20 -13 15 -1 -6 -15 -18 19 -16 -11 -4 -12 -2 -25 -26 27 -5 -29 -20
right_child=1 -3 3 26 6 -7 7 -9 -10 10 22 12 -14 16 18 -17 17 -19 29 -21 -22 -23 -24 24 25 -27 -28 28 -30 -31
leaf_value=-0.44699382523352127 -0.53808009866121653 30.218078178405758 -5.9696034167029639 0.41159375847502072 2.658471223154967 71.378975322246546 16.815953087073105 0.69059152827543369 12.808963226250238 6.6504459298740723 3.5129664321899412 19.417667904853822 8.6275079863412021 -0.12229316941215371 -0.50498992983396951 -1.6972922152145342 0.75258386935217902 8.1966645828315183 -0.19782249402618249 7.8645269730511824 0.71873923258347938 -0.2297249243476174 -0.23011463946104049 3.662091643433822 3.5069978345357455 0.29234227660455203 0.05128173419853075 8.9958007861375791 0.28457718099866591 -0.0064629803507410093
leaf_weight=8602 74 20 22 761 561 20 39 68 21 22 25 20 21 392 77 44 59 21 9702 34 33 33 50 38 26 114 2472 20 21 11538
leaf_count=8602 74 20 22 761 561 20 39 68 21 22 25 20 21 392 77 44 59 21 9702 34 33 33 50 38 26 114 2472 20 21 11538
internal_value=0.0144593 4.12301 -0.0408202 0.927123 2.84096 17.1822 1.93251 6.56806 2.94756 2.45799 4.77121 7.70374 13.891 1.47197 -0.187306 2.34169 0.35719 2.70666 -0.0826816 2.05865 3.09142 -2.52568 1.01758 0.888296 1.48128 0.88935 0.191168 0.622338 4.53395 -0.0938721
internal_weight=34950 464 34486 4533 1259 75 1184 107 444 423 171 96 41 1077 29953 605 472 80 21351 111 55 55 75 252 178 140 3274 802 41 21240
internal_count=34950 464 34486 4533 1259 75 1184 107 444 423 171 96 41 1077 29953 605 472 80 21351 111 55 55 75 252 178 140 3274 802 41 21240
is_linear=0
shrinkage=0.03


Tree=10
num_leaves=31
num_cat=0
split_feature=49 5 5 5 3 7 55 7 10 55 12 4 4 4 5 6 13 10 4 5 6 7 4 13 49 55 5 10 4 7
split_gain=1.58715e+07 1.67349e+07 6.17146e+06 1.35161e+07 3.13512e+06 2.45879e+06 3.44574e+06 1.00475e+06 3.732e+06 1.00937e+07 1.5681e+07 2.60256e+07 907886 683389 563453 549316 3.56623e+06 401577 233486 235209 1.40807e+06 239607 218392 201321 113741 619643 108552 407922 1.01137e+06 134710
threshold=2.5000000000000004 1759696910.0000002 1758679168.5000002 1758973012.0000002 1.0930735930735933 0.23943616525036279 3.5000000000000004 1.0000000180025095e-35 5000000000.500001 1.0000000180025095e-35 1.0000000180025095e-35 1759406400.0000002 1759320000.0000002 1759320000.0000002 1759477004.0000002 1757876662.0000002 17.500000000000004 0.032142857142752564 1.0000000180025095e-35 1758692872.0000002 1758096925.5000002 0.087341852155642205 1759147200.0000002 1.0000000180025095e-35 1.0000000180025095e-35 2.5000000000000004 1759197538.0000002 0.050595238095085752 1759492800.0000002 0.15385746939145001
decision_type=2 10 10 10 8 10 2 10 10 2 2 10 10 8 10 8 10 8 10 10 8 10 8 10 2 2 10 10 10 10
left_child=7 2 17 -4 22 6 -6 8 15 10 11 -10 14 -12 -7 16 -1 -2 19 24 -21 -22 -5 -17 -9 -26 -20 28 -28 -29
right_child=1 -3 3 4 5 12 -8 18 9 -11 13 -13 -14 -15 -16 23 -18 -19 26 20 21 -23 -24 -25 25 -27 27 29 -30 -31
leaf_value=13.619431492991744 3.9027655279636386 32.429666966199875 31.268778223156929 3.6057344030297322 19.393226498690517 3.602008985436481 4.9421833165486646 -0.076726894080463723 37.739719019753586 -0.72129327939858923 4.2273738417288529 -0.69103966121015881 -0.86285463309288024 -0.65066218785057628 10.39878607068743 0.1000857028164451 -0.41457064058970322 -0.03106678494483749 -0.25692811841729135 7.9608611446878177 3.0300330358743666 -0.13112752042432252 0.19737899011932314 -0.19718650549343422 -0.47376823447644711 4.0522577815306819 -0.40147695925770971 0.61917904831898152 6.829608827696906 -0.25725279616736024
leaf_weight=20 27 20 20 23 33 23 27 4679 35 271 46 29 20 59 21 9391 88 173 15865 23 24 214 64 2623 96 38 49 191 27 909
leaf_count=20 27 20 20 23 33 23 27 4679 35 271 46 29 20 59 21 9391 88 173 15865 23 24 214 64 2623 96 38 49 191 27 909
internal_value=0.011307 5.60291 4.35805 7.69835 5.46419 8.52725 12.8903 -0.0614159 0.152845 2.86693 8.62083 20.3258 4.43693 1.48638 6.84593 0.0543302 2.18432 0.500001 -0.183123 -0.00448202 0.872641 0.187645 1.09844 0.0351827 -0.0520468 0.809732 -0.236313 0.0417921 2.16746 -0.105072
internal_weight=35128 451 431 231 211 124 60 34677 12562 440 169 64 64 105 44 12122 108 200 22115 5074 261 238 87 12014 4813 134 17041 1176 76 1100
internal_count=35128 451 431 231 211 124 60 34677 12562 440 169 64 64 105 44 12122 108 200 22115 5074 261 238 87 12014 4813 134 17041 1176 76 1100
is_linear=0
shrinkage=0.03


Tree=11
num_leaves=31
num_cat=0
split_feature=0 8 55 11 5 5 5 8 0 0 10 5 0 0 0 5 37 11 6 6 6 9 9 5 6 3 5 5 0 9
split_gain=4.95592e+06 8.42624e+06 2.3908e+07 6.77821e+07 3.80131e+06 2.31504e+06 6.47357e+06 1.72165e+06 3.98427e+06 9.22254e+06 1.02014e+06 3.42958e+06 1.9491e+06 824040 765181 629827 3.02719e+06 475971 413004 432662 381064 373806 382787 745372 1.36546e+06 373290 370142 1.17277e+06 189426 404439
threshold=1574.0000000000002 1.0000000180025095e-35 1.0000000180025095e-35 1.0000000180025095e-35 1759699660.5000002 1758679168.5000002 1758720899.0000002 1.0000000180025095e-35 1999.5000000000002 2213.5000000000005 0.09761904761879138 1759697635.5000002 1.0000000180025095e-35 1599.5000000000002 235.50000000000003 1758767153.5000002 1.0000000180025095e-35 1.0000000180025095e-35 1757802685.0000002 1759659159.0000002 1759511449.0000002 0.52924881864102991 0.3865334720683225 1759405437.5000002 1759038616.5000002 0.40588235294117653 1759598897.0000002 1759628831.5000002 240.50000000000003 0.00098199801559255371
decision_type=10 8 2 2 10 10 10 10 10 10 8 10 10 10 10 10 2 2 8 10 8 8 10 10 10 10 10 8 10 10
left_child=5 2 3 -2 7 14 -7 8 13 -10 11 12 -8 -3 -1 -9 -17 -4 -18 -20 -19 22 -12 -24 -25 -21 -14 -28 29 -16
right_child=1 4 17 -5 -6 6 10 15 9 -11 21 -13 26 -15 28 16 18 20 19 25 -22 -23 23 24 -26 -27 27 -29 -30 -31
leaf_value=-0.40064612523091164 59.52640706172356 1.7780258815928462 -2.5688938058737447 0.0078359230826882745 13.372043298993791 14.511161595698326 7.7695742560687817 0.11026837543931073 20.601021730899809 0.59935082128492445 0.51108666051345264 12.956135709285736 0.05585891773047693 0.0027372640188392775 2.9231715797569788 10.904681896141597 4.8261998417526479 4.3383581061022616 -0.044457797837513746 0.52493887790224769 -0.50687607044354077 -0.084986107839683953 -0.389206762522459 10.328747491836548 0.65499933193469861 6.1878902599811552 8.49426451751164 0.57723667822164648 -0.08706278270312244 -0.20306040641104822
leaf_weight=10379 26 591 68 51 21 31 38 3068 32 59 314 24 272 391 59 28 20 21 279 22 48 894 40 24 29 20 21 85 18072 101
leaf_count=10379 26 591 68 51 21 31 38 3068 32 59 314 24 272 391 59 28 20 21 279 22 48 894 40 24 29 20 21 85 18072 101
internal_value=0.0109678 0.912651 6.7298 20.105 0.637906 -0.129851 0.922402 0.578612 1.62766 7.63291 0.680442 1.92916 1.29299 1.07116 -0.195021 0.251109 1.42211 -0.787659 0.64348 0.382875 0.96776 0.258125 1.01179 2.70233 5.03556 3.22158 0.6419 2.1457 -0.0779641 0.949738
internal_weight=35128 4745 214 77 4531 30383 1772 4510 1073 91 1741 440 416 982 28611 3437 369 137 341 321 69 1301 407 93 53 42 378 106 18232 160
internal_count=35128 4745 214 77 4531 30383 1772 4510 1073 91 1741 440 416 982 28611 3437 369 137 341 321 69 1301 407 93 53 42 378 106 18232 160
is_linear=0
shrinkage=0.03


Tree=12
num_leaves=31
num_cat=0
split_feature=49 5 5 5 3 7 9 7 8 55 9 49 10 8 55 49 55 7 10 3 5 10 5 55 31 5 7 3 3 7
split_gain=1.47481e+07 1.54566e+07 5.72091e+06 1.26399e+07 2.94936e+06 2.31346e+06 4.20465e+06 930472 3.40576e+06 9.19542e+06 1.81806e+07 566894 377245 198594 2.16137e+06 193699 271209 175295 146894 133200 142366 511126 1.04384e+06 2.14585e+06 252493 126803 202905 261957 360711 123578
threshold=2.5000000000000004 1759696910.0000002 1758679168.5000002 1758973012.0000002 1.0930735930735933 0.23943616525036279 0.95835350112939677 1.0000000180025095e-35 1.0000000180025095e-35 1.0000000180025095e-35 0.33345037453183529 3.5000000000000004 0.032142857142752564 1.5000000000000002 2.5000000000000004 1.5000000000000002 4.5000000000000009 0.025673983257530817 15000000000.000002 inf 1759197538.0000002 0.095238095237755116 1759474846.0000002 2.5000000000000004 1.0000000180025095e-35 1759644776.0000002 0.37127230687140572 2.4722222222222228 0.70714285714285718 0.0098159656983186402
decision_type=2 10 10 10 8 10 10 10 8 2 8 2 8 10 2 2 2 8 10 8 10 8 10 2 2 10 10 10 10 10
left_child=7 2 12 -4 17 6 -6 8 9 10 -1 -7 -2 14 -10 19 -17 -5 -12 25 -21 22 23 -22 -24 29 -27 28 -28 -9
right_child=1 -3 3 4 5 11 -8 15 13 -11 18 -13 -14 -15 -16 16 -18 -19 -20 20 21 -23 24 -25 -26 26 27 -29 -30 -31
leaf_value=22.024195191734716 3.7878663486904567 31.182505213737489 30.214022649407386 2.929867460316625 18.505596458033512 6.5237956608258765 2.0255494620583274 1.8419114463979547 0.089248072306615162 -0.68536238624380963 1.7791854677755723 0.73670888442993165 -0.024924447343528614 -0.18614687294867122 8.1542202599048608 0.23251095130056293 3.000612939156984 0.073244709038528893 -0.86861246243119239 -0.17035951338231969 0.4323766520619392 -0.16190664549251751 2.8983734477650036 12.958958544015884 -0.7210909153775471 -0.44623591452836991 0.47534561736243108 -0.21301388428761409 6.1048284412622449 -0.41406407954450181
leaf_weight=57 27 20 20 29 38 39 22 22 9601 271 88 25 173 2491 30 197 38 58 24 17678 32 560 22 20 82 108 21 39 20 3276
leaf_count=57 27 20 20 29 38 39 22 22 9601 271 88 25 173 2491 30 197 38 58 24 17678 32 560 22 20 82 108 21 39 20 3276
internal_value=0.0106388 5.40072 4.20435 7.42041 5.25988 8.23081 12.4629 -0.0594632 0.146726 2.73947 8.23137 4.26321 0.489802 0.0526155 0.11437 -0.176585 0.680119 1.02545 1.2118 -0.185786 -0.153563 0.261148 1.77981 5.25029 0.044565 -0.355816 0.40201 1.54714 3.22143 -0.399015
internal_weight=35128 451 431 231 211 124 60 34677 12562 440 169 64 200 12122 9631 22115 235 87 112 21880 18394 716 156 52 104 3486 188 80 41 3298
internal_count=35128 451 431 231 211 124 60 34677 12562 440 169 64 200 12122 9631 22115 235 87 112 21880 18394 716 156 52 104 3486 188 80 41 3298
is_linear=0
shrinkage=0.03


Tree=13
num_leaves=31
num_cat=0
split_feature=49 17 0 17 0 8 7 9 8 0 0 17 19 7 0 0 0 9 10 17 17 8 43 0 10 2 17 17 3 55
split_gain=1.38765e+07 1.45431e+07 1.00959e+07 1.82019e+07 3.92629e+06 8.33018e+06 4.12802e+07 4.22621e+07 1.90567e+06 3.7488e+06 8.67749e+06 1.87286e+06 3.22959e+06 2.53589e+06 775339 719294 624178 520271 306703 307011 344338 221996 615747 978642 216913 1.74524e+06 214757 180654 180088 172160
threshold=2.5000000000000004 1759696910.0000002 1610.0000000000002 1759528342.5000002 1574.0000000000002 1.0000000180025095e-35 0.0098159656983186402 0.99999464255100301 1.0000000180025095e-35 1999.5000000000002 2213.5000000000005 1759309381.0000002 1.5000000000000002 0.2499727609500981 1599.5000000000002 235.50000000000003 2180.0000000000005 0.39452951835054367 0.035714285714179429 1758827965.0000002 1758566399.5000002 5.5000000000000009 1.5000000000000002 1599.5000000000002 0.11666666666621997 3.2500000000000004 1759549556.5000002 1759689648.5000002 22.500000000000004 1.5000000000000002
decision_type=2 10 8 8 10 8 10 10 10 10 10 10 2 10 10 8 10 8 8 8 10 10 2 10 8 10 8 10 8 2
left_child=4 2 11 -4 15 6 7 -6 9 14 -11 18 17 -14 -7 27 -8 -13 -2 20 -20 22 24 -24 25 26 -10 -1 -17 -19
right_child=1 -3 3 -5 5 8 16 -9 21 10 -12 12 13 -15 -16 28 -18 29 19 -21 -22 -23 23 -25 -26 -27 -28 -29 -30 -31
leaf_value=-0.44752634142602904 3.838007592942033 30.247029567718506 38.721770502090457 -1.2678394842147827 64.758728263378146 1.7220076598102216 -0.6571618270202978 4.5034383263371209 3.2914078896045682 19.980313210487363 0.57869283708475405 5.4880715617940226 20.010068533658981 5.0837054198128833 -2.2291202298210712e-05 -0.34813795371616196 4.9827215795516961 2.7718832053857692 0.57689310453154818 -0.1900182131692475 5.5655013055801392 -0.014806713255246969 6.9870488550717171 -0.26522377210504872 -0.093387091668548083 9.0726281313462689 0.064903152124762081 2.4075364638715984 -0.070534918877370387 -0.070409946116534144
leaf_weight=7399 28 20 20 21 20 591 151 22 20 32 59 37 20 21 391 2347 20 34 33 153 20 2540 33 34 471 22 259 20 20246 44
leaf_count=7399 28 20 20 21 20 591 151 22 20 32 59 37 20 21 391 2347 20 34 33 153 20 2540 33 34 471 22 259 20 20246 44
internal_value=0.0103196 5.2387 4.07822 18.2393 -0.0576793 0.752 6.54776 33.1964 0.47471 1.57615 7.40124 2.58949 5.13567 12.3649 1.03635 -0.183534 0.00247366 2.5583 0.892047 0.491625 2.45939 0.124947 0.54804 3.30679 0.308615 0.937661 0.296194 -0.43983 -0.0993728 1.16854
internal_weight=35128 451 431 41 34677 4665 213 42 4452 1073 91 390 156 41 982 30012 171 115 234 206 53 3379 839 67 772 301 279 7419 22593 78
internal_count=35128 451 431 41 34677 4665 213 42 4452 1073 91 390 156 41 982 30012 171 115 234 206 53 3379 839 67 772 301 279 7419 22593 78
is_linear=0
shrinkage=0.03


Tree=14
num_leaves=31
num_cat=0
split_feature=49 5 0 5 0 8 7 9 4 0 0 0 5 19 7 0 8 55 2 0 0 9 4 9 9 2 5 5 5 9
split_gain=1.30564e+07 1.36836e+07 9.49925e+06 1.71262e+07 3.69424e+06 7.83787e+06 3.88405e+07 3.97644e+07 1.8011e+06 2.56254e+06 5.56167e+06 2.02976e+06 1.76234e+06 2.5146e+06 2.71232e+06 694401 985076 3.02294e+06 4.13096e+06 676783 587289 423253 318431 310145 251106 225831 334809 314418 169977 162622
threshold=2.5000000000000004 1759696910.0000002 1610.0000000000002 1759528342.5000002 1574.0000000000002 1.0000000180025095e-35 0.0098159656983186402 0.99999464255100301 1.0000000180025095e-35 1999.5000000000002 2213.5000000000005 2180.0000000000005 1759246738.5000002 1.5000000000000002 0.22136037533629346 1599.5000000000002 5.5000000000000009 1.5000000000000002 4.2500000000000009 235.50000000000003 2180.0000000000005 0.39452951835054367 1759320000.0000002 0.88449616098579253 0.48621905374082092 1.2500000000000002 1758827965.0000002 1758566399.5000002 1759689648.5000002 0.99973753020469347
decision_type=2 10 8 8 10 8 10 10 10 10 10 10 10 2 10 10 10 2 8 8 10 8 10 10 10 8 8 10 10 8
left_child=4 2 12 -4 19 6 7 -6 9 15 11 -11 25 21 -15 16 17 24 -19 28 -8 -14 23 -23 -7 -2 27 -27 -1 -21
right_child=1 -3 3 -5 5 8 20 -9 -10 10 -12 -13 13 14 -16 -17 -18 18 -20 29 -22 22 -24 -25 -26 26 -28 -29 -30 -31
leaf_value=-0.43410055025553312 3.1880972723960874 29.339618364930153 37.560117170333861 -1.229804298537118 62.815967823028558 1.6686910627461506 -0.63744697581853293 4.368335203528404 -0.083259457449322977 7.3376721447706217 0.37661111684945914 19.80929527821748 5.155591731981227 18.743375898088726 4.2475123588855448 0.16420453721873982 0.041236409498064702 17.979102557897569 -0.48177602496743194 -0.16558185664963601 4.8332399797439569 0.28549828211466471 -1.4181862424887142 4.7535384997006114 -0.23807010018307229 0.60356065705418582 -0.36857355843199058 5.3985365095138551 2.3353102850317953 -0.0027639201802331843
leaf_weight=7399 30 20 20 21 20 627 151 22 2457 24 78 23 38 21 26 774 356 24 20 12992 20 27 26 29 69 32 141 20 20 9601
leaf_count=7399 30 20 20 21 20 627 151 22 2457 24 78 23 38 21 26 774 356 24 20 12992 20 27 26 29 69 32 141 20 20 9601
internal_value=0.01001 5.08154 3.95587 17.6921 -0.0559489 0.72944 6.35133 32.2005 0.460468 1.13011 5.28875 13.4408 2.51181 4.8422 10.7244 0.852128 1.33794 1.96176 9.58779 -0.178028 0.00239945 2.53834 1.32547 2.5993 1.47966 0.766631 0.390237 2.44778 -0.426635 -0.0963916
internal_weight=35128 451 431 41 34677 4665 213 42 4452 1995 125 47 390 167 47 1870 1096 740 44 30012 171 120 82 56 696 223 193 52 7419 22593
internal_count=35128 451 431 41 34677 4665 213 42 4452 1995 125 47 390 167 47 1870 1096 740 44 30012 171 120 82 56 696 223 193 52 7419 22593
is_linear=0
shrinkage=0.03


Tree=15
num_leaves=31
num_cat=0
split_feature=49 17 0 0 8 4 55 8 0 0 0 31 0 10 0 7 0 10 9 17 10 9 17 8 19 6 4 17 10 0
split_gain=1.02179e+07 1.34733e+07 1.03744e+07 3.68303e+06 6.67393e+06 3.19567e+07 8.37931e+07 2.98533e+06 3.33537e+06 8.77883e+06 1.64671e+06 1.68593e+06 874003 698076 596180 584808 473011 403319 656717 441117 820625 359509 265857 1.05074e+06 335338 248859 222113 209058 783438 1.56879e+06
threshold=2.5000000000000004 1759696910.0000002 77.500000000000014 1574.0000000000002 1.0000000180025095e-35 1759406400.0000002 1.0000000180025095e-35 1.0000000180025095e-35 1999.5000000000002 2213.5000000000005 1610.0000000000002 2.5000000000000004 305.50000000000006 0.16904761904717577 1599.5000000000002 0.092447197857245103 1909.5000000000002 0.035714285714179429 0.33299675662444167 1759587064.0000002 0.15595238095197225 0.99704682303108549 1759472079.5000002 4.5000000000000009 4.5000000000000009 1759529675.0000002 1759233600.0000002 1759257037.5000002 0.065476190475864518 268.50000000000006
decision_type=2 10 10 10 8 10 2 10 10 8 10 2 10 10 10 10 10 8 10 8 10 10 10 10 2 8 10 10 8 8
left_child=3 2 -2 12 5 6 -5 8 14 -10 11 13 27 17 -6 -7 -16 18 -4 20 21 -19 -9 -24 -25 -17 -14 -1 29 -29
right_child=1 -3 10 4 7 15 -8 22 9 -11 -12 -13 26 -15 16 25 -18 19 -20 -21 -22 -23 23 24 -26 -27 -28 28 -30 -31
leaf_value=-0.35173005910831628 24.492438726425171 28.583482212066649 7.4182716022838244 74.442834503173827 1.9971273331605284 -5.0483428001403805 -5.3767555454887193 -0.0041700531768441539 20.645466331481934 0.5344408443995885 10.760680669784545 9.1668132172690484 0.070177789935760709 6.8446920515298846 0.028151169705120001 2.5538646259377984 2.8462630596756933 -0.10555296558886766 0.0013531861986432758 -0.36527320043989486 7.1133392466669498 3.7202991662025449 6.5224025043419429 -0.48787507694275656 3.1525247655170303 -0.37960116831032004 -0.16685152909695894 -0.56062084658392541 -0.15090431393585868 10.36102731513977
leaf_weight=13493 20 20 22 20 582 21 29 3153 30 56 20 27 10893 20 330 34 64 84 21 163 23 30 28 122 28 111 5284 29 353 20
leaf_count=13493 20 20 22 20 582 21 29 3153 30 56 20 27 10893 20 330 34 64 84 21 163 23 30 28 122 28 111 5284 29 353 20
internal_value=0.0221658 4.51371 3.39419 -0.0361155 0.75367 5.91447 27.2027 0.501093 1.88613 7.54991 2.365 1.93446 -0.157136 1.39651 1.38707 -0.369395 0.485916 1.07883 3.79606 0.689366 1.94416 0.90125 0.0595104 1.18751 0.191666 0.308246 -0.00724466 -0.331645 0.342521 3.89719
internal_weight=35130 450 430 34680 4608 215 49 4393 1062 86 410 390 30072 363 976 166 394 343 43 300 137 114 3331 178 150 145 16177 13895 402 49
internal_count=35130 450 430 34680 4608 215 49 4393 1062 86 410 390 30072 363 976 166 394 343 43 300 137 114 3331 178 150 145 16177 13895 402 49
is_linear=0
shrinkage=0.03


Tree=16
num_leaves=31
num_cat=0
split_feature=49 5 0 0 8 7 0 8 0 0 0 31 0 7 6 5 6 0 0 8 6 5 8 19 6 7 4 5 10 0
split_gain=9.614e+06 1.26771e+07 9.76132e+06 3.46536e+06 6.2795e+06 3.05659e+07 2.44629e+07 2.8089e+06 3.13825e+06 8.26e+06 1.54939e+06 1.58629e+06 822350 660293 1.67887e+06 637042 651268 560946 445056 328260 709069 250145 988641 315519 248988 319725 208986 197305 542750 1.52713e+06
threshold=2.5000000000000004 1759696910.0000002 77.500000000000014 1574.0000000000002 1.0000000180025095e-35 0.0098159656983186402 1599.5000000000002 1.0000000180025095e-35 1999.5000000000002 2213.5000000000005 1610.0000000000002 2.5000000000000004 305.50000000000006 0.16934765108389399 1759233968.0000002 1759246738.5000002 1759529675.0000002 1599.5000000000002 1909.5000000000002 5.5000000000000009 1758665206.5000002 1759472079.5000002 4.5000000000000009 4.5000000000000009 1759529675.0000002 0.66460678430179498 1759233600.0000002 1758379861.0000002 0.071428571428146279 60.500000000000007
decision_type=2 10 10 10 8 10 10 10 10 10 10 2 10 8 8 10 10 10 10 10 10 10 10 2 8 10 10 10 10 10
left_child=3 2 -2 12 5 6 -5 8 17 -10 11 13 27 14 -4 -16 -17 -6 -19 20 -15 -9 -23 -24 25 -7 -14 -1 29 -29
right_child=1 -3 10 4 7 24 -8 21 9 -11 -12 -13 26 19 15 16 -18 18 -20 -21 -22 22 23 -25 -26 -27 -28 28 -30 -31
leaf_value=-0.34647462179724153 23.757664165019989 27.72597838783264 10.993686334490775 47.46930970458984 1.9372135670191233 -0.65768664121627807 3.5481115140233719 -0.0040449531330991996 20.026103172302243 0.51840762402330121 10.437859969139099 8.8918086772494842 0.068072467197175968 6.772567598819732 -0.39267533286051315 7.9849411140788682 1.4669300475877682 0.027306633678349578 2.7608751460723577 -0.24916463756712817 -1.1202606201171874 6.3267302972929818 -0.473238829247287 3.0579489530835833 -0.82658033119411911 4.5832337465286255 -0.16184598104273906 8.0222707128524782 -0.16574402521909942 -0.29697150571005682
leaf_weight=13258 20 20 20 25 582 22 21 3153 30 56 20 27 10893 20 66 22 37 330 64 177 21 28 122 28 127 20 5284 29 545 63
leaf_count=13258 20 20 20 25 582 22 21 3153 30 56 20 27 10893 20 66 22 37 330 64 177 21 28 122 28 127 20 5284 29 545 63
internal_value=0.0215008 4.3783 3.29236 -0.035032 0.73106 5.73704 27.4183 0.48606 1.82955 7.32342 2.29405 1.87642 -0.152422 1.35462 2.92346 1.63223 3.89737 1.34546 0.471338 0.311118 2.7299 0.0577251 1.15189 0.185916 -0.164379 1.83799 -0.00702731 -0.321695 0.194044 2.3254
internal_weight=35130 450 430 34680 4608 215 46 4393 1062 86 410 390 30072 363 145 125 59 976 394 218 41 3331 178 150 169 42 16177 13895 637 92
internal_count=35130 450 430 34680 4608 215 46 4393 1062 86 410 390 30072 363 145 125 59 976 394 218 41 3331 178 150 169 42 16177 13895 637 92
is_linear=0
shrinkage=0.03


Tree=17
num_leaves=31
num_cat=0
split_feature=49 5 0 0 8 4 55 8 0 0 5 0 3 2 10 0 10 0 0 4 0 5 4 25 4 5 10 0 6 8
split_gain=9.04581e+06 1.19279e+07 9.18442e+06 3.26056e+06 5.90838e+06 2.90602e+07 7.84314e+07 2.64289e+06 2.95278e+06 7.77184e+06 1.46598e+06 1.84256e+06 5.39e+06 3.01426e+06 1.03878e+06 773749 767602 527794 418754 379945 274986 235361 955041 260836 196635 187597 708801 1.42096e+06 179780 4.2345e+06
threshold=2.5000000000000004 1759696910.0000002 77.500000000000014 1574.0000000000002 1.0000000180025095e-35 1759406400.0000002 1.0000000180025095e-35 1.0000000180025095e-35 1999.5000000000002 2213.5000000000005 1759644776.0000002 1029.5000000000002 1.4365079365079367 6.2500000000000009 0.15595238095197225 305.50000000000006 0.032142857142752564 1599.5000000000002 1909.5000000000002 1759492800.0000002 1909.5000000000002 1759472079.5000002 1.0000000180025095e-35 4.5000000000000009 1759233600.0000002 1759257037.5000002 0.065476190475864518 268.50000000000006 1757876662.0000002 2.5000000000000004
decision_type=2 10 10 10 8 10 2 10 10 10 8 10 8 8 10 10 8 10 10 10 10 10 10 2 10 10 8 8 8 10
left_child=3 2 -2 15 5 6 -5 8 17 -10 11 14 -13 -14 -4 25 -12 -6 -19 -7 -21 -9 -23 -24 28 -1 27 -27 29 -17
right_child=1 -3 10 4 7 19 -8 21 9 -11 16 12 13 -15 -16 24 -18 18 -20 20 -22 22 23 -25 -26 26 -28 -29 -30 -31
leaf_value=-0.33107101981981341 23.044934128761291 26.894198432922362 0.14676719711646438 71.569230928659437 1.879097155437027 -3.6137094604969024 -5.6544020277056202 -0.0039236039343643597 19.425319808959959 0.50285536893776484 5.4443595264268962 0.68311993009639227 22.734460433071309 6.6424615774154656 7.0968228888511655 13.765662620748792 -0.39933491540806632 0.02648742939802733 2.6780489449203015 -0.56154185529545086 2.5164225583076476 6.5535629287719726 -0.38268396086809109 2.7371954979747533 -0.15699060101007067 -0.53489306269020864 -0.14275198432017994 9.8594438095092762 0.046711124896946378 -0.26895687667312235
leaf_weight=13493 20 20 100 20 582 28 29 3153 30 56 23 53 22 20 24 21 168 330 64 103 35 25 123 30 5284 29 353 20 10626 246
leaf_count=13493 20 20 100 20 582 28 29 3153 30 56 23 53 22 20 24 21 168 330 64 103 35 25 123 30 5284 29 353 20 10626 246
internal_value=0.0208558 4.24695 3.19359 -0.0339811 0.709128 5.56493 25.8654 0.471478 1.77466 7.10372 2.22523 3.90052 7.04434 15.0716 1.49194 -0.147849 0.304356 1.30509 0.457198 -0.427397 0.219101 0.0559933 1.11733 0.229057 -0.00681649 -0.312044 0.326581 3.70769 0.0660303 0.83489
internal_weight=35130 450 430 34680 4608 215 49 4393 1062 86 410 219 95 42 124 30072 191 976 394 166 138 3331 178 153 16177 13895 402 49 10893 267
internal_count=35130 450 430 34680 4608 215 49 4393 1062 86 410 219 95 42 124 30072 191 976 394 166 138 3331 178 153 16177 13895 402 49 10893 267
is_linear=0
shrinkage=0.03


Tree=18
num_leaves=31
num_cat=0
split_feature=49 5 0 0 8 7 9 8 0 0 5 0 5 10 10 0 10 7 0 0 4 7 5 8 19 4 5 10 0 7
split_gain=8.5112e+06 1.12229e+07 8.64162e+06 3.06786e+06 5.55919e+06 2.81103e+07 4.18157e+07 2.4867e+06 2.77827e+06 7.31252e+06 1.37934e+06 1.73366e+06 2.68165e+06 977388 925513 728020 722237 714354 496601 394005 268847 242275 221451 934917 286245 185014 176932 485090 1.38322e+06 178729
threshold=2.5000000000000004 1759696910.0000002 77.500000000000014 1574.0000000000002 1.0000000180025095e-35 0.0098159656983186402 0.99999464255100301 1.0000000180025095e-35 1999.5000000000002 2213.5000000000005 1759644776.0000002 1029.5000000000002 1759569851.0000002 0.15595238095197225 0.14880952380916954 305.50000000000006 0.032142857142752564 0.16645078433327123 1599.5000000000002 1909.5000000000002 1759492800.0000002 0.66673673000392364 1759472079.5000002 4.5000000000000009 4.5000000000000009 1759233600.0000002 1758379861.0000002 0.071428571428146279 60.500000000000007 0.087341852155642205
decision_type=2 10 10 10 8 10 10 10 10 10 8 10 10 10 8 10 8 10 10 8 10 10 10 10 2 10 10 10 10 10
left_child=3 2 -2 15 5 6 -5 8 18 -10 11 13 14 -4 17 26 -12 -13 -6 -20 -7 -22 -9 -24 -25 -17 -1 28 -28 -29
right_child=1 -3 10 4 7 20 -8 22 9 -11 16 12 -14 -15 -16 25 -18 -19 19 -21 21 -23 23 24 -26 -27 27 29 -30 -31
leaf_value=-0.32614825170833056 22.353586193561551 26.087372428894042 0.14236418920978902 58.802610214233397 1.8227242562128709 -2.6905133107033641 1.1036097236780018 -0.003805896396173623 18.842559265136718 0.48776974260807038 5.2810285837753961 3.3497785304546355 16.014447888461024 6.8839181327819823 -0.21630652223314556 0.064049380040286139 -0.38735486302890682 10.956529776334763 0.025692805024710566 2.5977074586600066 2.3991913954722319 -0.44610018753644193 6.1160861655644005 -0.48337946792117886 2.8800059446692465 -0.15228088466286127 7.6224745433906023 1.802440395630323 -0.29508474508921301 -0.30526312270323219
leaf_weight=13258 20 20 100 20 582 33 26 3153 30 56 23 25 22 24 28 10893 168 20 330 64 37 99 28 122 28 5284 29 39 63 506
leaf_count=13258 20 20 100 20 582 33 26 3153 30 56 23 25 22 24 28 10893 168 20 330 64 37 99 28 122 28 5284 29 39 63 506
internal_value=0.0202301 4.11954 3.09778 -0.0329616 0.687854 5.39798 26.1901 0.457334 1.72142 6.8906 2.15848 3.7835 6.83301 1.44718 4.06601 -0.143414 0.295225 6.73056 1.26594 0.443482 -0.261425 0.327986 0.0543135 1.08381 0.144452 -0.006612 -0.302683 0.185704 2.20067 -0.154437
internal_weight=35130 450 430 34680 4608 215 46 4393 1062 86 410 219 95 124 73 30072 191 45 976 394 169 136 3331 178 150 16177 13895 637 92 545
internal_count=35130 450 430 34680 4608 215 46 4393 1062 86 410 219 95 124 73 30072 191 45 976 394 169 136 3331 178 150 16177 13895 637 92 545
is_linear=0
shrinkage=0.03


Tree=19
num_leaves=31
num_cat=0
split_feature=49 49 49 17 6 17 17 7 10 12 4 4 4 10 7 19 6 4 8 6 6 10 4 17 6 7 17 4 4 10
split_gain=8.10868e+06 1.34071e+07 2.41944e+06 3.65124e+06 1.10618e+06 853519 4.21939e+06 780246 1.64133e+06 3.35085e+06 6.97327e+06 3.66044e+07 581027 381835 271519 1.0033e+06 637449 310455 263586 3.64232e+06 261196 224283 224007 217581 1.75148e+06 184478 356438 166665 319830 421676
threshold=4.5000000000000009 5.5000000000000009 2.5000000000000004 1759686153.5000002 1757999133.0000002 1759419068.5000002 1759284468.0000002 0.092447197857245103 0.5357142857084185 1.0000000180025095e-35 1759320000.0000002 1759406400.0000002 1759406400.0000002 0.15595238095197225 0.081577196095829654 1.0000000180025095e-35 1759697272.0000002 1759320000.0000002 1.5000000000000002 1758389064.0000002 1757707780.5000002 0.039285714285610548 1.0000000180025095e-35 1759472079.5000002 1758519561.0000002 0.16934765108389399 1759649983.5000002 1759320000.0000002 1759233600.0000002 15000000000.000002
decision_type=2 2 2 10 8 8 8 10 10 2 10 10 8 8 10 2 8 10 10 8 10 8 10 10 8 8 8 10 10 10
left_child=2 -2 7 4 -4 6 13 8 14 10 20 -12 -3 -6 18 -16 -17 -18 19 -1 -10 -7 23 -9 -25 26 -23 28 -11 -30
right_child=1 12 3 -5 5 21 -8 22 9 27 11 -13 -14 -15 15 16 17 -19 -20 -21 -22 25 -24 24 -26 -27 -28 -29 29 -31
leaf_value=12.927476059913634 23.383356172340257 4.4531059337289705 8.5761841492652895 14.994258424758909 -1.0518001329673912 2.5848314901760645 15.834959553435445 -0.0046347759485752781 -3.4354159349203108 -0.91235443117363102 34.279195195275385 -0.94643369923246656 -0.37067583986845881 3.7281928334917338 -0.07091723806237521 0.46087785172462459 3.9076485239052112 8.7711549159458713 -0.14863705366329774 0.11174951864222751 -0.13011273750892052 4.1296205210605903 -0.20867566712507535 9.3969099951982482 -0.3124033812433481 -1.1465645494749865 -0.65722310927829575 -0.69188378106532755 3.9696244405537118 -1.3437308313846588
leaf_weight=20 35 38 20 20 53 28 20 4517 48 56 37 94 55 21 219 30 27 21 4104 9680 39 21 15398 20 102 97 42 207 41 20
leaf_count=20 35 38 20 20 53 28 20 4517 48 56 37 94 55 21 219 30 27 21 4104 9680 39 21 15398 20 102 97 42 207 41 20
internal_value=0.0196232 7.55663 -0.0079391 2.58053 1.75843 1.2749 3.609 -0.0319728 0.134483 1.75454 4.63023 9.00279 1.60033 0.304684 0.0722129 0.969684 3.89137 6.03543 0.0529034 0.138174 -1.95373 0.107857 -0.153618 0.0291308 1.27929 -0.325613 0.938391 -0.180345 0.724685 2.22754
internal_weight=35130 128 35002 322 302 282 94 34680 14643 542 218 131 93 74 14101 297 78 48 13804 9700 87 188 20037 4639 122 160 63 324 117 61
internal_count=35130 128 35002 322 302 282 94 34680 14643 542 218 131 93 74 14101 297 78 48 13804 9700 87 188 20037 4639 122 160 63 324 117 61
is_linear=0
shrinkage=0.03


Tree=20
num_leaves=31
num_cat=0
split_feature=49 5 0 0 8 0 0 6 0 4 4 0 0 8 55 10 8 10 5 0 0 8 6 8 0 4 11 4 5 10
split_gain=5.65587e+06 1.01957e+07 4.20408e+06 1.95275e+06 2.08655e+06 3.53277e+06 5.79857e+06 1.45239e+06 992114 951242 714753 712900 643930 1.23399e+06 578746 1.14489e+06 629944 557635 1.34098e+06 385042 1.26106e+06 424089 4.07626e+06 350693 1.39384e+06 2.21003e+06 469943 287620 327852 543273
threshold=2.5000000000000004 1759692674.0000002 3879.5000000000005 1909.5000000000002 1.0000000180025095e-35 2213.5000000000005 2180.0000000000005 1757876662.0000002 456.00000000000006 1759320000.0000002 1758801600.0000002 1574.0000000000002 1599.5000000000002 5.5000000000000009 1.5000000000000002 0.10357142857090307 1.0000000180025095e-35 0.15595238095197225 1759587064.0000002 489.50000000000006 477.00000000000006 1.5000000000000002 1758568327.5000002 1.0000000180025095e-35 1574.0000000000002 1759406400.0000002 1.0000000180025095e-35 1759320000.0000002 1759246738.5000002 0.1220238095234446
decision_type=2 10 8 10 10 10 10 8 10 10 10 10 10 10 2 10 10 10 8 8 10 8 8 10 10 10 2 10 10 8
left_child=3 2 7 8 5 6 9 -2 -1 -5 11 19 13 14 16 -16 -13 27 -19 20 -10 22 -21 24 -12 -26 -27 28 -9 -30
right_child=1 -3 -4 4 -6 -7 -8 17 10 -11 23 12 -14 -15 15 -17 -18 18 -20 21 -22 -23 -24 -25 25 26 -28 -29 29 -31
leaf_value=-0.23796527197042699 8.526849608054528 23.729024429321289 15.421768501826696 5.8871716735839836 -0.095403651145856777 -1.0036794650554657 20.945359112698096 0.21377424805021997 0.43803623159052962 -0.97478743314743044 -0.087332731025513768 2.1241495818941973 0.11341499319097222 0.037555097880804904 1.0052942683347841 8.4509544114505548 0.099973510796959333 7.6261553443444745 -0.12288306973197242 14.286482144951819 7.1869891464299167 0.039553639583819397 -0.010199307203292846 -0.080871464974991605 -9.5903976352591265 -4.0445033043139684 0.052425531205497207 -0.92832285743951792 4.075592251997441 -0.8741518152582235
leaf_weight=16930 26 21 21 75 201 72 23 134 177 24 558 549 978 559 41 34 185 37 44 20 29 7735 175 6068 38 37 79 80 64 29
leaf_count=16930 26 21 21 75 201 72 23 134 177 24 558 549 978 559 41 34 185 37 44 20 29 7735 175 6068 38 37 79 80 64 29
internal_value=-0.0067988 3.31248 2.32686 -0.0505607 2.0467 4.26609 7.37612 1.66262 -0.0747891 4.22367 0.0852487 0.240504 0.701243 1.12149 1.87046 4.38066 1.61397 1.20265 3.4168 0.107651 1.38813 0.0743874 1.45613 -0.154779 -0.784651 -3.3113 -1.25435 0.618461 1.16358 2.53212
internal_weight=35043 456 435 34587 395 194 122 414 34192 99 17262 10482 2346 1368 809 75 734 388 81 8136 206 7930 195 6780 712 154 116 307 227 93
internal_count=35043 456 435 34587 395 194 122 414 34192 99 17262 10482 2346 1368 809 75 734 388 81 8136 206 7930 195 6780 712 154 116 307 227 93
is_linear=0
shrinkage=0.03


Tree=21
num_leaves=31
num_cat=0
split_feature=49 17 17 17 6 17 8 17 9 9 9 10 7 55 6 17 17 3 17 3 6 6 6 6 17 17 17 17 17 55
split_gain=5.32161e+06 9.59313e+06 3.20084e+06 1.16718e+07 1.21287e+06 2.11412e+06 820717 319094 285432 1.86574e+06 222378 283346 825409 583540 153194 151746 598823 128307 138208 227707 754334 135723 128107 313027 117241 147818 99303.4 75154.6 69691.9 62639.9
threshold=2.5000000000000004 1759692674.0000002 1758827965.0000002 1758600076.0000002 1758933623.5000002 1759298072.0000002 inf 1759678503.0000002 0.23952113335674982 0.40810636726541333 0.091134407760913791 0.89285714284438777 0.013728772805353893 1.0000000180025095e-35 1759356138.0000002 1759601867.5000002 1759636472.0000002 22.500000000000004 1759669412.0000002 2.4722222222222228 1759507359.0000002 1759706484.0000002 1759361985.0000002 1759585356.0000002 1758304589.0000002 1758046936.0000002 1759477004.0000002 1759405437.5000002 1759704227.5000002 3.5000000000000004
decision_type=2 10 8 10 8 10 8 10 10 10 8 10 10 2 8 10 10 8 10 10 8 10 10 10 8 8 10 10 10 2
left_child=6 2 3 -2 5 -4 10 8 27 -10 11 15 13 -13 -15 24 -17 18 21 20 -20 -12 26 -24 25 -1 -11 -6 29 -19
right_child=1 -3 4 -5 7 -7 -8 -9 9 22 17 12 -14 14 -16 16 -18 28 19 -21 -22 -23 23 -25 -26 -27 -28 -29 -30 -31
leaf_value=0.057361346410245311 -0.066464468216409486 23.017154126848492 0.30023233175277708 26.236835845600474 -0.7050614468501164 12.711071823665074 0.19281847579093198 3.6726194229125975 8.1069747103585144 -0.58809093273537494 -0.33711261975886853 -5.520799682235717 -0.29396751109059616 -0.10601866972446441 -2.536843381353787 5.5380354083329433 -0.60410158274173731 -0.043057565975745123 6.8027649983167651 -0.40717138092219829 -0.30382297928740337 1.6273216413706539 3.7484614176750184 -0.60395411240643471 -0.27826819067132125 3.0656938522202628 -2.8987550119920211 -2.6134922476915214 1.4331049191100256 -0.21419420646191858
leaf_weight=49 49 21 30 22 65 21 9250 25 27 70 2922 50 446 40 56 20 50 15153 20 80 41 32 20 58 4124 21 22 26 28 2205
leaf_count=49 49 21 30 22 65 21 9250 25 27 70 2922 50 446 40 56 20 50 15153 20 80 41 32 20 58 4124 21 22 26 28 2205
internal_value=-0.00659484 3.21311 2.25705 8.08385 1.12051 5.41058 -0.0490439 0.421485 0.139269 0.781164 -0.137343 -0.319869 -0.934888 -2.89277 -1.524 -0.234482 1.15079 -0.094066 -0.272034 0.645566 2.02621 -0.315832 -0.382348 0.51205 -0.257603 0.959861 -1.14064 -1.25033 -0.0623848 -0.0647972
internal_weight=35043 456 435 71 364 51 34587 313 288 197 25337 4856 592 146 96 4264 70 20481 3095 141 61 2954 170 78 4194 70 92 91 17386 17358
internal_count=35043 456 435 71 364 51 34587 313 288 197 25337 4856 592 146 96 4264 70 20481 3095 141 61 2954 170 78 4194 70 92 91 17386 17358
is_linear=0
shrinkage=0.03


Tree=22
num_leaves=31
num_cat=0
split_feature=49 5 0 0 9 0 0 0 4 0 0 8 2 0 3 5 2 10 8 8 0 4 11 9 0 49 8 0 8 55
split_gain=5.0071e+06 9.02617e+06 3.92659e+06 1.83711e+06 2.47296e+06 3.69873e+06 5.40527e+06 926847 678976 966644 755385 1.01984e+06 2.4845e+06 557190 1.54739e+06 2.5492e+06 971908 448109 447490 366478 1.30504e+06 2.07295e+06 437887 295059 242131 374714 272629 214429 209006 755925
threshold=2.5000000000000004 1759692674.0000002 77.500000000000014 1909.5000000000002 0.99557326163806958 2213.5000000000005 2180.0000000000005 427.50000000000006 1.0000000180025095e-35 1574.0000000000002 1599.5000000000002 5.5000000000000009 3.7500000000000004 499.50000000000006 2.0384615384615388 1759298072.0000002 2.2500000000000004 25000000000.000004 3.5000000000000004 1.0000000180025095e-35 1574.0000000000002 1759406400.0000002 1.0000000180025095e-35 0.0051859250075980004 647.00000000000011 1.0000000180025095e-35 inf 235.50000000000003 1.5000000000000002 2.5000000000000004
decision_type=2 10 10 10 8 10 10 10 10 10 10 10 10 10 8 10 8 8 10 10 10 10 2 10 10 2 8 8 10 2
left_child=3 2 -2 7 -5 6 17 27 9 24 11 12 18 23 -15 16 -16 -6 -11 20 -10 -22 -23 -4 25 26 -9 -1 29 -21
right_child=1 -3 13 4 5 -7 -8 8 19 10 -12 -13 -14 14 15 -17 -18 -19 -20 28 21 22 -24 -25 -26 -27 -28 -29 -30 -31
leaf_value=-0.35332116770624455 14.844716757365635 22.326638930184501 2.6817616546154022 -0.47900963499083327 8.4718880699872976 -0.42114649045056307 20.439098555161618 -0.1289100702834784 -0.095181996116519382 1.9815196428701281 0.13272137112741389 0.086402021239229132 10.811865626743861 0.085331812292337411 7.6448145911693564 11.323829041280245 0.024088446038668269 3.4107751408783162 -0.35637988534889048 0.013515341404729481 -9.2792874353810344 -3.8992194379342573 0.055509278793123701 -0.36568344454971147 0.019729194099550987 4.5445888080596921 0.75267470872431774 -0.13511846404304623 -0.082263414465128165 3.0388316352963449
leaf_weight=7427 21 21 36 190 20 87 24 519 587 600 706 356 28 120 20 38 61 74 84 427 38 37 79 139 5487 20 806 8923 7978 90
leaf_count=7427 21 21 36 190 20 87 24 519 587 600 706 356 28 120 20 38 61 74 84 427 38 37 79 139 5487 20 806 8923 7978 90
internal_value=-0.006397 3.11672 2.18934 -0.0475726 1.98664 4.27187 7.73198 -0.0710726 0.0784477 0.270168 0.89412 1.39744 2.05296 1.5474 2.48917 4.9132 1.90575 4.48761 1.69441 -0.100195 -0.740041 -3.19804 -1.20591 0.26122 0.108152 0.46888 0.40736 -0.234237 -0.0443828 0.540166
internal_weight=35043 456 435 34587 395 205 118 34192 17842 8606 1774 1068 712 414 239 119 81 94 684 9236 741 154 116 175 6832 1345 1325 16350 8495 517
internal_count=35043 456 435 34587 395 205 118 34192 17842 8606 1774 1068 712 414 239 119 81 94 684 9236 741 154 116 175 6832 1345 1325 16350 8495 517
is_linear=0
shrinkage=0.03


Tree=23
num_leaves=31
num_cat=0
split_feature=49 5 0 0 9 0 0 6 0 4 0 0 8 9 55 10 10 7 0 8 0 0 8 6 8 5 9 31 6 0
split_gain=4.71118e+06 8.49272e+06 3.69453e+06 1.72853e+06 2.3268e+06 3.48014e+06 5.08582e+06 1.34339e+06 875042 621204 632348 568072 1.08393e+06 599502 1.63614e+06 510109 421626 390319 1.02867e+06 3.62653e+06 357769 1.18689e+06 396079 3.8319e+06 279799 255369 679022 334242 303106 536626
threshold=2.5000000000000004 1759692674.0000002 77.500000000000014 1909.5000000000002 0.99557326163806958 2213.5000000000005 2180.0000000000005 1757876662.0000002 456.00000000000006 1758801600.0000002 1574.0000000000002 1599.5000000000002 5.5000000000000009 0.74857068182560693 1.5000000000000002 0.16904761904717577 25000000000.000004 1.0000000180025095e-35 1574.0000000000002 1.0000000180025095e-35 489.50000000000006 477.00000000000006 1.5000000000000002 1758568327.5000002 4.5000000000000009 1759582961.0000002 0.67844180942888233 1.5000000000000002 1759621507.5000002 523.00000000000011
decision_type=2 10 10 10 8 10 10 8 10 10 10 10 10 10 2 10 8 10 10 10 10 10 8 8 8 10 8 2 10 10
left_child=3 2 -2 8 -5 6 16 -4 -1 10 20 12 13 14 24 25 -6 18 -11 -20 21 -10 23 -22 -12 27 -27 28 29 -9
right_child=1 -3 7 4 5 -7 -8 15 9 17 11 -13 -14 -15 -16 -17 -18 -19 19 -21 22 -23 -24 -25 -26 26 -28 -29 -30 -31
leaf_value=-0.22218689728963281 14.39937526021685 21.656840335300991 8.1026122880898974 -0.46463934431734838 8.2177317459583268 -0.40851208579951315 19.825925340652468 0.062382230364948242 0.41353826312695519 -0.15666794354936717 -0.12054270724765956 0.10790764228846489 0.038851622821436609 -0.13578585918728761 8.3336139723410199 5.7246127810478216 3.308451590683009 -0.081359581052694877 -11.180463192913983 0.20056075787996944 13.844088120639324 6.9610300013114665 0.035247576589682868 -0.017456263896397178 1.9692785245533453 5.3562587608893715 -0.22833237548207128 -1.8387469636917113 -1.1675203833213219 3.3216313995306308
leaf_weight=16930 21 21 26 190 20 87 24 109 177 339 64 978 559 127 36 20 74 6325 37 79 20 29 7735 175 582 36 43 50 52 78
leaf_count=16930 21 21 26 190 20 87 24 109 177 339 64 978 559 127 36 20 74 6325 37 79 20 29 7735 175 582 36 43 50 52 78
internal_value=-0.00620509 3.02322 2.12366 -0.0461454 1.92704 4.14372 7.50002 1.50098 -0.0689404 0.0813586 0.226098 0.660027 1.05474 1.7567 2.10911 1.0586 4.35298 -0.14241 -0.991084 -3.42959 0.100975 1.33527 0.0689113 1.40424 1.76224 0.805015 2.31654 0.391829 0.858476 1.42186
internal_weight=35043 456 435 34587 395 205 118 414 34192 17262 10482 2346 1368 809 682 388 94 6780 455 116 8136 206 7930 195 646 368 79 289 239 187
internal_count=35043 456 435 34587 395 205 118 414 34192 17262 10482 2346 1368 809 682 388 94 6780 455 116 8136 206 7930 195 646 368 79 289 239 187
is_linear=0
shrinkage=0.03


Tree=24
num_leaves=31
num_cat=0
split_feature=49 5 5 5 6 5 4 5 7 37 6 6 5 10 7 2 4 5 19 7 7 7 7 7 6 31 5 19 2 43
split_gain=4.43275e+06 7.9908e+06 3.03934e+06 1.09104e+07 1.06976e+06 1.95232e+06 751026 303407 182553 141368 1.55272e+06 2.14112e+06 168122 136095 242501 388993 174409 214470 121609 118693 339864 87142.7 84195.4 1.01562e+06 566055 99965.6 427819 543961 88023.5 292428
threshold=2.5000000000000004 1759692674.0000002 1758827965.0000002 1758600076.0000002 1758933623.5000002 1759298072.0000002 1.0000000180025095e-35 1759678503.0000002 0.071274928624772346 1.0000000180025095e-35 1757876662.0000002 1757551853.0000002 1758679168.5000002 0.032142857142752564 0.16934765108389399 4.7500000000000009 1759147200.0000002 1759246738.5000002 1.0000000180025095e-35 0.4430484969012069 0.43244880252754275 0.46378106617858667 0.0906300988903012 0.081577196095829654 1757906969.0000002 6.5000000000000009 1759621675.0000002 8.5000000000000018 3.2500000000000004 1.5000000000000002
decision_type=2 10 8 10 8 10 10 10 8 2 8 10 8 8 8 10 10 10 2 10 10 10 10 10 10 2 10 2 10 2
left_child=6 2 3 -2 5 -4 8 13 -1 10 11 -8 -12 -6 15 16 17 -15 -11 20 -10 -16 23 -20 -25 28 -27 -28 29 -24
right_child=1 -3 4 -5 7 -7 9 -9 19 18 12 -13 -14 14 21 -17 -18 -19 22 -21 -22 -23 25 24 -26 26 27 -29 -30 -31
leaf_value=-0.19083079539709849 -0.14215460169072053 21.007134878976004 0.070581624627113343 25.288779284737323 1.7461875589688618 11.997046370506286 -1.1000548635210308 3.4661734016418455 0.16248558542251088 -0.23653981121576384 2.2546424969865217 12.292234593548557 -0.14751146148149291 -0.79689644630466183 -1.4168914691318164 4.4584154480695721 -2.1241705452919009 3.1613212274421345 -0.15249744728629319 -0.11816698981630153 2.9673120203843482 0.15022079690297443 -0.0093556815369533041 6.9207136726379392 0.93321491678555801 -0.47732623343615183 5.9231956738692055 -0.4863581104712052 -0.20187300059582436 2.3241265867285006
leaf_weight=1655 49 21 30 22 36 21 21 25 12726 13528 27 22 910 28 110 22 25 22 477 1419 39 45 549 30 27 97 26 22 2959 53
leaf_count=1655 49 21 30 22 36 21 21 25 12726 13528 27 22 910 28 110 22 25 22 477 1419 39 45 549 30 27 97 26 22 2959 53
internal_value=-0.00601893 2.93252 2.05995 7.73785 0.952448 4.98148 -0.044761 0.295961 0.107331 -0.173254 0.177518 5.75181 -0.0782925 0.020769 -0.225719 0.950689 -0.078244 0.944719 -0.192601 0.142121 0.171055 -0.961923 -0.0524104 0.29977 4.08453 -0.103156 0.668983 2.98548 -0.134597 0.196084
internal_weight=35043 456 435 71 364 51 34587 313 15839 18748 980 43 937 288 252 97 75 50 17768 14184 12765 155 4240 534 57 3706 145 48 3561 602
internal_count=35043 456 435 71 364 51 34587 313 15839 18748 980 43 937 288 252 97 75 50 17768 14184 12765 155 4240 534 57 3706 145 48 3561 602
is_linear=0
shrinkage=0.03


Tree=25
num_leaves=31
num_cat=0
split_feature=49 5 0 3 3 0 0 2 0 0 7 7 0 8 0 10 10 7 0 0 8 0 5 7 7 7 7 8 55 7
split_gain=5.08915e+06 5.38607e+06 1.53796e+07 3.26187e+06 1.59732e+06 2.17107e+06 1.27671e+06 2.30987e+06 1.43438e+06 2.50744e+06 896545 1.35098e+06 802128 475368 424280 426038 377738 885927 3.44003e+06 403119 670455 898200 1.40558e+06 521009 2.50316e+06 246912 235174 234553 1.03427e+06 2.95264e+06
threshold=2.5000000000000004 1758679168.5000002 1610.0000000000002 0.98148148148148151 0.067476148168794908 1098.5000000000002 1909.5000000000002 1.2500000000000002 2213.5000000000005 2180.0000000000005 0.2499727609500981 0.37384996587365427 411.00000000000006 5.5000000000000009 128.50000000000003 0.032142857142752564 0.82142857141683689 0.0055103109606612381 1574.0000000000002 1574.0000000000002 5.5000000000000009 1599.5000000000002 1759448433.0000002 0.25966088359836609 0.20004516711833789 0.017896943324135006 1.0000000180025095e-35 1.5000000000000002 2.5000000000000004 0.11115092772715381
decision_type=2 10 8 10 10 10 10 10 10 10 10 10 10 8 10 8 10 10 10 10 10 10 10 10 10 8 8 8 2 10
left_child=6 14 3 4 5 10 12 8 9 13 -3 -12 -1 -8 -2 -16 19 18 -18 27 21 22 23 24 26 -6 -21 28 -14 -30
right_child=1 2 -4 -5 25 -7 7 -9 -10 -11 11 -13 16 -15 15 -17 17 -19 -20 20 -22 -23 -24 -25 -26 -27 -28 -29 29 -31
leaf_value=-0.23564023799069711 -3.7572567389692577 -1.3365069277627128 30.019281732494179 11.940114262297348 2.0186376441608775 12.243412791032057 8.0292535421848292 -0.54713787391997759 0.45324727337176984 14.893669529790463 10.877013243198395 0.41618133316040035 0.021899795407038122 2.851692109605934 4.1241802031343635 -0.29972036423629883 -0.44225778806818661 -0.065936667128196833 -11.366973710060119 -0.11571289350210051 0.027309343939759378 -0.015516103127377523 9.27486007976532 -0.24959246292796439 11.546162766760046 -1.6443772231509435 1.4821270690096138 -0.016923485323595298 13.776399391651152 0.013806064154239411
leaf_weight=16086 28 35 22 37 22 26 20 207 65 23 20 25 319 79 22 179 137 633 32 95 2405 687 20 173 22 67 651 12892 20 47
leaf_count=16086 28 35 22 37 22 26 20 207 65 23 20 25 319 79 22 179 137 633 32 95 2405 687 20 173 22 67 651 12892 20 47
internal_value=-0.0192023 3.03896 6.04701 3.77378 2.22427 4.71222 -0.0618768 1.63611 4.05286 5.97068 2.26459 5.06544 -0.0814275 3.89766 -0.297472 0.184488 0.0553764 -0.581135 -2.51084 0.0848312 0.346712 0.812831 1.405 1.23773 1.57277 -0.738913 1.27865 0.00489421 0.733583 4.12204
internal_weight=35096 483 254 232 195 106 34613 394 187 122 80 45 34219 99 229 201 18133 802 169 17331 4053 1648 961 941 768 89 746 13278 386 67
internal_count=35096 483 254 232 195 106 34613 394 187 122 80 45 34219 99 229 201 18133 802 169 17331 4053 1648 961 941 768 89 746 13278 386 67
is_linear=0
shrinkage=0.03


Tree=26
num_leaves=31
num_cat=0
split_feature=49 5 0 2 5 3 0 0 2 0 0 9 0 7 8 0 8 7 0 0 8 0 5 7 7 2 6 7 8 6
split_gain=4.78838e+06 5.06776e+06 1.44706e+07 3.15793e+06 5.08231e+06 2.13527e+06 3.01844e+06 1.20126e+06 2.17336e+06 1.34961e+06 2.35925e+06 976318 754722 680115 447274 399205 352237 836440 3.23284e+06 382805 630751 855184 1.32142e+06 492352 2.31357e+06 318115 300974 221275 181620 2.70963e+06
threshold=2.5000000000000004 1758679168.5000002 1610.0000000000002 2.2500000000000004 1759684995.0000002 0.067476148168794908 847.00000000000011 1909.5000000000002 1.2500000000000002 2213.5000000000005 2180.0000000000005 0.43948669351145592 411.00000000000006 0.16117225585211784 5.5000000000000009 128.50000000000003 1.0000000180025095e-35 0.0055103109606612381 1574.0000000000002 1574.0000000000002 5.5000000000000009 1599.5000000000002 1759448433.0000002 0.25966088359836609 0.20004516711833789 1.2500000000000002 1759698669.5000002 1.0000000180025095e-35 1.5000000000000002 1758456227.0000002
decision_type=2 10 8 10 10 10 10 10 10 10 10 10 10 10 8 10 8 10 10 10 10 10 10 10 10 8 8 8 8 8
left_child=7 15 3 26 5 6 11 12 9 10 14 -5 -1 -7 -9 -2 17 18 -14 28 21 22 23 24 27 -17 -3 -21 29 -18
right_child=1 2 -4 4 -6 13 -8 8 -10 -11 -12 -13 16 -15 -16 25 19 -19 -20 20 -22 -23 -24 -25 -26 -27 -28 -29 -30 -31
leaf_value=-0.22857103251463032 -3.6445390667234148 0.75509446620941156 29.118702824332498 8.4635373287200935 20.395851925849911 4.7022875086069105 17.624198163986204 7.7883758697509755 -0.53072375014640283 0.43964986060215877 14.44685911261517 -0.51122011661529543 -0.4279673883713343 -2.0192493753773824 2.7661414508578144 3.1455551709447587 10.628516717993694 -0.048634557582274654 -11.025964443683623 -0.11224150585657672 0.026490065600297059 -0.018101379051156666 8.9966141567230213 -0.24210469434242374 10.900639006780541 -0.30119068572975999 -2.8030703482031822 1.437663133052405 -0.016415780660078816 0.039572979207336899
leaf_weight=16086 28 46 22 20 20 20 20 20 207 65 23 24 136 42 79 28 23 593 32 95 2405 690 20 173 23 173 40 651 12892 400
leaf_count=16086 28 46 22 20 20 20 20 20 207 65 23 24 136 42 79 28 23 593 32 95 2405 690 20 173 23 173 40 651 12892 400
internal_value=-0.0186262 2.9478 5.8656 3.66057 6.34685 4.11685 7.96071 -0.0600205 1.58703 3.93127 5.79156 3.56822 -0.0789847 0.148988 3.78073 -0.288548 0.0537151 -0.578022 -2.44663 0.081389 0.336514 0.78785 1.36592 1.20391 1.52922 0.178953 -0.899866 1.24029 0.00365399 0.615331
internal_weight=35096 483 254 232 146 126 64 34613 394 187 122 44 34219 62 99 229 18133 761 168 17372 4057 1652 962 942 769 201 86 746 13315 423
internal_count=35096 483 254 232 146 126 64 34613 394 187 122 44 34219 62 99 229 18133 761 168 17372 4057 1652 962 942 769 201 86 746 13315 423
is_linear=0
shrinkage=0.03


Tree=27
num_leaves=31
num_cat=0
split_feature=49 5 0 3 3 0 0 2 0 0 9 0 0 13 10 7 0 0 0 9 0 13 55 7 13 5 5 5 10 7
split_gain=4.50539e+06 4.76825e+06 1.36154e+07 3.08773e+06 1.41187e+06 1.96722e+06 1.13027e+06 2.04491e+06 1.26984e+06 2.21982e+06 922617 712988 469703 420840 384100 911834 2.88318e+06 376574 356496 449932 351058 355823 1.71818e+06 2.1671e+06 342407 488520 904384 312410 285324 237797
threshold=2.5000000000000004 1758679168.5000002 1610.0000000000002 0.98148148148148151 0.067476148168794908 1098.5000000000002 1909.5000000000002 1.2500000000000002 2213.5000000000005 2180.0000000000005 0.17499040675364544 579.50000000000011 268.50000000000006 38.500000000000007 0.82142857141683689 1.0000000180025095e-35 1574.0000000000002 114.50000000000001 599.50000000000011 0.00098199801559255371 1449.5000000000002 10.500000000000002 2.5000000000000004 0.2767968471677949 38.500000000000007 1759472079.5000002 1759610226.5000002 1759458667.0000002 0.032142857142752564 0.017896943324135006
decision_type=2 10 8 10 10 10 10 10 10 10 10 10 10 8 10 10 10 10 10 10 10 8 2 10 10 10 10 10 8 8
left_child=6 17 3 4 5 10 11 8 9 13 -3 -1 -12 -8 18 16 -16 -2 19 -13 21 22 -20 -24 25 -22 -27 -14 -19 -6
right_child=1 2 -4 -5 29 -7 7 -9 -10 -11 12 14 27 -15 15 -17 -18 28 20 -21 24 -23 23 -25 -26 26 -28 -29 -30 -31
leaf_value=-0.20292482120952665 -4.1085868617466517 7.6325205953121182 28.245141541307621 11.49610689060108 1.9634771334041248 11.55114632166349 7.5547250289916992 -0.51480202547881915 0.42646033683189977 14.013452777033265 3.9460993766784664 3.4635262825526296 0.96665522289276118 2.683157418830485 -0.40915669112546099 -0.076364300973171539 -10.695185605287552 3.1128344447135925 -0.0065480126606093517 0.13318622767925262 0.47690298235623646 -0.0570357683772185 13.772134888172149 0.12759102108803663 0.07005829802299722 8.2288861628941135 0.26494823542508211 -4.3358855724334715 -0.30402048319089608 -1.6312883558624716
leaf_weight=18489 21 20 22 37 22 26 20 207 65 23 20 64 20 79 105 550 32 25 216 85 2416 8958 20 22 3208 21 33 20 183 67
leaf_count=18489 21 20 22 37 22 26 20 207 65 23 20 64 20 79 105 550 32 25 216 85 2416 8958 20 22 3208 21 33 20 183 67
internal_value=-0.0180674 2.85936 5.68963 3.55075 2.04317 4.38224 -0.0582199 1.53941 3.81333 5.61781 2.05235 -0.0766152 0.19229 3.66731 0.0718488 -0.621845 -2.81173 -0.279892 0.103529 1.56367 0.0889219 -0.0254005 1.07301 6.62499 0.274479 0.539979 3.36204 -1.68462 0.106659 -0.742695
internal_weight=35096 483 254 232 195 106 34613 394 187 122 80 34219 60 99 15730 687 137 229 15043 149 14894 9216 258 42 5678 2470 54 40 208 89
internal_count=35096 483 254 232 195 106 34613 394 187 122 80 34219 60 99 15730 687 137 229 15043 149 14894 9216 258 42 5678 2470 54 40 208 89
is_linear=0
shrinkage=0.03


Tree=28
num_leaves=31
num_cat=0
split_feature=49 5 0 5 3 0 0 2 0 0 9 0 55 6 2 0 10 10 0 2 0 61 5 9 5 0 0 10 9 0
split_gain=4.23912e+06 4.48645e+06 1.28108e+07 2.99068e+06 1.27816e+06 2.30695e+06 1.06347e+06 1.92406e+06 1.1948e+06 2.08863e+06 933952 673512 404326 472495 388788 358427 363929 320879 424674 528817 357897 327984 1.93232e+06 272765 251028 210772 475416 190242 515668 172384
threshold=2.5000000000000004 1758679168.5000002 1610.0000000000002 1759691186.0000002 0.067476148168794908 849.50000000000011 1909.5000000000002 1.2500000000000002 2213.5000000000005 2180.0000000000005 0.28752452950141189 411.00000000000006 3.5000000000000004 1759670833.0000002 1.0000000180025095e-35 128.50000000000003 0.032142857142752564 0.25595238095131101 1574.0000000000002 1.7500000000000002 1453.0000000000002 1.0000000180025095e-35 1758767153.5000002 0.74857068182560693 1759699660.5000002 1610.0000000000002 1574.0000000000002 0.19821428571364927 0.52184517497348903 195.50000000000003
decision_type=2 10 8 10 10 10 10 10 10 10 10 10 2 8 10 10 8 10 10 10 10 2 10 10 10 10 10 10 10 8
left_child=6 15 3 4 5 10 11 8 9 14 -3 29 13 -6 -8 -2 -17 20 -19 23 -13 22 25 -20 27 26 -22 -23 -29 -1
right_child=1 2 -4 -5 12 -7 7 -9 -10 -11 -12 17 -14 -15 -16 16 -18 18 19 -21 21 24 -24 -25 -26 -27 -28 28 -30 -31
leaf_value=-0.36570325280911603 -3.4514622943741937 7.2932841424942012 27.397787480787795 13.967732889435508 5.141440440586635 11.952415530065009 2.5818034212405867 -0.49935796976089475 0.41366651212252104 13.593049116549283 -0.42289653271436689 -0.0087314630061604351 -2.8115705442428589 -0.065152381504735637 7.1805387033735002 3.8127031188661404 -0.27603841012416602 -0.11467454267497032 -5.67905874023214 -0.66237476885723312 0.068128860922036127 0.083358158122923381 9.9036417202949529 -2.0025847581454683 3.4826546072959901 -0.11429184790996655 1.2178883946891872 5.7320837911516422 -0.0014843887090682983 -0.15136070034589144
leaf_weight=4823 28 20 22 22 21 29 78 207 65 23 48 11313 30 62 21 22 179 1093 32 221 588 3651 20 42 20 365 720 20 48 11263
leaf_count=4823 28 20 22 22 21 29 78 207 65 23 48 11313 30 62 21 22 179 1093 32 221 588 3651 20 42 20 365 720 20 48 11263
internal_value=-0.0175254 2.77358 5.51894 3.44423 2.34176 4.8679 -0.0564733 1.49323 3.69893 5.44928 1.84657 -0.0743167 0.173307 1.25218 3.55729 -0.271495 0.171486 0.0510406 -0.387293 -1.39737 0.0873742 0.287529 0.633961 -3.59241 0.130667 0.523146 0.701024 0.112641 1.68486 -0.215626
internal_weight=35096 483 254 232 210 97 34613 394 187 122 68 34219 113 83 99 229 201 18133 1388 295 16745 5432 1693 74 3739 1673 1308 3719 68 16086
internal_count=35096 483 254 232 210 97 34613 394 187 122 68 34219 113 83 99 229 201 18133 1388 295 16745 5432 1693 74 3739 1673 1308 3719 68 16086
is_linear=0
shrinkage=0.03


Tree=29
num_leaves=31
num_cat=0
split_feature=49 5 0 5 6 0 7 7 0 7 0 0 0 4 0 5 9 8 0 7 7 0 10 5 9 8 6 0 7 7
split_gain=3.98859e+06 4.2213e+06 1.20536e+07 2.81393e+06 1.06566e+06 1.57559e+06 5.24975e+06 1.22446e+06 1.00062e+06 1.869e+06 1.63856e+06 2.08898e+06 635274 358925 573344 559376 1.25689e+06 395574 604232 411416 2.60793e+06 344051 283212 247027 837047 264279 2.93167e+06 264234 191432 174315
threshold=2.5000000000000004 1758679168.5000002 1610.0000000000002 1759691186.0000002 1759634788.5000002 639.50000000000011 0.20648642142067747 0.3451015829490216 1909.5000000000002 1.0000000180025095e-35 2213.5000000000005 2180.0000000000005 411.00000000000006 1758801600.0000002 1574.0000000000002 1759472079.5000002 0.72730950279493978 5.5000000000000009 1599.5000000000002 0.263175931604199 0.15668836590300986 1610.0000000000002 0.032142857142752564 1759059600.5000002 0.007261097111843382 1.5000000000000002 1758482211.0000002 411.00000000000006 1.0000000180025095e-35 0.0055103109606612381
decision_type=2 10 8 10 10 10 8 10 10 10 10 10 8 10 10 10 10 10 10 10 10 8 8 8 10 8 8 10 8 10
left_child=8 21 3 4 5 7 -7 -3 12 10 11 -10 -1 14 23 17 -17 18 19 20 28 22 -2 24 -14 26 -25 -26 -16 -15
right_child=1 2 -4 -5 -6 6 -8 -9 9 -11 -12 -13 13 29 15 16 -18 -19 -20 -21 -22 -23 -24 25 27 -27 -28 -29 -30 -31
leaf_value=-0.23968415246550095 3.2049253582954407 -1.7849513645172119 26.575853566256434 13.548700730583885 -0.2447737255827947 17.898554890823366 -1.5431994335174559 6.2961589654286696 3.9179484471310393 -0.39860074877738955 -0.063141365200281144 14.24184360590848 6.719473263876778 -0.60109356186178686 -0.12466026468710464 8.2881322332528917 -1.0400579188420223 0.038694097417994795 0.0087984769765443154 -0.40741198596772998 12.275338571548462 -3.5850492147445681 -0.26443979387978711 11.990956246376037 2.9298698164802044 -0.013289420049430246 0.02024311790178562 -0.040361295295389073 1.4639574449640571 -0.085131362297543436
leaf_weight=12763 24 45 22 22 88 25 25 27 89 219 64 22 21 637 77 26 26 1031 503 106 20 25 180 20 32 10081 232 171 602 7871
leaf_count=12763 24 45 22 22 88 25 25 27 89 219 64 22 21 637 77 26 26 1031 503 106 20 25 180 20 32 10081 232 171 602 7871
internal_value=-0.0169996 2.69037 5.35338 3.3409 2.27151 4.08654 8.17768 1.24547 -0.0547791 1.44843 3.75987 5.96413 -0.0720872 0.027607 0.12707 0.546547 3.62404 0.478129 0.824503 1.33419 1.5983 -0.26335 0.143721 0.0320648 1.01769 0.0106982 0.9703 0.427852 1.2838 -0.123762
internal_weight=35096 483 254 232 210 122 50 72 34613 394 175 111 34219 21456 12948 2391 52 2339 1308 805 699 229 204 10557 224 10333 252 203 679 8508
internal_count=35096 483 254 232 210 122 50 72 34613 394 175 111 34219 21456 12948 2391 52 2339 1308 805 699 229 204 10557 224 10333 252 203 679 8508
is_linear=0
shrinkage=0.03


Tree=30
num_leaves=31
num_cat=0
split_feature=49 5 0 0 8 7 9 5 5 5 5 8 0 5 9 8 10 9 6 0 6 7 8 55 8 7 10 10 0 0
split_gain=5.03928e+06 4.78044e+06 4.6305e+06 1.99164e+06 6.71558e+06 2.95374e+07 4.01739e+07 947335 2.17159e+06 1.12284e+06 1.90283e+06 588307 660152 1.222e+06 503404 464843 1.33859e+06 895189 452797 418635 339809 234818 223820 206577 201616 560421 196354 193167 168953 763505
threshold=2.5000000000000004 1759691186.0000002 60.500000000000007 1574.0000000000002 1.0000000180025095e-35 0.0098159656983186402 0.56452824276567848 1759302554.0000002 1759412110.5000002 1759569851.0000002 1759616454.0000002 5.5000000000000009 1599.5000000000002 1759377311.0000002 0.39452951835054367 4.5000000000000009 0.1107142857139949 0.72370257037943708 1758170956.5000002 307.50000000000006 1759529675.0000002 0.49982817869415813 4.5000000000000009 2.5000000000000004 5.5000000000000009 0.2499727609500981 0.12976190476156521 0.047619047618877558 2129.5000000000005 1909.5000000000002
decision_type=2 10 10 10 8 10 10 10 10 10 10 10 10 10 8 8 10 10 8 10 8 10 10 2 10 10 10 8 10 10
left_child=3 2 -2 19 5 6 -5 18 -9 23 -11 12 13 15 -12 27 22 -18 -4 -1 -7 -22 -17 -10 25 -20 -16 -6 29 -14
right_child=1 -3 7 4 11 20 -8 8 9 10 14 -13 28 -15 26 16 17 -19 24 -21 21 -23 -24 -25 -26 -27 -28 -29 -30 -31
leaf_value=-0.24473860532324909 15.555751862214956 16.807739608071067 4.742069454193115 59.016045112609859 2.1329809939522635 2.2470034729101154 1.9714165775299071 12.262250735976478 0.13071882247924804 12.324494394779204 5.7028705826997754 -0.0027639002266978954 -0.076319216213835125 8.5863753862380978 1.9207502925395965 1.3702784607019374 2.3063492338997977 11.065944976125444 -0.90114490413665771 -0.020599145972992134 -3.6624054178595542 -0.34470890791155401 -0.3155912707470081 -3.7559173736572267 -0.37028275873534072 5.402737164063887 -2.0436030468073758 -0.32840353469516742 -0.86938560360356376 2.7472818399739984
leaf_weight=14041 23 22 21 20 33 38 25 22 32 20 20 2485 666 20 23 567 21 21 30 16098 24 96 81 20 169 22 22 220 133 99
leaf_count=14041 23 22 21 20 33 38 25 22 32 20 20 2485 666 20 23 567 21 21 30 16098 24 96 81 20 169 22 22 220 133 99
internal_value=0.00403405 3.17261 2.46513 -0.0367058 0.548413 5.88179 27.3246 1.71429 3.5132 2.10825 4.23253 0.299293 0.70263 1.24826 1.7427 1.09262 1.49595 6.68615 0.532362 -0.12502 -0.22534 -1.00825 1.15954 -1.36414 0.132344 1.76588 -0.017378 -0.00735338 0.11751 0.289088
internal_weight=35134 446 424 34688 4549 203 45 401 159 137 85 4346 1861 963 65 943 690 42 242 30139 158 120 648 52 221 52 45 253 898 765
internal_count=35134 446 424 34688 4549 203 45 401 159 137 85 4346 1861 963 65 943 690 42 242 30139 158 120 648 52 221 52 45 253 898 765
is_linear=0
shrinkage=0.03


Tree=31
num_leaves=31
num_cat=0
split_feature=49 17 0 0 8 4 4 17 17 31 4 17 11 6 0 6 55 0 0 0 0 8 10 10 31 17 6 10 8 3
split_gain=4.74146e+06 4.49791e+06 4.35684e+06 1.87394e+06 6.31869e+06 2.40471e+07 5.87818e+07 891348 2.04325e+06 1.12431e+06 768029 559737 430245 426037 393893 369332 314617 303480 776063 335613 267316 580998 1.68464e+06 240060 198888 202911 252358 198465 191687 168545
threshold=2.5000000000000004 1759691186.0000002 60.500000000000007 1574.0000000000002 1.0000000180025095e-35 1759406400.0000002 1759320000.0000002 1759302554.0000002 1759412110.5000002 1.5000000000000002 1.0000000180025095e-35 1759472079.5000002 1.0000000180025095e-35 1758170956.5000002 307.50000000000006 1759545669.0000002 1.5000000000000002 2129.5000000000005 1909.5000000000002 2213.5000000000005 1599.5000000000002 5.5000000000000009 0.1107142857139949 25000000000.000004 1.5000000000000002 1758827965.0000002 1758415989.5000002 0.12976190476156521 3.5000000000000004 0.13291288923925901
decision_type=2 10 10 10 8 10 10 10 10 2 10 10 2 8 10 8 2 10 10 10 10 10 10 10 2 8 10 10 10 10
left_child=3 2 -2 14 5 6 -5 13 -9 16 11 17 23 -4 -1 -14 29 18 20 -19 21 22 28 -7 25 26 -15 -18 -6 -10
right_child=1 -3 7 4 10 12 -8 8 9 -11 -12 -13 15 24 -16 -17 27 19 -20 -21 -22 -23 -24 -25 -26 -27 -28 -29 -30 -31
leaf_value=-0.23739644953973216 15.089079521842624 16.303506639653985 4.5998072188241137 -2.9520313555194484 1.3007670664550059 -5.3291308640856299 62.054017517226079 11.8943830984289 4.5491145286560055 6.967939310967922 -0.067797648504752658 4.8710473338899938 4.2024014292444507 4.6718411551203047 -0.019981171634006829 -0.22064270729429267 0.56960106121866327 -3.2359795872867108 3.8847423791885376 0.30351564067683806 0.16476812626505116 -0.052433389880614023 8.266910873766868 -0.73663911717278618 -1.9463109103611538 -0.04920733099324362 0.21087553482055663 -2.8720907825946806 -0.25356801673218055 0.7439147351682186
leaf_weight=14041 23 22 21 31 603 20 21 22 20 32 2406 29 21 21 16098 89 38 36 69 73 659 359 31 21 35 140 25 25 81 22
leaf_count=14041 23 22 21 31 603 20 21 22 20 32 2406 29 21 21 16098 89 38 36 69 73 659 359 31 21 35 140 25 25 81 22
internal_value=0.00391303 3.07743 2.39117 -0.0356046 0.53196 5.70533 23.3004 1.66286 3.40781 2.045 0.290314 0.734446 -0.353899 0.516391 -0.121269 0.623757 0.544676 0.671672 0.764652 -0.865492 0.640425 0.932285 1.42671 -2.97688 0.128374 0.518772 2.2474 -0.79615 1.1167 2.55591
internal_weight=35134 446 424 34688 4549 203 52 401 159 137 4346 1940 151 242 30139 110 105 1911 1802 109 1733 1074 715 41 221 186 46 63 684 42
internal_count=35134 446 424 34688 4549 203 52 401 159 137 4346 1940 151 242 30139 110 105 1911 1802 109 1733 1074 715 41 221 186 46 63 684 42
is_linear=0
shrinkage=0.03


Tree=32
num_leaves=31
num_cat=0
split_feature=49 5 0 0 8 4 4 5 9 3 0 4 5 11 6 0 6 0 0 0 0 8 2 2 8 6 8 6 5 31
split_gain=4.46124e+06 4.23209e+06 4.09935e+06 1.76319e+06 5.94526e+06 2.26259e+07 5.53078e+07 838669 1.99862e+06 2.96156e+06 6.1232e+06 722639 526656 404817 400858 373987 347504 285544 730198 315778 251517 546661 2.34154e+06 225872 188867 469569 178644 159453 150781 144832
threshold=2.5000000000000004 1759691186.0000002 60.500000000000007 1574.0000000000002 1.0000000180025095e-35 1759406400.0000002 1759320000.0000002 1759302554.0000002 0.87501135331516811 1.4365079365079367 639.50000000000011 1.0000000180025095e-35 1759472079.5000002 1.0000000180025095e-35 1758170956.5000002 527.00000000000011 1759545669.0000002 2129.5000000000005 1909.5000000000002 2213.5000000000005 1599.5000000000002 5.5000000000000009 3.7500000000000004 2.7500000000000004 5.5000000000000009 1758263725.5000002 3.5000000000000004 1759706484.0000002 1759626006.5000002 1.5000000000000002
decision_type=2 10 10 10 8 10 10 10 8 8 10 10 10 2 8 10 8 10 10 10 10 10 10 10 10 10 10 10 10 2
left_child=3 2 -2 15 5 6 -5 14 9 28 -11 12 17 23 -4 27 -15 18 20 -19 21 22 26 -7 25 -16 -6 -1 -9 -26
right_child=1 -3 7 4 11 13 -8 8 -10 10 -12 -13 -14 16 24 -17 -18 19 -20 -21 -22 -23 -24 -25 29 -27 -28 -29 -30 -31
leaf_value=-0.20689617718843184 14.636407420324241 15.814402261213822 4.4618130387578683 -2.8634702811702604 1.2532529352426383 -5.1692569112777704 60.192395962306435 -1.8892605171203614 -0.90147462074795071 1.7678693712911298 21.951776876449586 -0.065763718130629034 4.7249158055206824 4.0763293913432532 4.5563865698300878 0.01208939355522844 -0.21402342156412896 -3.1389004159222047 3.7682000213084015 0.2944102013601016 0.15982508100529677 -0.050860383415952698 11.019403697198088 -0.71453996079308646 0.062495243906104656 -1.1452460410044742 -0.24596097800466746 2.29258668858072 1.7098306586525658 -2.1791241395473477
leaf_weight=18093 23 22 21 31 612 20 21 20 62 31 24 2406 29 21 26 12023 89 36 69 73 659 359 22 21 137 26 81 23 22 32
leaf_count=18093 23 22 21 31 612 20 21 20 62 31 24 2406 29 21 26 12023 89 36 69 73 659 359 22 21 137 26 81 23 22 32
internal_value=0.00379564 2.98511 2.31944 -0.0345365 0.516001 5.53417 22.6014 1.61298 3.30557 5.99462 10.5754 0.281604 0.712413 -0.343282 0.500899 -0.117631 0.605044 0.651522 0.741713 -0.839527 0.621212 0.904317 1.38391 -2.88757 0.124523 1.70557 1.07802 -0.203723 -0.00402228 -0.361953
internal_weight=35134 446 424 34688 4549 203 52 401 159 97 55 4346 1940 151 242 30139 110 1911 1802 109 1733 1074 715 41 221 52 693 18116 42 169
internal_count=35134 446 424 34688 4549 203 52 401 159 97 55 4346 1940 151 242 30139 110 1911 1802 109 1733 1074 715 41 221 52 693 18116 42 169
is_linear=0
shrinkage=0.03


Tree=33
num_leaves=31
num_cat=0
split_feature=49 5 5 3 8 9 9 9 9 5 2 4 4 9 8 6 6 19 4 10 43 5 10 6 9 4 8 8 6 5
split_gain=4.19758e+06 4.05471e+06 9.01373e+06 6.26985e+06 1.10192e+06 1.01165e+06 1.7709e+06 1.58821e+06 1.53184e+06 823992 368207 1.20287e+06 9.66866e+06 2.32608e+07 4.53218e+07 1.47004e+06 2.46338e+06 369367 288338 285550 159594 1.49192e+06 188104 130632 119021 456348 637662 312123 94712.6 88443.3
threshold=2.5000000000000004 1758679168.5000002 1758996217.0000002 0.98148148148148151 5.5000000000000009 0.40001740038280847 0.053414170233000484 0.79038187855787478 0.89934442978161855 1759568421.0000002 1.2500000000000002 1759406400.0000002 1759320000.0000002 0.37391049701488782 1.5000000000000002 1757876662.0000002 1757610848.5000002 1.5000000000000002 1.0000000180025095e-35 0.032142857142752564 1.5000000000000002 1759048025.0000002 0.19821428571364927 1759539622.0000002 0.99624065942442164 1759233600.0000002 1.0000000180025095e-35 1.0000000180025095e-35 1759221334.0000002 1759704227.5000002
decision_type=2 10 10 10 10 10 10 10 10 10 8 8 10 10 10 8 10 2 10 8 2 10 10 10 10 10 10 10 10 10
left_child=10 19 -3 4 23 6 -6 -7 -9 -10 11 12 15 14 -14 16 -1 -13 20 -2 -12 22 -22 -4 27 -26 -27 -17 -21 -20
right_child=1 2 3 -5 5 7 -8 8 9 -11 18 17 13 -15 -16 24 -18 -19 29 28 21 -23 -24 -25 25 26 -28 -29 -30 -31
leaf_value=-1.2287014969211556 2.9136079663815706 24.803350381851196 -4.2922617845535278 15.438136567252021 0.93703726595098324 -3.677270837216764 13.271407703876495 11.014960793495177 5.4989220113754271 -2.7460354817006736 0.010437640481942305 -0.21898352074605343 55.816362593277638 -0.44126544950639501 0.23530089901339624 -2.5907071577247822 13.167312140464782 3.13309295296669 -0.15693114535527961 -1.0276691287668314 0.02011718228640344 6.7159363861517472 2.9878414227962491 -1.0393832656860351 -0.22245089409659416 5.2644065472057884 -0.28035809151828289 -0.25289436668157578 0.57360432386398308 1.0481130252534694
leaf_weight=23 23 20 20 35 22 37 20 20 20 24 14298 2139 23 102 31 57 20 30 16320 136 494 33 20 25 445 35 40 523 44 55
leaf_count=23 23 20 20 35 22 37 20 20 20 24 14298 2139 23 102 31 57 20 30 16320 136 494 33 20 25 445 35 40 523 44 55
internal_value=0.00368177 2.89555 5.50999 3.77965 1.60919 2.8976 6.81055 1.27043 4.13083 1.00167 -0.0335004 0.259761 0.981727 7.98757 23.9087 0.0255479 5.46712 -0.17262 -0.0660766 -0.234046 0.0296772 0.532579 0.135593 -2.48511 -0.187168 0.142402 2.3072 -0.482645 -0.636247 -0.152884
internal_weight=35134 446 243 223 188 143 42 101 64 44 34688 3468 1299 156 54 1143 43 2169 31220 203 14845 547 514 45 1100 520 75 580 180 16375
internal_count=35134 446 243 223 188 143 42 101 64 44 34688 3468 1299 156 54 1143 43 2169 31220 203 14845 547 514 45 1100 520 75 580 180 16375
is_linear=0
shrinkage=0.03


Tree=34
num_leaves=31
num_cat=0
split_feature=49 5 0 0 8 7 0 5 5 5 5 4 4 5 6 0 7 7 0 0 0 43 55 0 8 55 8 6 5 6
split_gain=3.9495e+06 3.94898e+06 3.8401e+06 1.65422e+06 5.50712e+06 2.59223e+07 3.96569e+07 768535 1.84046e+06 1.07134e+06 1.7422e+06 1.08793e+06 670703 490620 389336 355226 341087 693026 268513 687208 297168 250015 239070 222952 453679 1.28387e+06 312222 190560 232549 271874
threshold=2.5000000000000004 1759691186.0000002 60.500000000000007 1574.0000000000002 1.0000000180025095e-35 0.0098159656983186402 1599.5000000000002 1759302554.0000002 1759412110.5000002 1759569851.0000002 1759616454.0000002 1759320000.0000002 1.0000000180025095e-35 1759472079.5000002 1758170956.5000002 307.50000000000006 0.49982817869415813 0.77785254972334394 2129.5000000000005 1909.5000000000002 2213.5000000000005 2.5000000000000004 2.5000000000000004 1599.5000000000002 5.5000000000000009 1.5000000000000002 1.5000000000000002 1759010280.0000002 1758827965.0000002 1759356138.0000002
decision_type=2 10 10 10 8 10 10 10 10 10 10 8 10 10 8 10 10 10 10 10 10 2 2 10 10 2 10 8 8 10
left_child=3 2 -2 15 5 6 -5 14 -9 22 -11 -12 13 18 -4 -1 -7 -18 19 21 -20 23 -10 24 25 26 -6 -16 29 -29
right_child=1 -3 7 4 12 16 -8 8 9 10 11 -13 -14 -15 27 -17 17 -19 20 -21 -22 -23 -24 -25 -26 -27 -28 28 -30 -31
leaf_value=-0.22326143891882858 14.08680685043335 15.20144306529652 4.3209205184344732 55.525479779924666 1.2522362548585921 -2.7072094857692717 -0.92553342103958125 11.156624754992398 0.025103970766067504 11.626655868530273 6.9274499029462984 -1.2748075978700504 -0.059488892171954605 4.5629943120890655 -2.6030349631742995 -0.016793209870349015 5.5282867077626285 -0.61038615975528954 -3.0450545287132265 3.6549365301495009 0.28554757784490714 3.4662507496939763 -4.1560448198318483 0.11843989958986639 -0.066096612570775037 6.8608830240113399 -0.49422655086083839 4.0664559045859745 -0.23888426982211752 -0.51318876886367804
leaf_weight=14041 23 22 21 21 567 42 24 22 32 20 22 43 2406 29 22 16098 20 96 36 69 73 27 20 648 346 35 110 28 151 20
leaf_count=14041 23 22 21 21 567 42 24 22 32 20 22 43 2406 29 22 16098 20 96 36 69 73 27 20 648 346 35 110 28 151 20
